solver_type L2R_L2LOSS_SVC_DUAL
nr_class 2
label 1 2
nr_feature 5649
bias -1
w
-0.001759386513902574 
0.001647765388333804 
-0.01021554069004783 
-0.01839697299296088 
-0.007429649945802947 
-0.004226053636907863 
-0.01093005587649409 
-0.01441426675220674 
0.01184268162676149 
-0.007969784094607088 
0.005800559448574521 
0.0004375975674146794 
0.006909408287198042 
-0.002490580784078988 
-0.00348277372460338 
-0.002774871586520995 
0.01565328400020437 
-0.009778860964132956 
0.006979420907510882 
0.004769246901786802 
-0.01234308127150092 
-0.006734198204827311 
0.004515244243950315 
-0.00423153114268674 
-0.01111526909691196 
-0.01389348916148452 
-0.002151775395811266 
0.01054190173947495 
-0.004503638303172182 
0.01405760340217467 
0.003556538777542425 
0.01048104087400378 
-0.005056376904093798 
0.008211638168117444 
-0.004663511656398552 
0.003005146049752536 
-0.008565942471125177 
-0.001070317766831114 
-0.005760868701571113 
0.005889404146052594 
-0.001217005486696205 
-0.005431871680115798 
-0.007622870931847274 
-0.003012407851916299 
0.005532237614349783 
-0.00771047929253356 
0.0006825875595686384 
-7.836535485457926e-05 
0.005408667772901508 
-0.001797646765783844 
0.009359556908422604 
-0.003732728116046267 
0.01037338168500869 
0.001026495746614581 
-0.002381994058120507 
-0.008568180372610701 
0.005038635592987488 
-0.008183224851396911 
-0.01118743528234107 
-0.005218177714880558 
-0.001458025600340247 
0.005379788070966935 
-0.001990464132580376 
-0.007318507128715924 
0.0003852176406135177 
0.005286938239956256 
-0.004665437925284983 
0.008125428908810992 
-0.006375422005156486 
0.00162361250900351 
0.001046980310702114 
0.001350430612929066 
-0.004279951767813521 
0.002972076824987962 
-0.004154931291642179 
-0.00524314103085613 
-0.007076566985488944 
0.002968261083962925 
0.009562044216585103 
0.002286983317284485 
-0.006215797127431608 
-0.00491399728220845 
0.002205446025408255 
-0.006172428454356051 
0.007239046793926542 
-0.009043927453661024 
0.005027886725971968 
-0.0006129132819553132 
-0.0007883421689476526 
-0.009830978715877767 
0.007659990184572321 
0.003210102333496207 
0.0006872534451043032 
-0.004806572914020693 
0.001628272712322908 
0.01235134733703853 
-0.002263976130523884 
0.002541308788631511 
0.003902109973523056 
0.003576462176857277 
-0.008340831252931896 
0.006413771494587558 
-0.003233632240830103 
0.001374368799046772 
0.004516114485270723 
-0.0009721718306707775 
-0.002675118536956072 
0.007297563555156043 
0.005013871180765319 
-0.002697466325210772 
-0.0214182450288249 
-0.0003284235178648309 
0.002278380850618973 
-0.00346128186130936 
0.003966201339616423 
0.007607273055335467 
0.01519043607130625 
0.002380889007422822 
0.01526381888752457 
-0.003518692343698951 
0.001672890325508577 
-0.007282630124370002 
-0.007298624893009659 
0.001072111274077037 
0.003066178888257157 
-0.004069752543749107 
0.008260622741252664 
-0.003912461852278646 
0.00248092440663407 
0.0042723142843911 
0.0009952137747163364 
0.001197781516371366 
0.002020348147772061 
0.00666109272104813 
-0.002645577086422425 
0.01077417582432738 
-0.002108619340546642 
-0.006594758296412519 
-0.008994013788757199 
-0.01125428744596794 
-0.01823606862637212 
0.002607263152894511 
-0.008839003582156703 
-0.01555019726071743 
0.005380043588737843 
-0.002836999057303833 
0.009562993595588203 
-0.001654977417496633 
-0.00150339375255064 
-0.0001284322251765686 
-0.004261443992530989 
-0.001843138098095593 
0.0158713025465177 
-0.009653587361028997 
0.007076927285005324 
0.007338496794908702 
-0.0004277046891266731 
-0.008801238078911212 
0.007528108547721728 
-0.001142819002798095 
-0.01612504049995244 
-0.001849005237821427 
-0.0003667732335000266 
0.01283017654309264 
0.003248933103768413 
-0.001963057506345204 
0.00227624466498682 
0.001874922684817436 
-0.01144002731997381 
0.008322135641292574 
-0.007429634553024261 
0.009910255173541634 
-0.001630546118563988 
0.01341321069531903 
-0.0162686276054397 
-0.001007789113222508 
-0.009922692635104811 
-0.008814282973553156 
0.008006438572641271 
-0.009808878605150671 
0.005817891914640085 
0.00298337792706185 
-0.01042257469543428 
-0.005929795486116822 
-0.0008420244114865942 
-0.01428850850911098 
0.00374086250416613 
-0.0139555061594359 
0.005980389295730998 
-0.007025740920394977 
-0.000932835776218775 
-0.006368188559238141 
0.006527793863063509 
-0.005041891465890613 
-0.01350385938385484 
0.007811336422108918 
-0.004098255825719621 
-0.007766901108989237 
-0.008867253128322089 
-0.009978207066338115 
-0.0009369180596394339 
0.00316788705299258 
-0.008880084600150462 
0.004637575508778662 
-0.01865393474430616 
0.004076182933622605 
-0.003786903230875395 
-0.002745274136581858 
-0.009221879989355246 
0.005924527114169545 
-0.005828113686163388 
-0.01367729867630482 
-0.001212284361399612 
-0.004696860693825922 
0.002201158980860393 
-0.008055654961493953 
0.0008678383567059782 
-0.00281278741456807 
0.002236527705709664 
-0.00973185460640502 
0.006464171826938693 
-0.01009764937641105 
-0.003025628375018774 
-0.005315566604911337 
-0.01072865732964203 
-0.002584726134039106 
-0.001130925191794199 
-0.006887619691840017 
-0.01111815539477003 
-0.007721011452254479 
-0.002736767337983041 
0.001360573701554828 
8.284320156571881e-06 
0.003528126963075988 
0.003490786122088521 
0.004544407794053355 
-0.007749622419063342 
0.008873188752827854 
-0.004043749711314257 
0.006259856629407688 
-0.000891059156459538 
-0.002141235831498591 
-0.01180031106966999 
0.004503951909918025 
0.003243125096900063 
-0.005444326964711565 
-0.006769420231499695 
0.0003629880387778183 
-0.003870267214277316 
0.004047075482431619 
0.008337268011117855 
0.001289320644039371 
0.00350433029144156 
-0.0002714929897082713 
0.001651883110625172 
-0.007312623235932462 
0.0022564896820713 
-0.004003659679818766 
-0.01652495018955779 
-0.002391924236744358 
-0.0005641576290047678 
-0.001140783393164383 
-0.00194094905374083 
0.01388741363796354 
-0.002975481081208246 
0.008027979434860007 
0.004427445280101435 
0.001414420929673804 
-0.004318838280360245 
-0.003174081144586632 
-0.009000930487899678 
0.001841355949672272 
-0.00490381177001962 
-0.004439045067376808 
0.001363647380512091 
-0.001238704641509794 
0.001613002209619797 
0.002205564096979203 
-0.005318833437264246 
-0.01481493800675178 
-0.001966895516395784 
-0.006055542507239045 
0.002524296809206564 
-0.00633966625416642 
-0.001063667222300831 
-0.01075292152323711 
-0.008508353565929732 
-0.0007630397500976396 
0.008646478061385873 
0.004805269305608369 
0.01917691623691618 
0.00899467353404897 
-0.003841276747805784 
-0.01299827783757038 
-0.004062569239189171 
-0.01134328492075737 
-0.005158436952216529 
-0.01233757758740308 
0.02174105215360199 
0.01203122272237515 
-0.00431454578593462 
-0.0157246281565133 
-0.009474337237761567 
-0.007670290494493667 
-0.01137499546219993 
0.0001031355463383483 
-0.01187443772611643 
0.0007150812748930642 
-0.001671223274118727 
0.002030130189355856 
-0.0115063714736261 
0.001673955082974195 
-0.01180580669307979 
-0.003061896790749727 
-0.0057990358126285 
-0.004633163626582368 
0.005636547278293672 
-0.008788185741994733 
-0.007565933346761674 
-0.004849038821556289 
-0.00761000056500585 
-0.007199343570290157 
0.006044874213917553 
-0.009706546049912513 
-0.005862386919737926 
-0.00786588998831317 
-0.004868524129141224 
-0.003039794871593943 
0.005748792956738314 
-0.005120187480418822 
-0.01001342807641916 
-0.007109284164349899 
-0.0111866632439548 
0.001351457820684775 
-0.01077022546853125 
-0.003652951069121944 
-0.0008930125755680957 
0.001445220805620967 
-0.009760020418310021 
0.005833330431287375 
-0.0134188395498896 
-0.002135360111581164 
-0.003795471506234257 
0.001526986782354074 
-0.002479904208341779 
0.005872939076970137 
-0.0003795740388582363 
-0.0123751952538469 
-0.001726934027865514 
-0.00762929740363861 
-0.000245013035010204 
-0.01324123198959447 
-0.005379503174562495 
-0.002398125490403987 
0.003560896604880172 
-0.009782402989393115 
0.002971134234711278 
-0.01135477027870088 
-0.003440476928952058 
-0.004328268866850431 
-0.003346503287694238 
9.304917841646319e-05 
-0.002588863420003537 
-0.000297317613033591 
0.001233075285937423 
-0.007522775519046519 
-0.005388741211530576 
0.0008479076013506148 
-0.006222956737305226 
-0.0002185164183090713 
0.00323891692088247 
0.001989566715649497 
-0.003505881553567399 
0.002327780925146985 
-0.01039330312812849 
-0.00597974017529315 
-0.004534183697490391 
-0.003360359753545522 
0.002255260663397818 
-0.0001270652863538303 
0.003453110611313121 
-0.007311709787921883 
-0.007845545571123557 
-0.002952596339876935 
0.0007574671248451567 
-0.004567442638720441 
0.007292599614966617 
-0.0001266956845999221 
-0.006167526888960899 
-0.00667198576764045 
0.001268533480997246 
-0.006514781291778301 
0.0004380668480719617 
-0.003121150711107614 
-0.001411612597296581 
0.0006405464406633569 
-0.005528383902875894 
-0.004424124842078103 
-0.004314255928985453 
0.006316606894433003 
-0.002787458193173837 
-0.0005305555688891174 
0.00721878948397541 
0.002866144630160362 
-0.01208866946359891 
-0.003804843852071852 
-0.01002069910227954 
-0.005166052235590934 
-0.008248573125273462 
-0.004812748579107297 
-0.008861778417577791 
-0.01033407314593836 
-0.008947478554979984 
0.004531267117965028 
-0.01018698767733904 
-0.01756167927736981 
0.01041927265501819 
-0.007618396063928916 
0.004785408786178447 
-0.009007526037191528 
-0.001856785152521931 
-0.004930201433504454 
-0.007360600688065077 
-0.01080063031285958 
0.01229500359309422 
0.006066057580711648 
0.02002997559094757 
0.006158054884927223 
-0.009186623128695639 
-0.0008163914194300561 
0.01201708043672965 
-0.002159137198555841 
0.0008807147683931488 
0.0007015758425387093 
0.01040255745237616 
0.01092170077578243 
-0.006954263013829372 
-0.007858061546000007 
0.0005358409040506404 
-0.003803726239519406 
0.003221577087988182 
-0.002378739601533033 
-0.002109912439393578 
0.009350811895108226 
0.008636979902535695 
0.003972704526254222 
-0.004048213938858068 
-0.006270016024874729 
-0.01077856390327323 
-0.01636861491906242 
-0.00563442139301042 
0.01472210660481075 
0.01479079653506118 
-0.009283313977406142 
0.001242509093775028 
-0.005612361790617326 
-0.004346691772659298 
-0.009602328690507827 
0.002852044329372552 
-0.01239241974733236 
-0.003647483976205058 
-0.005701442120678725 
-0.008235690117697595 
0.006353277168614662 
0.002676394679892431 
-0.004682088233020248 
-0.01417395545351487 
-0.01052788782968334 
-0.007481640906911221 
0.00514246037874443 
0.002090917551988172 
0.01576782608975694 
-0.004818073838445898 
-0.00693090552501792 
-0.0128510469693096 
0.001600454011622259 
-0.01263727167946083 
-0.001704122585380644 
-0.005449329058809866 
-0.001718503971534486 
0.007592290375228961 
0.001078316870850614 
0.0006226376546306456 
-0.006790761865603989 
-0.005391100294384396 
-0.006984747857537577 
-0.003915846130748805 
-0.008948570883168798 
-0.004826317513801936 
-0.002713899544958308 
0.002571114721651157 
-0.00593491302443955 
0.001391115962795168 
-0.01046068394620579 
-0.01324671997611692 
-0.004749743181046375 
-0.006777901373310788 
0.01938539240274539 
-0.006762460893530221 
-0.003448458734574342 
-0.009966461328754998 
-0.005768145624279223 
-0.007770328044544641 
-0.002923491928278565 
-0.0128610279622231 
0.01059592166334914 
0.0003966225610964498 
-0.005051612158386928 
-0.003961441884653977 
0.004103073140723734 
-0.01161050287574826 
-0.004409501381146719 
-0.001879905557378301 
0.0009912650666879762 
-0.001335651788445249 
-0.002899681151248848 
-0.007460805116629086 
-0.01216318757045558 
-0.01046442120929399 
-0.007168337286293436 
0.007137932430987985 
-8.748249831097473e-05 
0.01575113970529127 
-0.002084837762650749 
-0.002553136245965043 
-0.01022872515239132 
0.004453041743524831 
-0.006498396897480694 
-0.0002343391163895041 
-0.001152108665019618 
-0.004840637141973484 
-0.003188063885595276 
-0.001683794734250449 
-0.006472423865338721 
-0.01092670545475341 
-0.005568223772748251 
-0.002419514667648483 
-0.003723010602091637 
0.005279997426271422 
0.009356358865521393 
-0.006705562540266293 
-0.00352302544964122 
-0.01454167611373261 
-0.007840357229922363 
-0.01256441001464968 
-0.004568399866520681 
-0.001213367280321184 
-0.005097776580087168 
-0.01217659564710192 
-0.001639118739221532 
-0.005666665891411575 
-0.009047983200437575 
0.009904545862818862 
-0.006392154438989337 
0.002580580454214822 
0.001709506573242223 
-0.0008646442985153788 
-0.008300258991750464 
-0.009647071320293308 
-0.01077602387667788 
0.01189853206444053 
0.001016635991792635 
0.007650690801692651 
0.006278477137262099 
-0.001489905169042871 
0.009983400459530023 
0.003553607724495205 
0.004463040117007715 
-0.009583860599317619 
-0.001898149268279039 
0.00304381058903627 
0.001733453366433494 
0.007750955142264581 
-0.0001345078613697496 
7.597051179990226e-05 
-0.0005741880247731087 
-0.00874109859079192 
-0.006115099772831826 
-0.01040913296624075 
-0.0054678242174412 
0.00464972900765574 
0.00256041667624137 
0.01881129678932859 
0.001017657021483364 
-0.006703251604525964 
-0.01124782579804616 
-0.02685585796479905 
-0.00138833274736036 
-0.001344905064290555 
0.01466477167132814 
0.009459574444914959 
-0.005080057070918969 
-0.01746552651700969 
-0.01098649842359924 
-0.0004673643712158142 
-0.009843677175524991 
1.380385397266567e-05 
-0.002329728523574453 
-0.004122078954540587 
0.01924911446000105 
-0.007767747768428587 
-0.009604349372893763 
-0.01399612498712967 
-0.02668497033000891 
-0.008579150278499467 
-0.001463295077879005 
0.005654280865076774 
0.007808099114863509 
-0.003198533591144586 
-0.006993101261719215 
-0.005359468705830055 
-0.0021869909119349 
-0.01739119967140697 
-0.01081999693468349 
-0.01111518026737862 
-0.009650244929182039 
0.02928462061250962 
0.006026478099725221 
-0.003505693823593833 
-0.01098312773366592 
-0.02746461053058018 
-0.005756280529892582 
0.001579967254440559 
0.008929582627930949 
0.01131230608887826 
-0.003672496193231226 
-0.01118237502516286 
-0.01939316396539183 
-0.004990325573671542 
-0.007162097846182863 
-0.01551598835920536 
-0.00701719227598785 
0.004907377271849241 
0.02050528318177838 
-0.005885368789398836 
-0.01269424558080105 
-0.01296470690925355 
-0.03038377126637081 
-0.007317367163946477 
-0.004060306668566496 
0.007284810410077564 
0.005836551848170068 
0.002130194173966685 
-0.0003074624136513384 
0.0003076369257055082 
-0.006754967543416626 
-0.01260089662430229 
-0.001298337151730243 
-0.003742779909513031 
0.007474715396424706 
0.00976101023185391 
-0.008358268754737512 
-0.008606366917169168 
-0.01335245988019907 
-0.02717995369273961 
-0.00282235857882183 
0.0002951765581922648 
0.008891244692287213 
0.01957832544874195 
-0.001531590339871449 
-0.005297680821829255 
-0.01107984034988799 
-0.002669755864512754 
-0.01106163349052455 
0.001719185075931523 
-0.00285763555456267 
0.0009652705957095131 
0.001897157223721301 
0.001043507287859602 
-0.005990796084327761 
-0.003156773394551066 
-0.003726671450281851 
-0.003833278876938447 
-0.005290650941434965 
0.003350459757181453 
-0.003689713545572227 
-0.0002205063914469913 
0.005434039827615486 
-0.01290926096803296 
0.003441154805762806 
-0.01249438631515975 
-0.01060055296346619 
-0.005225864312771913 
-0.007578729293533691 
-0.0006209865693106708 
0.00701149754260389 
-0.002475419222272355 
-0.006412606230480862 
0.00711833273804964 
-0.003545500030177661 
0.004274476490778847 
-0.01687841906949528 
0.0005509729915832795 
-0.003041804670034476 
-0.006570612245310376 
-0.009142182942245343 
0.003383339824615673 
-0.006083215146265804 
-0.001549090484981848 
0.005397096962232284 
0.006995598252896138 
-0.004341757367888024 
0.0113171646806764 
0.001659562066017604 
-0.0008859374064196855 
-0.008813236766536539 
0.01155303898241949 
0.004321489516992415 
-0.001054593500014542 
-0.0007877530461975865 
-0.0005936605319838878 
-0.001562249107918212 
-0.01256113094742188 
0.002462535652373089 
-0.008019189545897554 
-0.008977215821233989 
-0.001227197104493449 
0.004687409744643284 
0.00532279811336494 
-0.003857055069677199 
-0.01009539490151321 
-0.0108142376064824 
-0.02598878723253565 
-0.007822361677585609 
-0.002156350881193285 
0.02826412996720121 
-0.001485186239473859 
-0.01124046496512495 
-0.01017302709185931 
-0.01215242527557864 
-0.003934236695711714 
-0.01480519621210405 
-0.01325090643665423 
-0.01061780724431967 
-0.009208575473271873 
0.004947833711796842 
-0.002741550716358675 
-0.001026716851177438 
-0.008150324567377357 
-0.02875998807084685 
-0.007812606215446948 
-0.01605189782390554 
0.01447273434576314 
0.01117918977473906 
-0.008965634369273617 
-0.01510801834043074 
-0.01177803037789175 
-0.003687674570346426 
-0.01049601809168645 
-0.009785532767785233 
0.001108071347663562 
-0.0165864809961739 
0.01591854886475179 
0.004269650591370235 
-0.007354924807238329 
-0.01777733867135868 
-0.0248666063134821 
-0.005307819469759154 
2.187743299831158e-05 
0.009376413032290282 
0.01505799183710394 
-0.005788281009342094 
-0.01013620479480448 
-0.014527618403027 
-0.004476982136392864 
-0.006652479823461495 
-0.006088406579286747 
0.003121376153724525 
-0.02029287014204047 
0.008889262512398841 
-0.01203760488579875 
-0.004833864152791648 
-0.01015253608962753 
-0.02009783975136446 
0.0001877573941106876 
-0.0001645589615297135 
0.01900752952072688 
0.008171923658256346 
-0.01467782459415203 
-0.006305583679054887 
-0.01130719531311754 
-0.005765748726555974 
-0.01009308676830573 
-0.003077343107128346 
0.008388863847761927 
-0.008240633654530026 
0.01033308935903905 
0.00547706546561112 
-0.00222364370667624 
-0.01056944799430132 
-0.02875944978538931 
-0.001646752241405914 
0.004434737494561435 
0.01441949415635351 
0.005005905208466528 
-0.002779441500751573 
-0.01041217769997129 
-0.013635997512824 
-0.00112067275242096 
-0.01092935035027859 
0.0009675333049070101 
-0.001074635343699924 
-0.002469474626346509 
-0.001712606145838711 
-0.001231273118432192 
-0.00802131406058453 
-0.01751966173795852 
-0.001348635354562449 
-0.006540475825808871 
-0.004811125577399308 
-0.003609819216595639 
0.002499857715069686 
-0.001284077339590252 
0.004629576968697716 
-0.0132312591908935 
0.008011630476188275 
-0.01134110882525939 
-0.01578009085272975 
-0.01311703440160618 
-0.006766501282061725 
-0.008749175205169967 
-0.003229524615307248 
-0.005637882438403577 
-0.01422699959229101 
-0.005206024116731347 
-0.009786730401451234 
0.0003501672126974793 
0.0105808705684726 
0.001373656346336073 
-0.01390979841977084 
-0.006048706340343023 
-0.01251649475505281 
0.007254628552685839 
-0.0159101609564515 
-0.003381114399138408 
-0.005937364005243119 
-0.0114172012076739 
-0.01108076944952434 
0.004637422879033912 
-0.008406789109166111 
-0.01108103813476088 
-0.008511456302355955 
-0.004245518892712915 
0.006166235108048737 
0.00330111395043996 
0.009507252617017632 
0.003316137822754121 
-0.00253410051154118 
-0.01275030362972749 
0.00182149605491455 
-0.01286932890446587 
-0.002234584790831186 
-0.01267549570872852 
0.01218500038991903 
0.006586177575600696 
0.0002902138034233166 
-0.01275465718743934 
-0.01346407426488252 
-0.0137552672067197 
-0.009509069429180218 
-0.007937132137945181 
0.001627917105808698 
0.002445997152733124 
-0.001742570078099848 
-0.003611142194613799 
-0.01127530965782568 
0.003415544414716894 
-0.01105133573105915 
-0.004386320257517845 
-0.01123307248565705 
0.01076619506332654 
0.009355452287564195 
0.001770976095053871 
-9.644301585317713e-05 
-0.01417161126294421 
-0.02149207411394465 
-0.009951782562494137 
-0.00940396841812933 
0.009082637632009722 
0.01015830279606873 
-0.005759144909450166 
-0.001925573964766209 
-0.01212938730893853 
0.005032995530745182 
-0.009230578309171379 
-0.0003639331136643722 
0.001882727212977735 
-0.003891736291231932 
0.009806420864168681 
0.001986335749587949 
-0.006944422199473794 
-0.003825805601557717 
-0.01785412195227752 
-0.01136782873606846 
-0.006827468771499569 
0.009537405193546865 
0.008201008987275125 
-0.005431504038404422 
0.004631468258647785 
-0.007467539653807669 
0.003935919907352723 
-0.01028183442952361 
-0.003029501555414077 
-0.005366921955932872 
-0.004440843017162587 
0.01164573442821879 
-0.008030047267740828 
-0.008430221500984322 
-0.006825771628784013 
-0.01438430356835334 
-0.005331305460574891 
-0.007044417126629611 
0.01587629261686965 
-0.0006660621968957542 
-0.01068526025941909 
-0.004552748396440293 
-0.009513710621047123 
0.004380991000531773 
-0.007776056567755723 
-0.001250289115140295 
-0.008029456728949598 
-0.01730976564639253 
0.007807180761509151 
-0.005558409015013183 
-0.007171867610865755 
-0.01168667378726765 
-0.01419664858508202 
-0.002793960929464859 
0.01004353863314547 
0.02107075275718158 
0.01016896698752418 
-0.01218634756990757 
-0.001073552442269245 
-0.008360128922480262 
0.003940795617364472 
-0.006912918874496933 
0.001185700166592508 
-0.003534537356613755 
-0.01450603691124122 
-0.004259697810274819 
-0.008469934926288362 
-0.01313786225564085 
-0.01141993600608698 
0.002483117861470301 
-0.006081642327363329 
-0.002477488964445859 
0.001812647195957104 
0.002280302328944577 
-0.007971104776486576 
0.002058982370457786 
-0.006516922769485197 
0.01000734272703607 
-0.003224464185397828 
-0.007822542137795123 
-0.006870053859160207 
-0.00836801341194365 
0.005897282720083087 
0.006602882496449881 
-0.003640264888657963 
-0.01377531719860036 
-0.008235155271048813 
-0.0007060085410216455 
0.007511634828010727 
0.0003188126895386311 
-0.0001772656229641388 
-0.003353708905368393 
-0.009731427137557969 
-0.007819151679797801 
0.00247604286445503 
-0.01086411948692489 
-0.008241698156040853 
-0.005034555811840923 
0.0007018204449230732 
0.009385278155220656 
0.003810010616593993 
-0.002575049216550754 
-0.008528951729340437 
-0.01927444696119745 
-0.006857916562146249 
0.0004981388541565991 
0.003554026166159649 
-0.002122201412181687 
0.0007078878709355981 
0.001372371146200221 
-0.0117822602136932 
-0.001684195107065546 
-0.00813311300829463 
-0.003074423815342862 
-0.002965965549527264 
-0.007414098540035029 
0.0006062836686466142 
0.0001687315023698246 
-0.005566157006292309 
-0.009035686663499066 
-0.002385089126622059 
-0.01238855805645231 
-0.003464218144227131 
0.001339734993662818 
-0.005675025765212885 
-0.006031494888917696 
-0.003092534356697305 
-0.01460530004751772 
0.008617208362263437 
-0.01058364171656583 
0.001331460279607008 
-0.01402842746061921 
0.00526802251186034 
0.0006317891704499931 
-0.004743986564089705 
-0.006893077152231757 
-0.01237635622163689 
-0.01108550537013123 
-0.008798564699676171 
-0.001142426020617924 
-0.007658319934785348 
-0.005945305523598986 
-0.004327278747051615 
-0.005736317647647305 
-0.01447346292571421 
0.006667058861156303 
-0.01269878990982655 
-0.00424863661086945 
-0.005480909026008371 
0.008852584902241828 
0.01180517887890263 
-0.0008722008591489881 
-0.008735227445573753 
-0.007122618113257069 
-0.00943521308349631 
-0.01029583007118633 
-0.008550441970837172 
-0.01163501546573866 
-0.007535911181533642 
-0.01337970169614164 
-0.0037796014542135 
-0.01176899753682736 
0.007438991355674665 
-0.0128427404971735 
-0.005642835550554292 
-0.005656768271749208 
0.003884584488541331 
0.005729159139217721 
-0.004185284342581812 
-0.01074798073333324 
-0.01176245120689867 
-0.01992250087366009 
-0.006402491409357099 
-0.005422294737340178 
-0.003883129272407429 
0.00257685690675199 
-0.008105949801349495 
0.0009112564389884302 
-0.01267719208829447 
0.002247165550749046 
-0.01499789012113337 
-0.001707065344580167 
-0.003550436559547187 
0.01014878246018234 
0.005969731502060548 
-0.002893661957499616 
-0.01036972328462576 
-0.008277482890459062 
-0.02418547298881668 
-0.006314306088580822 
-0.004352670812180834 
0.0003686185227193322 
0.0009459017337115156 
-0.001443369368719977 
0.003196598962805416 
-0.007732326612394686 
0.002363559967995845 
-0.009905685883454253 
-0.002970588661700089 
-0.002563145696366037 
-0.003142788428952054 
0.002626700985256353 
-0.007247088615813227 
-0.004288997380182596 
-0.009701013857531792 
-0.007277470111203051 
-0.005059920058179769 
-0.00454579481416009 
0.001562323984624896 
0.001763845471189801 
-0.002095462933858653 
0.002388930854363097 
-0.01052081741612766 
0.003512788537632874 
-0.002996852037539563 
-0.004289567140016194 
-0.01091731725343325 
-0.02038153230481678 
-0.01085946200375774 
-0.002397198360556319 
-0.009616569579280549 
-0.01310768541158725 
0.02893553767872668 
-0.001260857525180543 
0.002138862044973854 
0.003726516776225465 
0.0007082382790357397 
-0.001118894556584178 
0.0009898977578798583 
0.003529103081246214 
0.007165531468063781 
0.0003556850153280995 
0.0124001773200808 
-0.0007062351876591603 
-0.01224958319748426 
-0.01029163533206282 
0.007432582185115504 
-0.005891549079142275 
-0.007315702785482467 
0.001465289645334331 
-0.002352015987222458 
0.01229609132836267 
-0.001234261068842045 
0.01059687429310657 
0.01045272072253296 
-0.006184445338257698 
0.003437676926881327 
0.02576266751852994 
-0.007246221420541921 
0.01104200996649697 
-0.00154955570013754 
-0.006969744167132444 
0.0062269154600267 
-0.00156845491406856 
-0.004919155544569897 
-0.005375665918569083 
-0.007091928581851046 
0.002586430662251362 
0.01931640404539427 
-0.0002287162394054224 
0.01958388825936002 
0.001135285323468469 
0.007281255290403968 
-0.0111901734441335 
0.001980583744367337 
-0.0008144172004019901 
0.004220245491550386 
0.004294534008275104 
-0.01530750756609466 
-0.006706619910267024 
0.01027184451510638 
-0.008609598599664973 
-0.002395543068232543 
-0.001557597151385201 
-0.0005400891033964781 
0.01220729852712884 
-0.007145748358587532 
0.01796760014345435 
0.01220227011697393 
0.01332590671586961 
-0.004643050962230967 
0.006159826085580965 
-0.00321443074447901 
0.005335420173166285 
0.0001980512506716646 
0.01051776731366616 
-0.005245935307870822 
0.007986727561271809 
0.0008554445822754481 
-0.006322454210438391 
-0.001149949306760225 
0.0001646042483144845 
0.01010458663882459 
0.002669238125114197 
0.005157337310555085 
0.006596600698357832 
0.01049154994661036 
-0.001815752889374407 
0.006040917688386225 
-0.003957773994468544 
0.01341684261435461 
0.0002134987193211952 
0.00043205334835606 
-0.002361314451098169 
0.006578560115868912 
-0.001970028065194676 
-0.002749331192226356 
-0.007866003456740295 
0.003476540683920865 
0.006232732083423628 
-0.007240887284406363 
0.00704650130402438 
-0.005250676076184493 
0.008638069997142429 
0.004074310740082598 
0.01485245843280673 
0.002537620519708457 
0.009123396323969905 
-0.002841496876560398 
0.004215957549589748 
-0.00466295121641028 
0.001214604111396149 
-0.003766606874718548 
-0.004874494435037804 
-0.006470568947035123 
-0.001854632320334524 
0.007242192175012378 
-0.007038235779329815 
0.005020038805886126 
-0.002898436615511736 
0.01327218542402048 
0.001090892974615813 
0.006956262116556881 
-0.000247728939117319 
0.003449297735791574 
0.004298037756585071 
0.005131083050609217 
-0.0001065413035576568 
0.01369264468853658 
-0.01335128184821258 
-0.002208610346662837 
0.00254427185192157 
-0.0007706910142089344 
0.00302910322232835 
0.002726273399539951 
0.002338862729793633 
0.000273309164290333 
0.004179798593772275 
0.003971926147015758 
0.004241713276604635 
0.008654035877320802 
0.002073642720379926 
-0.0113950893403567 
-0.0199806980394472 
0.002445133699291782 
-0.006540548225172716 
-0.009093902821817733 
-0.01076240989233281 
0.0224495933272145 
-0.004105218185023107 
0.001257385490371635 
-0.0009378633440725718 
0.01064678036721308 
0.001344106201799195 
0.002095950332814459 
-0.006433623654559567 
0.01666444882223759 
0.0117596353151495 
0.006079069542209212 
-0.005563333759067647 
0.003451277468579531 
-0.009164276781062465 
0.00343833825202358 
-0.006815304614576623 
-0.01334625391913048 
0.006071395824670963 
-0.005388271973964664 
0.01077273877793017 
0.006168064275695464 
0.01326298067900901 
-0.008818492410540881 
-0.003747515274082805 
0.00398199749601988 
0.02112117080414636 
-0.01762914339288291 
0.002988440020720358 
0.001033926329236139 
0.003292053025093247 
-0.002797808264776896 
0.002701531789803892 
0.001386849631568842 
-0.003418466954127162 
-0.01010993265367237 
7.517769104925061e-05 
0.01105162165314881 
0.004787397575137803 
0.01741893053857449 
0.004882248724798713 
0.007758158949295424 
-0.01017879731622998 
0.01267843665756374 
-0.001491693007109914 
0.007267791047695207 
0.005339278974291056 
0.0001635930090071395 
-0.008302667152099073 
0.01282101123202506 
0.002208377970723659 
-0.01164390648787647 
0.0003779902244126617 
-0.003434916464621514 
0.01493508051764263 
-0.001504382996748558 
0.01205589177878359 
0.001225278597940461 
0.005937781747728745 
-0.0008860690959633839 
0.01243412060343313 
-0.0007379829424775172 
0.01193301085925438 
-0.008510037537459304 
0.004466230618630528 
-0.007804910223278231 
0.005237241811221389 
0.0007146954755281401 
-0.008388646129779877 
0.001109555546923899 
-0.003014513401213044 
0.01025167372754682 
-0.003244798879471432 
0.01076450475597562 
0.00118551612724128 
0.009985794030957472 
0.005294132806480422 
0.009477679269094727 
-0.00508288142286562 
0.001736534773939824 
-0.01066036818939389 
0.001672856141428955 
-0.003481111371990382 
0.0146583720995181 
-0.003034081918353017 
-0.001176324959404081 
0.001777692900012004 
-0.004829420490533436 
0.002633934192973304 
-0.01104553771912782 
0.01296598311547594 
0.002410607040270933 
0.006192666959321563 
-0.005284574685659089 
0.01175568231929031 
0.004229334671523637 
0.00429863428889944 
-6.994935804374254e-05 
0.009557200520079724 
-0.0007315269521289861 
0.008481639205049444 
-0.005578301917882836 
-0.01447264500541044 
-3.760550571878501e-05 
-0.003128797932626483 
-0.002900451352513074 
-0.00267440537757675 
0.01067928253835009 
0.002544894135716144 
-0.002670332991709249 
-0.002513088537022127 
0.009096581424822057 
-0.005031762993774024 
0.01393345372947559 
0.001832290187668373 
-0.001298875478296302 
-0.003440248841744621 
0.005089543275161482 
-0.002988079910049646 
-0.009059543754611417 
-0.007956936903469946 
0.008736048750492732 
0.01117032592759219 
0.009421564330791313 
0.01487341578560386 
0.0008495029822614443 
0.01041096931463658 
-0.005211619476376974 
0.005555035267382143 
0.0004181463960828029 
0.002489923312157433 
-0.003881557257811241 
-0.009223846516292208 
-0.009379553753438229 
0.005539709944572249 
-0.008883297311423285 
-0.004957698009234832 
0.0119621850069857 
-0.003738561845187169 
0.003502683404911807 
0.008065463520889856 
0.002549156472446171 
0.004107045879903896 
-0.003422947163385967 
0.009857288381704432 
0.009632029374262437 
-0.003989818746613593 
-0.002674454746013071 
-0.003618669205482623 
-0.01287538653043143 
-0.01082149832903473 
0.004955971576374806 
-0.004224601036687756 
-0.01364868941982774 
0.01080369406588299 
-0.007840453495873957 
0.01323507841926789 
-6.476783695777008e-05 
-0.001351057720635467 
0.001553414507575001 
0.005429525756464821 
0.001551047033099713 
0.02211179535601068 
-0.0110998120848544 
0.005194523371857395 
0.01082238932170073 
-0.01108293966028581 
9.443747628887229e-05 
0.01470013841940334 
-0.00367127929800267 
-0.006629763592267927 
0.01036805527946108 
0.003818660200576132 
0.01135745687180122 
-0.004712977326961552 
0.005208507358303147 
-0.005629251033693044 
0.00389307520977983 
-0.002397268275854525 
0.01176497264800665 
-0.006196640402409121 
-0.0008027344429406708 
0.006189204063275029 
0.003639852693015349 
-0.01256179970054053 
0.020649553012244 
0.01333259878534159 
-0.01605385566009747 
-0.004065812293820916 
-0.004879569239226559 
0.009292815477195992 
0.003723101472563536 
0.003217291024881659 
0.01256777031307829 
0.01360306692748659 
-0.008742049148208204 
0.008225981251938859 
0.0005372575352966707 
0.00943610041557166 
0.001738373868757488 
0.01205649724714563 
-0.0152851064438827 
0.002542315402584435 
0.01018073416481599 
-0.005510949160374308 
0.01606085498506298 
0.003810617948523275 
0.01166850370804026 
0.003220760994881408 
-0.006369567537283524 
-0.001421469844795141 
-0.003176758970058235 
-0.006990113026264342 
0.005379522844861056 
-0.006813571196469981 
0.0007630644027131217 
0.003458724830634135 
0.01343786705056231 
-0.014840974967658 
0.00488205972068428 
0.004245038982096551 
-0.0009164991587181162 
0.01925151517674017 
-0.002848885380214604 
0.00548524427839621 
-0.002069881990270696 
-0.01508582764199147 
-0.002943180341338932 
0.004994840632416425 
-0.004116499721592599 
0.01268358698567558 
-0.001052489972815354 
0.008811405554003098 
-0.0008265290976383802 
0.005314807136191357 
-0.00688744479427523 
-0.001972903945411264 
-0.004255012785182451 
-0.003484025711605364 
0.004761740059853983 
-0.003253789661607506 
0.01088836919976726 
-0.004019844050900964 
-0.004421344395558051 
0.001452013022016881 
0.006827027685500645 
-0.0004116060984237873 
0.01654251427017508 
-0.01317986644202086 
0.01889105121036565 
-0.007290274257640446 
0.01004506199694111 
-0.01541802438054186 
0.01760727429869012 
-0.001561402370298858 
-0.005214466793563719 
0.01175439238532568 
-0.002446339674730327 
0.0004435620541704136 
-0.003572166030682854 
-0.007464751952202265 
0.002917082789707457 
0.01362776775624216 
0.0009692916829909834 
0.009910476166342949 
0.005438018331644392 
-0.006474457735529945 
-0.004823263391392268 
0.0002459083682688278 
-0.01317169371750857 
0.005332658526054358 
0.002488016343313424 
-0.01685233634724798 
0.00494975648274143 
-0.003715310310399907 
0.01217446515245742 
0.0005549164369837011 
0.004229543783730397 
0.001263524526040365 
-0.003074875916727557 
-0.0001397659009593158 
0.01129111595341128 
-0.006959441809978726 
0.004824934932680601 
-0.01145957844537086 
-0.001243791040575403 
-0.01427434944537818 
0.01528965752553395 
-0.002174981399512076 
-0.007219435324522951 
0.005963058843304016 
0.00341100968071867 
0.01534276546495082 
-0.007187723607834378 
-0.002820392077007209 
-0.003248712647067439 
0.004615782207445089 
-0.005386160484398792 
0.01789456801506352 
-0.01235593882945809 
0.001377263752339223 
0.007734438848164105 
0.002397716900021153 
-0.0003702330143376758 
0.0001651705155493502 
-0.006458353677204438 
-0.01324968984456696 
0.0006687645705587437 
0.008958610193563752 
0.006919200694998937 
0.005830001662567876 
0.003359433495365374 
0.004130098567232151 
-0.001472707260626113 
-0.004857246499349889 
0.011373825068023 
-0.003409276299021767 
0.01420109882454592 
0.01858906587925702 
0.01930384661036018 
-0.003674123868945508 
0.00656944430022487 
-0.002828747140820528 
-0.01152793481630345 
-0.00265384494022112 
0.0008826370964158361 
0.01456805713791961 
0.000934710965630659 
-0.01072045763954535 
0.002508705173586784 
0.003953489737414621 
-0.008103501693275401 
0.008492138564299017 
-0.007099312156663686 
0.005579210476936033 
-0.005946851690418839 
0.02084376039833744 
0.001072075157099086 
0.01270496680675633 
0.003625893304744123 
0.002216062277572518 
0.01794352566031299 
-0.009273554103481218 
0.001776932978727774 
-0.0004234972500916894 
-0.0003383409491879022 
0.004948350582580075 
-0.003509199722525234 
-0.01130684489685567 
0.003038624792227078 
-0.002054202311251316 
0.02038899907659784 
-0.005050557198936187 
0.02075261038963747 
-0.01134680538135094 
0.0008830588933634348 
-0.001262771169126019 
-0.006037577576819908 
0.001366216620099293 
-0.004713821879494893 
0.007146568921909541 
-0.001550209922246606 
0.003391013503740486 
-0.001576511638787129 
0.00468256116918594 
-0.01365509993932197 
0.001599463292746858 
-0.002812596527897295 
0.006575195126022404 
0.002567878488025649 
0.01851592527066867 
-0.01601469392217994 
0.006082958984384826 
-0.005124822975603636 
-0.01509211731267922 
0.01001807428841371 
-0.004154518681104594 
-0.001797833363117633 
-0.003465086564199786 
-0.002275005726370541 
0.002405976326294759 
0.01749139242868264 
-0.01279173767781527 
-0.002213309548105459 
-0.01194226487742543 
0.0042470031807175 
-0.005600744181726554 
0.01327628215623333 
0.001982855257744536 
0.01548904581372254 
-0.004085327172722595 
-0.01029350787957756 
0.01191955769908305 
-0.006846754711195547 
-0.005037526622704055 
-0.01772699149960991 
0.001391691073864305 
0.001354008390503891 
0.002126559262936161 
-0.004042324612385188 
0.004398002463946539 
0.009282650917352048 
-0.01051599541187428 
-0.006844490236589676 
-0.004761917048359202 
-0.007749191530986806 
0.002562624962661714 
-0.002458940257147144 
-0.01315525465118899 
0.004667952072369027 
0.0002430561207033966 
0.00435939974325111 
0.002705446337251527 
0.007484123426722856 
0.001043606559610354 
0.007055547966240824 
0.004857060740885979 
0.009987009471733553 
-0.005711261040748064 
-0.006159651704428028 
-0.001900336586220779 
-0.01042197738694717 
-0.006007618412138461 
0.001405043395856289 
-0.01157456131074938 
-0.008406292660575677 
0.006527373511290679 
-0.003981973612532957 
0.009149619618929366 
0.005074517397850337 
0.00910835371916386 
-0.002908520536424364 
-0.009899748603445472 
0.004428635076460989 
0.02875975867452311 
0.003822242315328424 
0.006629173124212927 
0.0114706696394557 
-0.001268294364720358 
0.002644016769476052 
0.008566546058688345 
-0.01315459438657961 
-0.006638071738259616 
-0.0001900530820167827 
0.01011948211922493 
0.007253862687705752 
0.005935169250862167 
0.006151220775432478 
9.021719315104364e-05 
0.0003303452028504486 
-0.01163473582643985 
0.008380516506185692 
-0.001159546979513967 
0.01287057017062365 
0.003129843190536812 
-0.002128480841926759 
-0.003847494078616804 
-0.002509589150184422 
0.001983047318603858 
-0.006472028339009062 
0.002760630902251406 
0.008648824589969158 
0.0206968877625138 
0.00306733996170575 
0.007682074402129179 
-0.003160716711491836 
-0.005668430314089889 
-0.002778570751278968 
-0.002462903518036138 
-0.005606313891328565 
0.011045663292595 
0.001843472000438864 
0.003428149604315672 
0.007634691145748987 
0.009186799040526477 
-0.01339297558981709 
-0.0009842005879316705 
0.007830294639505938 
-0.004854150840840184 
0.01449874072517909 
0.01367593034889822 
-0.002181536501103321 
-0.005950478230087724 
-0.006544850705513493 
-0.01011637375032206 
0.001640085721649433 
0.001951786165618697 
0.01411860747790815 
0.006823108243319572 
0.01498125220816329 
-0.008832408290057299 
0.003943766104665661 
-0.01989729959087234 
-0.01112233608234642 
0.0111552453791602 
-0.007766459173905748 
0.007296582041032212 
-0.0005755636850742335 
-0.004999398801454582 
-0.003775384985308943 
-0.007197097479349413 
-0.01077801390663769 
0.009527850986085593 
-0.008246062388451096 
0.01184465133551845 
0.006002037548928083 
0.005494587212605674 
-0.003230983301052295 
-0.0008388948205075073 
-0.01118992745111158 
-0.01200409748274991 
0.005278964951676964 
-0.006231618169441483 
-0.007947479462349033 
0.009200430687343518 
0.008729726222206427 
0.0006390971057852939 
-0.002466695994599235 
-0.0007789155790302804 
-0.0001020442444236108 
-0.002870597103527026 
0.001019069856167186 
0.0006106499741738074 
0.004598678599939371 
0.006011124838553554 
-0.003850464556756217 
0.0002566571249539109 
-0.01282913629893979 
0.009678957482034836 
0.002367057127119297 
0.002739423431719475 
-7.507939463018345e-05 
-0.005038574012206155 
0.008504955597162559 
0.004472068207174165 
-0.006928942845805161 
0.008836422501103763 
0.004657280702518849 
-0.006487523786240126 
0.002817419315111608 
0.004142466217118355 
0.008077629348149377 
0.008782521333213018 
-0.003339925076547211 
-0.01439021184663833 
-0.002158786059395782 
-0.007348561146459533 
0.003468922198012787 
-0.005518569016315834 
0.003529440247368704 
0.001522752555055373 
-0.008946693970341672 
0.003482626876707737 
0.001112183670259539 
-0.002642616560522496 
-0.0005318752572033599 
0.003055944446588629 
0.0004070807830844197 
0.006020727286995265 
0.002700966553959947 
0.0008321550607582569 
-0.008425786600650537 
-0.007280370852509916 
0.001229521817396826 
0.01166204156330052 
-0.003968283661450751 
0.01297048559206054 
-0.01079447416649705 
0.0007242391876587621 
-0.005208368054843177 
0.01430582959386622 
0.003897661759345327 
0.01490984972581432 
0.004989451492795564 
0.0003723591813228969 
-0.01533309249627751 
-0.001953393641552096 
-0.009197605883078741 
0.0005910402065542557 
-0.006766521985958634 
0.01210697748606258 
0.009868266019714441 
0.006146777854624608 
0.008284304288062785 
-0.01064996729519119 
-0.0007949795714737187 
-0.01147452614797812 
0.003934571201890369 
0.005045788567945357 
0.01464725229504405 
0.009476726086910619 
0.001147944593847837 
-0.02014011568420623 
0.001166828484369714 
-0.007978437646848732 
-0.007458787664733958 
-0.009233708726801742 
0.02252049507839698 
0.02665019163769788 
0.0002709508535610309 
-0.002693196411957864 
-0.01194690942900859 
-0.01289416714876101 
-0.005899090583007808 
-0.00571164164009196 
-0.006306997304012647 
-0.00813677158387262 
-0.005855362248732391 
-0.003053838590605355 
-0.006942635282181824 
-0.001902926481389096 
-0.01094801525359236 
0.0004288175971990921 
0.004275081618818127 
0.01152249133494275 
0.01218828987884544 
0.01666961708026274 
-0.001288719937229813 
-0.0004379862168798718 
-0.001787070436683863 
-0.001695264934164272 
0.00263686539161376 
-0.01013550382185235 
0.004710288655296668 
0.003503208449244875 
0.008663602201126434 
-0.007127245934100122 
-0.007025061591631719 
-0.01176594530509775 
-0.005364133781027965 
-0.007712798099572115 
-0.008514086622125739 
0.007654210270863863 
-0.004579133941644149 
0.01601699076329027 
0.002370428890550552 
-0.001742136906070605 
-0.006604214751312317 
0.007559557079153833 
0.001223426371217527 
-0.00522613278084049 
-0.006029863471288722 
0.004460958809502954 
-0.003735179915668845 
0.01075537702467076 
-0.005906104688478531 
-0.01018446209180647 
0.006137731775100874 
-0.01548130728898301 
-0.001394116045218014 
0.00553823077704365 
0.002181352854383984 
-0.0002685006850679932 
0.002355322248493178 
0.0006017501642692792 
0.00484778858214328 
-0.003749160202935658 
-0.0001074147218277837 
-0.01303230087522151 
-0.001035604780887053 
-0.0005681628401592073 
0.01313761617846947 
-0.005028180857350041 
-0.004234193496002165 
0.004608583063334819 
-0.009612457845581847 
0.003856968754474741 
-0.007788877938935045 
0.0169257328355688 
-0.007491979166263605 
0.007721374499007718 
-0.007149984702199868 
0.00798878171662263 
0.0005860651330948431 
0.001123173916719136 
0.0007785808612081098 
0.001694699455211501 
0.005372238602318087 
0.01163445856044077 
0.004088658940045999 
-0.008847632942455131 
0.01015520282873675 
-0.009785424953870751 
-0.004238625824237483 
-0.006497523532360906 
0.002739956307336988 
-0.01049664143472152 
-0.006102069999441567 
0.005289289774070639 
0.007591456884652848 
-0.007130862538085513 
0.004595084439089994 
0.003354953016920248 
0.001386747324475334 
-0.006100832145313595 
-0.004377399529339444 
-0.001062973519303734 
-0.005401755268087303 
0.01497854035956833 
0.0005589738971290572 
0.004502277204693924 
-0.001842147320240883 
0.003122519130686004 
-0.008656668974752256 
-0.005602468884564118 
0.002792031057538431 
0.02163937617527343 
0.006222347441493106 
0.02194178284374822 
0.003066522828037723 
0.01585724467724988 
0.001145243979591851 
-0.0007451314081248104 
0.002719365411703399 
-0.00491039855575332 
0.01796395241811675 
0.006520174730156407 
-0.009320037321384164 
-0.006818938486949412 
-0.01380799257866811 
-0.00555217237304104 
-0.001574298057988008 
-0.01049700914965129 
0.000227541131859559 
0.01375421498723196 
0.02845818812444233 
0.01245096561046692 
-0.0009658407649204609 
-0.01168243611060166 
0.004526280414734173 
-0.0005649480767898839 
-0.001701831886263593 
-0.01849134405644631 
0.03336186131427438 
0.01977982474848961 
-0.01513047801722928 
-0.01163021473880714 
-0.001171008780760353 
0.008503538922688073 
-0.001194326523447939 
-0.002598195917777866 
0.003237594177538789 
0.01667293913180211 
0.01010183962230082 
-0.004401612151894352 
-0.00851144423948671 
0.01155127493941277 
-0.004848622354177512 
0.0008739374443870367 
-0.008795584047589013 
0.01781499026689099 
0.01837402812701461 
-0.01163474700078192 
-0.0104766555981859 
-0.003079784303800283 
-0.003529127638433325 
0.0002798049871873616 
0.004710484995732157 
-0.01429402335584701 
0.005075023938473376 
-0.0003789464180905139 
0.006040926370782625 
-0.01110150439580381 
0.008155664809613224 
-0.004705909048267054 
0.004111167684232055 
0.0120630676573601 
-0.002645627625489281 
0.005609216504016495 
-0.00996122415480721 
-0.0003990045782003345 
0.002652100415797867 
0.005726597771995408 
-0.008961634725702492 
0.01564929771632452 
-0.005506250996076578 
0.001268345906663559 
0.0001385105163217834 
0.01240781543403635 
0.002654890426364805 
-0.01713722875888322 
-0.001892075411227958 
-0.003364368628794227 
-0.009568448883937703 
-0.004798459845526013 
0.003808156193528747 
-0.01425784505456846 
0.009752140605278443 
0.001686286556040464 
-0.002788778833658172 
0.002822447389634655 
0.01465062797896978 
-0.003355230266672556 
-0.003592503917682817 
-0.002143271624886019 
-0.01172966300997222 
0.001733928506695951 
0.02248332126648243 
0.000169414305925742 
-0.00717616292360767 
-0.01101866286880929 
-0.00647261433178297 
0.0009124931845700354 
-0.002298058288272224 
0.005144866943425686 
0.006770426360241527 
0.005669613869351107 
-0.006793668268014722 
0.00847253198835104 
-0.002270078050018748 
-0.006750004925851455 
-0.01003082473002511 
-0.002816103328099844 
-0.0005022327179291078 
0.01129265890990148 
-0.005532169281061053 
-0.01188024408083559 
0.02023369796379818 
-0.005093925005340307 
-0.004813082296101526 
-0.01388701620512339 
-0.00488310148584568 
-0.01010363845857131 
1.512810092245096e-05 
0.0003149288012800048 
0.01860005747612749 
-0.006447476681568724 
-0.003342288124271156 
0.008254522914796975 
-0.00592087793501153 
-0.001993569977392166 
0.009748104433291785 
-0.002604784837909936 
-0.004320392762803847 
0.01279326933015478 
-0.004008153724921708 
0.008734997101732197 
-0.003471787041617206 
-0.003010386997085826 
-0.002811219423092598 
-0.01177276860649435 
-0.001145060238104605 
0.02947610216996109 
-0.006574587100308379 
0.001975070504048031 
-0.003973393606865452 
-0.0004783707606018379 
0.003400846149078816 
0.009584611728669241 
-0.006983193667384041 
-0.001785595747816082 
0.003220664730460984 
0.007083560216657181 
0.01761446785124864 
0.001123930482062298 
0.01122857560461202 
-0.004597151355539606 
0.007658135319611811 
-0.003562244402238162 
0.0004351284853431442 
0.01750243328142605 
0.03318116272074297 
0.01770690819911206 
-0.01946810660787958 
-0.007300990289478581 
0.01001393660095837 
-0.001581690610898436 
-0.0009271261606025493 
-0.01349600471174704 
0.02023232285369036 
0.01019114237754055 
-0.0004872307148799609 
-0.007995126802935251 
0.004383222271948879 
-0.007276989829620818 
0.005448069381208496 
-0.008783778292681314 
0.003882363696516164 
0.009598113099595533 
0.01261423585887275 
-0.004903712956336029 
-0.002414840137674339 
-0.0009732722002815125 
-0.01044745242484848 
-0.01036370142518212 
-0.002488944447436484 
0.01519309364161938 
0.02696706118099462 
-0.01061399482093782 
-0.005085212040918561 
-0.003299152602748441 
0.001954444980533562 
-0.007120587682165581 
-0.001551385412511577 
-0.007675020167875627 
0.0008762458212456403 
0.007582111752644838 
0.01036617943528425 
-0.005743124045618647 
0.003378953243840076 
-0.01487873865224885 
-0.01588550243615417 
0.008214014871411116 
0.004068172660925105 
0.007663423016458007 
0.002351907695585086 
0.01921313466196482 
-0.007103310512118117 
0.001849399014212932 
-0.01402184244010601 
0.005538879905264155 
-0.006859275577928775 
-0.006878805814743738 
0.001559957922782325 
0.0001710098507762453 
-0.001970873003178243 
0.009343271125882421 
-0.003881422315807257 
-0.01185335859792676 
-0.005148949643006478 
-0.002173984269677504 
0.0005313357842593397 
-0.01412875221054754 
0.02417983645257766 
-0.001125325154578002 
0.002453642602518913 
-0.009895010268866874 
0.00778121779317485 
-0.007333332609559067 
0.004667031256737509 
-0.002017666719865143 
-0.01169324604091942 
0.00611883742265865 
0.01737725233902099 
0.0007725092897850874 
-0.01030073714111417 
-0.001640921087519314 
-0.004063867382745878 
0.01291662773390543 
0.00455827263214536 
0.01540944280891688 
0.004287510308811243 
0.003865383226586284 
-0.009202501927761047 
-0.00389176016540664 
-0.005611208222986361 
0.01016642407978538 
0.01034877171294655 
0.0106530895810085 
-0.01338035770044707 
0.008838685640451482 
0.000897350925687181 
0.005152911023310916 
-0.005385557665171582 
0.004344368176303423 
0.01217154749579102 
0.004436919580084294 
-0.00457118422723547 
-0.006437687706717544 
-0.001132686174267017 
-0.005089323669201712 
0.01585506205443738 
-0.000959366712956576 
0.002889799132317517 
0.005076780381419782 
0.003684257283330654 
-0.009986198151027532 
0.00692920873973182 
-0.0005544141654625332 
-0.003489268979958367 
0.01169295575545468 
0.006143787072555099 
0.002650108467025319 
0.009148298650933502 
-0.0009145611292541398 
-0.001845347081968316 
0.002087577964284123 
-0.004666537829305531 
0.006970834898976367 
-0.003960690703883807 
0.006735571214115016 
-0.001749634486216939 
0.01067202765450324 
0.001541177752610781 
0.008953255137364767 
0.003022278304283258 
0.003675529785495616 
0.0001061308714844673 
0.002742381529254137 
0.01202952406415769 
0.0004830999517358135 
-0.0005279916934133322 
-0.005092714357026911 
0.008766001982951674 
-0.004486595503096479 
0.01058087497941807 
0.004536141978537798 
0.01294979671078976 
-0.00275251116218411 
0.002068497940599915 
-0.006983759263985291 
0.008115721942376485 
0.007887207995071263 
0.006712298607120845 
-0.006678219854422071 
0.004016230410019856 
0.009194733124182439 
0.007448783028489907 
-0.00579411604975385 
0.002370002680477221 
0.007834132125993414 
0.006192960515027716 
0.01757565379832084 
0.005397965763737488 
-0.001092851313005768 
0.004271017768654599 
-0.01300065510915248 
-0.01222876091782204 
0.001089073408550487 
0.003239146601346773 
0.004308860571823008 
-0.003819646660598271 
0.003924199534263326 
0.009904467244926624 
-0.005648929904913314 
0.007140122800304135 
0.005136526014611596 
0.02400755221893806 
0.006434554322202761 
0.01487859647002371 
-0.00135674041042127 
0.01072822086908161 
0.004739758582297217 
-0.001636184902558977 
0.003157393742763193 
0.005984350938457244 
0.006397154601983265 
-0.002442440794174459 
-0.01721423670380765 
0.004448861374489509 
0.005895068873593867 
-0.002262723475574893 
0.01223009090419346 
0.00977447200342877 
0.01205450410283951 
-0.0007620305801737358 
0.01634418051509634 
-0.001390888466026758 
0.006231986174559809 
0.001412154639546815 
0.003449290679117731 
0.004899359528845786 
0.006396162594247986 
0.002803696837704959 
0.009697549981900011 
-0.02019999199194059 
0.006902029762886511 
0.003627817551842934 
-0.003640790993819317 
0.008774849659184021 
0.0008817039529112477 
0.01651631119630773 
0.001850710680414285 
0.01320767941106404 
0.0008262664098355038 
-0.002628168534724884 
-0.004991621778309994 
-0.009367424565849002 
0.01116186247378033 
0.006587717054696069 
-0.003077052071498582 
0.008302174905646022 
0.006725911831342558 
-0.003015380839588536 
0.002498820206732867 
0.001821810026120693 
-0.003487156259186104 
-0.002720706945231099 
0.007043851379197074 
-0.003071642513489628 
0.007364176907641606 
-0.003781106418257164 
-0.0008742462300712735 
-0.005464958324610603 
0.00051908437794759 
0.003307805398914499 
0.009688263178363807 
-0.002722168621003196 
-0.002926433661053819 
0.007582118944349135 
0.002830884369762561 
0.00989730740122873 
-0.0002777116009877692 
-0.003311834587353863 
-0.002558791021808361 
0.0004867154685892412 
0.004238851600980338 
0.01456398225033896 
-0.004206621719757335 
0.01477084002118469 
0.0009864665185715742 
0.008503638476848362 
-0.007434191371461666 
0.002459224444736108 
-0.001217526252367332 
-0.005042025375223897 
-1.452664396287845e-05 
0.0002014676494507243 
0.01079268546239608 
0.007950138580469002 
-0.002503942028576797 
-0.003750247708971971 
0.006027761437570506 
-0.01116572810705276 
-0.003134132543121199 
-0.009330451973329521 
0.005019703006217264 
0.0008610778104659135 
0.001589818987980207 
-0.003820958837399338 
0.009707556664695041 
-0.004433012703246478 
0.001895329450738744 
0.01755214304494825 
-0.001849667115691229 
0.01679034983767595 
-0.0006686014384722687 
0.007262386519800036 
0.006485341267007011 
0.00760238597727103 
-0.008927595381184648 
-0.001510596809825802 
-0.005251107334998362 
0.00387990503361047 
0.00818657817040104 
0.009285309893656892 
-0.003867395551756676 
0.009293650570047784 
0.00602038933108355 
-0.007584920454998494 
-0.007425738128782802 
0.001899549070749905 
0.01002774365496808 
-0.0002679681889355718 
0.01202460860172862 
0.01006674787099325 
0.005929295452057224 
-0.002682850235657278 
0.00642358404609051 
-0.01093082080761848 
-0.002382390815952796 
0.006190453170556174 
0.002485062444813066 
0.001506390459827278 
0.004090505003507427 
0.001093413543503221 
-0.002601330650095323 
-0.006708081620210508 
-0.004463444652475396 
0.004762916719990172 
-0.001114831742035604 
0.003242438065248649 
0.01165338493119294 
-0.0006154748344771855 
0.005643231021729433 
0.01353172217076592 
-0.008910163295242119 
0.001259306983454503 
-0.003497408283992027 
0.01130589067586858 
0.007777841995546109 
0.008374700360899677 
0.007995466659926837 
-0.001970818527270815 
-0.01948419110293859 
0.002483656400562732 
0.004009279177071669 
-0.0007095179946917192 
0.009154020630513229 
-5.556342780987838e-05 
0.01747485675934835 
0.002842374848196383 
0.01088826834799397 
-0.0005316392251546446 
-0.002730452306458173 
0.002266070748900686 
-0.004823427530407196 
-0.003202780161045298 
0.01282429332859267 
0.001609891584973702 
0.01283340441492697 
-0.004227579604358631 
0.009991466246056659 
0.01260951617656116 
0.001468513573516824 
0.01208322654699076 
0.006793989608929257 
0.008679189133487215 
-0.001856582366698671 
0.01845209324284586 
-0.003382337837557912 
0.01629414784153499 
-0.008872085986872405 
-0.01082694360889083 
-0.006075966745644888 
0.00263540663295068 
-0.003034341116724936 
0.003341503952465245 
0.001563782344264504 
0.001149038107883575 
0.00435400219311183 
0.007141798720439427 
0.007633931032801804 
0.00228429987922603 
0.003556137826073524 
0.0002277802500011565 
0.009773667558410189 
-0.01378481439724973 
0.0003467401308221945 
0.001025843027393964 
0.0007159269117576248 
-0.004518099792605038 
0.009598851656181226 
-0.003204790432160481 
-0.007556505044535916 
0.002245859984475143 
-0.002729020877563816 
0.008529692796424449 
-0.01123991617983498 
0.00799188165680256 
-0.0008846233297591171 
-0.005087289207461344 
-0.003107957986544422 
0.002507347454778625 
-0.007259974474549987 
-0.0005925892271409465 
0.001422764293676225 
0.006858792730082107 
-0.004546633801055107 
0.002495496875500655 
0.004739772297825772 
-0.008757014726822415 
0.01142749768252728 
0.001031856131972623 
0.005156482804694711 
-0.005835780899705693 
0.01139223090030076 
3.40567148828035e-05 
0.00919524282133943 
-0.008355606192717354 
0.006521417379001055 
-0.0008793234557597957 
0.006607402392824279 
-0.0004766625391957305 
-0.006058117094522348 
-0.01172964067208717 
0.007051951157855644 
0.002475867344385468 
-0.006224002955817246 
0.003193285955637581 
-0.002452379490504012 
0.004787745589893829 
0.002666873095743053 
-0.002221760609851655 
0.006165334352625929 
0.007329506329164412 
-0.008692549096297703 
0.01579126402219474 
-0.002922882404303607 
0.003193948874443357 
-0.001095933229840947 
-0.01122293837833004 
-0.003761191048903613 
6.855863186789422e-05 
0.0001585878359604747 
0.002884895243319133 
0.004494940165098647 
0.00310141175421229 
0.008825452054359407 
-0.003633392913292794 
0.01294628297273618 
-9.788525325106082e-05 
0.01515820734436736 
-0.007670597028842952 
0.01455289804787944 
-0.002244612502089444 
0.007440440310412123 
0.001194298900563376 
0.0001459004069783136 
-0.01789699748304804 
0.001896549021223104 
0.004563687689036237 
0.001135752241669405 
0.008768499589006992 
-0.003217847594478903 
0.003542616488021519 
-0.002699683867204318 
0.01404352995796083 
-0.0003926348432409921 
0.00544354638376097 
0.001561554351862706 
-0.002594538873508265 
-0.001328831082425981 
0.01280549248985176 
-0.004096994124907533 
-0.002773774245460376 
-0.01123103453240448 
0.01030207370691802 
0.005919456575614916 
-0.01074374897142034 
-0.01263706049368753 
-0.002852234591492241 
-0.001836185480916311 
0.004660062818816276 
0.009521201656064782 
0.01788578516761934 
0.01190632376000406 
-0.001768629765361168 
0.007201491562361789 
-0.001884013695583162 
0.002672002383245281 
-0.008925313862247188 
0.001965212235728082 
-0.007595053753033781 
0.003110650320209857 
0.00165986201404755 
0.007022534834537678 
-0.0007771226586751877 
0.00428996685244181 
0.009534258493215616 
0.007086188105045656 
0.002997335079609594 
0.01067532261768373 
-0.004601120356807291 
-0.002798553412932101 
0.0008121120466398736 
0.001053873317583281 
0.001922922964410542 
-0.005997601932387294 
-0.01889474638304469 
-0.00493704753252471 
0.004056199424235981 
-0.001683482564235374 
-0.004280233206430391 
0.009118754714681069 
0.005788955342874604 
0.008497366100373447 
0.003343088951261469 
-0.01034098866800723 
-0.007055568418065631 
0.01154933041924821 
-0.002921381373030662 
0.005302437985307074 
-0.01099259529434358 
0.01169971579607021 
0.006984353776056562 
0.007895254834337954 
-0.01091904457794513 
0.008125835309051279 
-0.0006997928713459425 
-0.002862935832613011 
0.004809245781910636 
0.004645481818249081 
0.003385712285522086 
-0.00923541759334469 
-0.005607764957977645 
-0.007030631899895387 
-0.0009616977397035166 
-0.01965470753098677 
0.0117108538513361 
-0.0227749111251194 
0.003612533333722896 
-0.0004781538973561713 
0.01614495685496049 
-0.00583258573293571 
0.00931536706343721 
-0.0103490320056831 
-0.01352830364761711 
0.01270206086152302 
-0.006129170704951455 
-0.006189870161954271 
-0.006412101337548269 
0.004417331145613275 
-0.007204597914032062 
0.006091459899973211 
-0.0004461300775789108 
0.005612736765072458 
-0.007948526027577292 
-0.001369323426367708 
-0.001871784451675387 
0.01278687406938375 
0.003796045458117236 
-7.797960221448716e-05 
-0.01248059995470682 
-0.01157297337284357 
-0.004499593619109971 
-0.001120470690210296 
0.008043676903676101 
-0.007535900640907946 
-0.0002137209903557228 
0.009091212822403863 
0.005610007174352214 
-0.004851831828640354 
0.009288489927287081 
-0.009975596995746345 
0.003325477891584378 
0.002691449394648945 
-0.004012253792797716 
-0.01200489475216 
-0.001204700633527722 
-0.002956752775946913 
-0.01735398101300444 
0.008103731411073851 
0.002773222012177839 
0.006962726278248108 
0.002343743314767242 
0.01562076773372623 
0.005398926622906429 
0.005953834033702067 
0.001447025119144687 
0.01083800161836807 
-0.007544225055630972 
0.002291657633416766 
-0.0002222398095094575 
0.009808583372721683 
-0.007296630191089217 
0.005578158493762213 
-0.003220120467674929 
-0.005815145826488912 
0.006590953827558413 
-0.0004622871295264411 
-0.009271942680517875 
0.008051645544237481 
0.007586367487325379 
0.001096767254951784 
0.01048697187218733 
-0.0042976899644891 
-0.003034441449517945 
-0.002518381345793644 
0.009154526786504896 
0.002148435010237924 
0.002222397842200644 
-0.007686531884050824 
0.009168021629896397 
0.003141927434090119 
-0.007557067926518756 
-0.009700395797917072 
0.003939392796212994 
0.007214898476381473 
0.0001031888024018607 
-0.003371818929794589 
0.005951385427258651 
0.008452994467122735 
0.004903963153518094 
0.007324771890675921 
0.001940270188165318 
0.003977387469838712 
-0.002604599149142366 
-0.002418155191592825 
0.008364331805033872 
0.008205614916145113 
0.003222683051300242 
-0.000107357347649076 
0.004875070342346511 
-0.0006340785297864192 
0.006812445944187621 
0.007553057108255341 
0.006911570645556835 
-0.00581908138703151 
-0.007768738569957854 
-0.009809913930576751 
0.003196222904558214 
-0.004023751448211362 
0.006944028474449598 
0.002252434762520101 
-0.003150934044983316 
-0.0009486778916358338 
0.001016921900932848 
-0.007237059429697249 
-0.001493580824759642 
0.02425884105219204 
-0.005468476559782402 
0.01286033484312411 
0.005092402869174203 
-0.002454940898510956 
-0.001490716919889394 
-0.0051912236273453 
-0.004115675684136051 
-0.001123277628230442 
-0.01637878665450666 
0.001913650199301962 
-0.007127897553199513 
-0.00634201813361604 
0.002051111104760809 
0.002635810265687026 
-0.007366549265338698 
-0.02210080787212047 
0.007164481748772375 
-0.002325523949944112 
0.0163776445501352 
0.003129146640537846 
0.006229843823143744 
0.008519258067679074 
0.0006580004082972298 
-0.01081478538894932 
0.01455055972178154 
-0.006288236721544957 
-0.003698789705818794 
-0.007137487367569663 
-0.01278749532225332 
-0.001598168471840024 
0.01461025609906871 
0.001572553954353756 
-0.001862190748672828 
0.005451540655095609 
0.002501916743488571 
0.003817588722997351 
0.006294617811238241 
0.005404412109467939 
-0.001204395847032685 
0.01099260788979204 
0.002997033826740773 
0.01213576666326328 
-0.005924029175259729 
-0.01172791105564899 
-0.002937657889863889 
0.006131208331250492 
0.002064430412540042 
0.00342601727418246 
-0.001162651818646411 
-0.005865833336281132 
0.0001291033286608226 
-0.002402801656019725 
-0.0020612742555023 
0.01226311418894859 
0.01125955997361927 
-0.000546362033474767 
-0.004399045231578291 
0.001990748521502778 
0.001117528014162279 
-0.005762573149425547 
0.0009936328334209656 
-0.005124499422676762 
-0.005117963407187407 
0.01467673217741534 
-0.003807569966729584 
-0.005837614853497733 
0.006418230409463316 
-0.007775242020414663 
0.001097846995439867 
-0.004786190341785959 
0.0001470233689085176 
0.01894563214803134 
0.003847515023704911 
-0.002666457883684686 
-0.002750692225418478 
0.0008696303733055762 
-0.001826220966769949 
-0.001165589049356198 
0.002304327941787106 
-0.007204195310448359 
0.00458910736492012 
0.009814280405954615 
0.007995432441837477 
-0.001300862953881374 
-0.00414819773537943 
0.00293185780467699 
0.007316354317091596 
0.0006412177760864673 
0.01041307386105331 
-0.0009127521598819309 
-0.002455305744653428 
-0.007777348154400567 
-0.001092941372497354 
0.004546132898493314 
0.004660186212314827 
0.0005762734166406838 
0.006548006487907461 
-0.001378405434624654 
0.006386169316139893 
0.002384624631357201 
-0.001955559980903959 
-0.004671470779949123 
0.002248871164613538 
0.006753523385096162 
0.003818535270799018 
-0.005348856867232152 
-0.002490870435147131 
0.009738719520361776 
0.005146121822937318 
0.007770670582835966 
-0.009765256017529094 
0.009864092453009005 
-0.01061524728045219 
-0.01173213330270958 
0.0006238837496537056 
0.01090183448828221 
-0.001830042314095693 
-0.003626126832930698 
-0.000662225158042201 
0.004543648372660482 
0.002952601882447177 
0.008646796516136009 
0.01599015533519479 
-0.008736063463656048 
-0.001415277453473603 
-0.001647531079534812 
0.009122335440486158 
-0.002780805770606043 
-0.005925811380595719 
-0.004995963216477418 
-0.01327514405483357 
-0.002835116816778492 
-0.001788533175669546 
0.0005630556236926389 
-0.003270359403258838 
0.02059511883953384 
0.003136946113668128 
0.008273141178342578 
0.00973119480853514 
0.006815538643606646 
-0.001398713576275121 
0.0002488033074875289 
-0.008351058055895049 
-0.003861469140028335 
-0.009558937075381453 
0.007975671370543903 
-0.0003706928797668339 
-0.0008114551579794225 
0.002636496030352212 
0.00218882713138126 
-0.006812999130350782 
-0.01233400819424559 
0.009888646432560355 
-0.007698543855802668 
0.004852983539367437 
-0.009325910435473619 
0.01334814986072932 
-0.00641203491907704 
-0.001066004149853228 
-0.009637468473171758 
0.01102449741912216 
-0.002312651260733824 
-0.001467470803367952 
-0.00428196155818548 
0.0009116626218035967 
-0.01355329667271278 
0.008857556173482663 
0.006402467062100108 
-0.002195391178607431 
-0.005771194178231852 
-0.003100593457772631 
-0.0007331732001025234 
-0.001894045607672397 
0.005230325883890376 
0.004225445356851383 
0.0007354862804809869 
0.005117594474931419 
-0.005520132153747102 
-0.004614517241883256 
0.0007000450160976489 
0.004173692575884906 
0.006151253430697704 
-0.0002761798841698743 
0.003710630319112849 
-0.0003785617195110499 
0.003209429417467657 
-0.001624072333063407 
0.007761734910446755 
0.007799263897781973 
0.003942998693645716 
0.009194697385962729 
-0.000418773608252228 
0.0009636902145427419 
-0.007842346481556956 
0.0008830281497665325 
-0.00794400180205744 
-0.003863456495912349 
0.003222444753263109 
-0.00132275294113804 
0.001310618806299455 
0.008870712476441618 
0.006563318138190205 
0.00485594305871803 
-0.01352703701887094 
-0.00755471571744971 
-0.001704387365659534 
-0.006900912747161784 
0.02554338130595205 
0.004692699185579555 
0.002199650714628789 
-0.001850052196213906 
-0.004027122868400746 
-0.003648011886273615 
0.0005554684724563263 
-0.005680309653363545 
-0.003854455536268743 
-0.01514624641476988 
-0.008308487805306852 
0.005549839324536621 
-0.003799542654440846 
0.002412766032255047 
0.004397628319438796 
-0.008908721806360608 
-0.0006101811679324122 
0.01105165517692287 
0.008178730789316918 
0.004802904196677264 
0.005117997648290646 
-0.002216369642837114 
-0.006849084086987487 
-0.01055545729091358 
-0.003455701732232153 
0.009402980294145895 
0.002358107505242527 
0.001693005884715835 
-0.003458089368712739 
-0.005428183814077948 
-0.008489709432733302 
0.005340040270660116 
0.008052266482848911 
0.00448817296322641 
0.01778796001089854 
0.005325503325464825 
-0.003147704891446394 
-0.002329627203974614 
0.001832980147455302 
-0.007537531633334375 
-0.002262856752389008 
0.003581763936860611 
0.001327877099130888 
0.01025946745640506 
0.003357651142583935 
-0.003572173431802973 
-0.0003090315893056494 
-0.000228039927715622 
0.009668379321037018 
0.01193586243630735 
0.005647273675449411 
0.004756759575673074 
-0.004291100837170219 
-0.0009064808509381156 
-0.008166704803532895 
-0.003620833535445877 
-0.004482295582176879 
0.008050018237020277 
-0.008085223876613852 
-0.004637788050815925 
-0.006431638749153244 
-0.005602585590887372 
-0.002688512708141268 
0.0003062635874718075 
0.01686398589119736 
-0.005851703099253204 
-0.01241982483242733 
0.009110517359627873 
0.007870828738892574 
-0.007771387407882018 
-0.008573690752207618 
-0.004750029239963319 
-0.004738815955738601 
-0.01064606616594661 
0.00743267819861938 
0.004123016104483605 
-0.007684340011800887 
-0.005369343724174099 
0.006869248870337456 
-0.002925268968690005 
-0.005940696639721843 
0.008888588623787028 
-0.004504245835865848 
0.01134799506710857 
-0.002039061043657384 
0.003292926803554136 
0.006440789219512284 
0.01693959860866284 
-0.008021939082807418 
0.008912902303201822 
-0.005123963004036989 
0.003099588987413247 
0.005489353888393857 
0.002641530388707621 
0.007695420277600393 
0.004747365192295959 
0.002345856665913911 
-0.007808408070354292 
0.006683234912044277 
0.001539260109754845 
0.001107760502156395 
-0.005257632074379642 
-7.501314115500546e-05 
0.0131098552746786 
0.002650089898080089 
-0.00272793889269502 
0.002214749359162812 
-0.007398020503298549 
-0.001494415946877628 
-0.008126688637239199 
0.00318900851759722 
0.001360536190988936 
0.006590427363161498 
0.002301207625208876 
0.001006001440520036 
0.00652901741895613 
-7.026550169398007e-05 
0.005832486877191015 
0.004251131529534132 
-0.0002414969138864506 
0.007342129400305204 
0.005269330833172796 
0.0001279922076998312 
0.002712808437601336 
-0.01546189983646564 
-0.004470624570452603 
-0.001124548714649913 
-0.006928319654699532 
0.00775029050652628 
-0.008407603617554689 
0.005438111905956093 
0.002250923348542181 
-0.0008902126666787206 
-0.01112050893853124 
0.003019690869639403 
-0.001318537151537502 
0.0007182811781711347 
0.007123224286385626 
0.002969183723577785 
0.005715279358565727 
0.006073642050105079 
-0.001797291498364287 
0.001331794955887378 
0.00219655177479657 
-0.007844733159220173 
0.01812555042970451 
0.007008832867512712 
0.008376241511214532 
-0.007761624602951793 
0.003599160249184571 
-0.01249470816085007 
0.002014861655292366 
-0.009394923174462447 
0.0110911632491301 
-5.027554661744442e-05 
0.006819782807579187 
-0.0003960456971491546 
0.003249778296719808 
-0.0009707562778457315 
0.007723078025338612 
-0.0004046363141023011 
0.002557905948822644 
0.008542605826177269 
0.0007232075694113102 
0.007106454894628359 
0.006270172258225395 
0.01301856138365229 
-0.001209512590187458 
0.00240780959216047 
-0.001661786626379405 
-0.00108542656066887 
-0.0008032093232462388 
-0.001462935257099991 
-0.0117313204677126 
0.009605513836898944 
-0.002968724640015975 
0.002916938872250631 
-0.0009693573500113612 
0.00429498519497471 
-0.004994037219612718 
-0.002283124306434812 
-0.006435355300728992 
-0.005619830377204262 
0.01011072894736229 
-0.004919168108946744 
0.00938671652453084 
0.005423756022414084 
0.006001604021277598 
-0.01058859291579414 
0.006757317184523426 
-0.008415530816653799 
0.002505556505548374 
-0.003729362858840645 
0.01126489821978175 
0.0008002850628813594 
-0.0009823807503790874 
-0.0005442289515297661 
-0.009400877124983326 
-0.002231725522620909 
-0.001253113148442801 
0.01518053655898147 
-0.0005688174627108106 
-0.0001099543370954696 
-0.0005512557791668626 
0.001877902009250284 
-0.00567222691527494 
-0.002871196406763006 
-0.0004282320969240484 
-0.002414567733274111 
-0.002853186350787504 
0.006138185595323857 
0.002103565478408554 
-0.002671695422098835 
0.000762496788057295 
0.0009365432379986501 
0.006457091262899938 
-0.006868532441782362 
-0.003153400093875177 
0.005873619174099703 
0.00693070870567699 
-0.01012675004883027 
0.004509956661001169 
-0.004414981775314425 
0.001909847119214138 
0.001253681474590295 
0.006971971553212034 
-0.01178146079314188 
-0.009048239627469496 
-0.003752333213266239 
0.009921771023014118 
0.002189440381225938 
-0.00172988407562708 
0.00181228020471591 
0.002380891414358206 
0.01998705891280127 
-0.007791343890644731 
0.008903963217423786 
-0.01178339894424448 
-0.001201699968098576 
0.004584430525593996 
0.01402392914941465 
-0.00122557291117821 
-0.0008937351268914218 
0.001216914293593698 
-0.007456658719418725 
0.0004283128170653346 
-0.003656178796470807 
0.01280782767377485 
-0.005972687723894242 
-0.006853348551565264 
-0.004385207915566891 
0.002120113805893486 
-0.001386061720461723 
0.006374929981425629 
-0.006742278396019834 
0.01334559044444428 
0.003366692428562356 
0.002790816825140157 
-0.005129321219871899 
0.006519025148607782 
-0.01132419930342507 
-0.01423228422283175 
-0.004713666548646456 
-0.008245091358632523 
0.007892131576860511 
-0.003989542728668958 
-0.003302791798651102 
-0.002800940086251572 
0.006828024406682226 
-0.004370042593044042 
0.01225623931870736 
-0.001701176098727503 
0.01108139402525235 
0.007451961827031957 
-0.002800569873005184 
6.618847542898489e-05 
0.002468467288443511 
-0.000533413783247895 
0.003865763324294655 
-0.001694109246512778 
0.003493660037233115 
-0.006154931291479662 
0.002907482235854779 
-0.008628989292602791 
-0.01717780548906875 
0.002417723530093494 
-0.01118931085274265 
0.008673631547314754 
0.002162781252078213 
0.01568902305439071 
0.003205336382124955 
0.001331464494426549 
-0.008712933487355579 
0.001910587442951325 
0.003436777454627181 
-0.001115460844809837 
0.00797974237964556 
-0.004729816402373227 
-0.01780450580227306 
0.002570993976351286 
-0.006206371805055275 
0.002060737613267451 
0.002974223496412024 
0.004211769643809146 
0.009609227221099257 
0.01183902999681683 
0.02873579873069338 
0.005425116228365916 
0.004531877165877524 
-0.003306002857968889 
0.01190039040554053 
-0.01100380083664895 
0.008863495471225035 
0.0004043290287869955 
-0.01438006424163243 
0.01389714414842724 
0.008359322282186254 
-0.003589380002777329 
-0.005098213727391501 
0.0100684581707089 
5.018204820534009e-05 
0.0006144075713569215 
0.007028725230972597 
-0.00379557457195367 
-0.00850328585731054 
0.01038758909702214 
-0.007588370473044424 
0.003266654191542572 
0.003626218483161832 
-0.002857720947696648 
-0.0027505396559039 
0.003500227055821883 
-0.0009977084112746805 
0.0006406921021761335 
0.003262251077169376 
-0.002253404041062679 
0.002057172619103564 
-0.001507271260366649 
0.001247824399571484 
-0.0006543161465040901 
0.01186730399928739 
-0.005933143528157527 
-0.00304950674204326 
-0.006284301871233039 
0.0001093240313283337 
-0.008910683094565726 
-0.0003970749322453818 
0.004297688466095084 
-0.001533911365222598 
-0.007997850201243929 
-0.0009280253518976931 
3.269089989492657e-06 
-0.008502722628087345 
0.00272593780638159 
-0.002265362380466557 
0.005910996126411996 
0.013222916010997 
0.01316002514811964 
0.007976501966332121 
-0.01153692866619858 
-0.0001371759174720242 
0.007418751632235358 
-0.01088529905067118 
0.0008315798406911425 
-0.00636038135218231 
-0.002274334382691117 
-0.01224460153447017 
-0.007443928077920168 
-0.007700637628900316 
-0.004636332476144857 
0.017248804307576 
-0.005406304390368953 
0.0120457041605359 
0.01065234002675458 
0.008400349614159383 
-0.005795535919000101 
0.003565123316863572 
-0.009713243144571768 
0.02752581910071032 
-0.002989174132866141 
0.007261966673715034 
0.003529500998303914 
0.004731378531540585 
-0.002371548795651881 
0.00268495636283686 
-0.00786003259249082 
-0.002743711833353921 
0.003836564921501192 
0.01230890147027627 
0.007931668133581586 
0.006549615333638193 
-0.0016777757563858 
0.009550146133794461 
0.009581843603877701 
-0.005735707695049743 
-0.005412626512611596 
0.005845886286085678 
0.006034150515927183 
0.00520663411760418 
-0.005330166779982519 
0.009428147916517948 
0.004681816423621648 
0.007240292605713406 
-0.007062671009250615 
-0.01121995541129042 
0.003854821383571416 
0.005671481215245984 
0.01159819104973101 
-0.0001714074303062909 
0.002191471009692897 
-0.004846778530513175 
-0.003497219783703415 
-0.009441091456496426 
-0.008250756842053696 
-0.001395712336007365 
0.005217873309584134 
0.0009981744239924142 
0.01889909130855335 
0.00920203821299769 
-0.001069056137254091 
-0.008221966324955745 
-0.01986856956240345 
0.007753567171499497 
-0.00522689345216627 
0.01549999325609285 
0.007386341515279598 
-0.003978265781253328 
-0.008421482062107771 
-0.01691885054759333 
-0.005478221426409198 
-0.004005223229756744 
-0.003716364878329257 
-0.006537881611953584 
0.0078277567842356 
0.01410787440501418 
0.003675019387087603 
-0.008330504270718485 
-0.004904415594050103 
-0.0250481112208703 
-0.001771854032091572 
-0.004909144766016808 
0.01349012842627517 
0.01981693817897428 
0.004892815855476919 
-0.006876025838820925 
-0.00181615198098873 
-0.003702657312397233 
-0.01275545132904974 
-0.0004277746296221254 
-0.001016224360866422 
0.01063035178784953 
0.01916357566970081 
-0.01106806718801777 
-0.01143204129647043 
-0.01374898547834932 
-0.02859044127673346 
-0.006717322560050188 
0.007150669164160347 
0.01706731996388522 
0.01700716148711041 
0.006304776759234243 
0.003035749485535772 
-0.006899304583556655 
-0.002734672289221011 
-0.004284406374394758 
0.001024568552509823 
0.001263168508888067 
0.001022273878689823 
0.02470174676979962 
-0.002744703661783659 
3.573064246639464e-05 
-0.008496547141236604 
-0.02264149733996836 
-0.001880705600915678 
0.0008934984217803315 
0.00600680959759683 
0.0006217721924860734 
0.0006680417129292404 
-0.0001604201474350838 
-0.004706058295331715 
-0.0001539218752296785 
-0.00154431672891211 
-0.004469972822615849 
0.005280962491990179 
0.007637250021667081 
0.01009973773518342 
0.01230866790703192 
-0.003210817348801675 
-0.01007159035873531 
0.01029041669875347 
-0.003871663542758127 
-0.005462558723712966 
-0.01290429037372506 
0.0007295164672414705 
-0.003715520974141717 
-0.009907283298140699 
-0.001035233354539463 
-0.001684274718549623 
-0.00469558479519079 
0.004098376191562306 
0.0008727984863329756 
-0.00487871709010944 
0.008510038761849869 
-0.002236681551627145 
0.002741047103776951 
-0.0082063831065346 
0.01475487582364446 
-0.00259375824691756 
-0.003003988654317568 
-0.01349031080320625 
0.007616880699886504 
-0.0003150757794647822 
0.00818396649504788 
-0.01128992134330861 
0.01563755274818509 
-0.001458822496498943 
0.00299698739388681 
0.00385883507719983 
0.008724967120926503 
0.01607041536922613 
0.01264224067861845 
0.007724112209954583 
-0.004604050772365272 
0.001715501026016126 
0.004019895190514311 
0.009459211813153999 
-0.003280213889962321 
-0.008054023853181774 
-0.001914029765178633 
-0.007254036680162996 
-0.01188963717441674 
-0.0005599643041155474 
0.003862856663703203 
0.01092822697866296 
0.006396608129633171 
0.008744656522581679 
0.01364098197917297 
0.007059760975190532 
0.0001480739092520231 
-0.003487322029470811 
-0.00463379382536613 
0.005913375891930749 
-0.008332791065241176 
0.002435999520317628 
-0.003333729515817345 
0.009708394939999225 
-0.00327056773873785 
-0.01137555028372582 
-0.00676419675529741 
-0.006842504481629383 
0.002825271334484763 
0.003855259426513562 
0.002863997704789558 
0.002132254030732546 
-0.001535222426370248 
-0.001173812055602583 
0.002819384303918034 
-0.01469178330268517 
0.006407629126514835 
0.007492805803928687 
0.01242671616289316 
0.0126354608043394 
0.001343009870938034 
-0.007419727737381657 
-0.009417023904948727 
-0.006995262963388269 
-0.008027668615650673 
-0.007071761579820302 
-0.008778925509170832 
-0.008144183789846757 
0.01487371986202005 
0.001120726852903106 
-0.007120683569607118 
-0.01414677526915632 
-0.02111349189934903 
-0.005008233785290488 
0.0003475618926220356 
0.02150947697374637 
0.009348143183286041 
-0.007617165537153522 
-0.004201945440427456 
-0.006592523827890029 
-0.005553475944379614 
0.002622362014273225 
0.00104484992050474 
-0.001262470234071163 
-0.004484219425322758 
0.00946795879098436 
0.004093000333654512 
-0.004374730046226133 
-0.008852987149125696 
-0.01106763177884914 
-0.005559924570791231 
-0.01537726847981848 
0.02362766153542202 
0.009155507547070627 
-0.00871796611405895 
-0.01089832786750605 
-0.004632067086242869 
-0.005344474236678268 
-0.006024845781897389 
-0.004996620880850738 
0.003105768036240725 
-0.007427225736072548 
0.01286668104369397 
0.005619685250565375 
0.002158812408821276 
0.002463175727102242 
-0.02024732941135111 
-0.01016769375966786 
-0.001425045096785955 
0.01765685148741277 
0.0190570297801653 
-0.000197083618087693 
-0.008589377855927345 
-0.00457479594553146 
0.001270051452753414 
-0.005109816858115381 
-0.008195058311515544 
-0.009647304086756877 
-0.002317465389195189 
0.008560251838696031 
0.007490476438664614 
-0.0003170487399290836 
-0.00422115538702697 
0.009806020369120391 
-0.003469576784263622 
0.01089637567078839 
-0.007094424738405515 
0.001639655538894114 
-0.003474283791233873 
-0.01003819513242705 
-0.003066365067607222 
-7.622326240447378e-05 
-0.0155613680507071 
-0.001921764497260371 
0.00604874130338889 
0.00359832716543808 
-0.008313857627109702 
0.01189718003441274 
0.004775493959264782 
-0.0008536331426677401 
0.01411438908144575 
0.004202161930388994 
0.008969823989856265 
-0.01246321257987687 
0.00358693629608194 
0.0004965354554849834 
0.002738364612789959 
-0.004792349577556206 
0.01133385075427298 
-0.007807150680838716 
-0.00306509557235981 
-0.004991065469956125 
-0.003810113125356007 
-0.005888045064386263 
0.01275959570673179 
0.006373397134002915 
0.003015744510929657 
0.004284232444205033 
0.01488931719804446 
0.01266455067996317 
-0.004203073096631128 
0.01852265964614341 
0.002080110007573931 
0.003530715185247582 
-0.01006675153144831 
0.00955102352174053 
-0.002605390160161029 
0.0004268989893944531 
0.01421849846511031 
0.02428238703582627 
-0.001987862820520579 
0.01035048276950697 
-0.00113375208006901 
-0.0001156469560673125 
-0.007404186438212707 
0.0002251673011426334 
0.005085043698364614 
-0.006268150074356145 
-0.003577490493506954 
0.0004972074353231002 
0.001555539893881921 
-0.009146650967977153 
-0.0005463697844353644 
-0.00551364908441433 
-0.005966047126874948 
0.00934060523147941 
0.01959695744171005 
0.002630138517832866 
-0.008913505067699118 
-0.001360954507155831 
-0.002151545823100266 
-0.01340992532172847 
-0.002969780701336347 
0.004097995137449325 
0.01448910704029169 
0.00425241887092433 
-0.004116229115322184 
-0.004838260418956436 
-0.009901130177223735 
-0.0006288049743534138 
-0.009676219387069725 
-0.01148729793886832 
-0.008490809756522045 
0.00977967582608783 
0.006981029279151227 
-0.002306262506559213 
-0.004903077090847963 
-0.009205886290629439 
-0.01654098442870945 
-8.564851616274868e-05 
-0.004353240781170586 
0.04075352369150394 
0.009965494922016926 
-0.009526860535897424 
-0.008184246842265366 
-0.002796843025579223 
-0.002575607772574106 
-0.01112086979141382 
-0.009539914741804828 
-0.004052972085283799 
0.001122291945669053 
-0.003988641510992335 
0.005016163655732302 
-0.004852104270334517 
-0.0006726406030518562 
-0.01937269416536384 
-0.0002600759077174336 
-0.008085310724701115 
0.01907351850325161 
0.01636323374640012 
-0.001306148865307419 
-0.01542324660980989 
-0.0001686358521055392 
-0.0005573334895579468 
-0.01263455511617197 
-0.01586973505088544 
-0.007908918393322941 
-0.005221213348024076 
0.01329787576256157 
0.002984678432877354 
0.002082070316335131 
-0.004384885962724575 
-0.0162250089872338 
-0.008468292416628215 
-0.01037154856683298 
0.0249875848653935 
0.000321936137817748 
3.541442692897765e-05 
-0.007536192132453979 
-0.006195805374548439 
-0.0005655799090633242 
-0.007465682075990091 
-0.02235461202397122 
-0.01282313962819553 
-0.007016592823422458 
0.001371957923690728 
0.006414332335762334 
-0.003353691505868967 
-0.007916265792281333 
0.01162069028921438 
-0.0006619029413296171 
0.01039758810012526 
0.004167284707654017 
0.006080634345171734 
-0.00122958661213058 
-0.006307387746090561 
-0.004684959170081058 
0.006852365886182761 
-0.0008280627961342001 
-0.01510958297815189 
0.002495550871801757 
-0.004307175244309206 
-0.004916591778614548 
-0.001195360053983173 
-0.001541874245976371 
-0.001447174189740276 
0.01371454571129491 
-0.005100516880999911 
0.01006688768839869 
0.004845109022420202 
-0.002034699472381488 
-0.007874165532121917 
0.004364101614861927 
-0.002993547949113632 
0.02254425098745617 
-0.001697427337613566 
0.004271004898555122 
0.00203637506653842 
0.006391022920492661 
-0.005583012705281398 
0.01908978641379312 
0.003058618115870963 
0.003238344991257947 
-0.007603717158294234 
0.0127942633673345 
0.007343011033400942 
0.00662028519276997 
-0.003620714763905533 
-0.01477686446584167 
0.008363513860877983 
-0.01084857907856536 
0.01068741569745949 
-0.002852310296985947 
0.002663202701645009 
0.001391312722904328 
0.002459032453346954 
0.001094664679526244 
0.01279039980749915 
-0.001847577009657205 
-0.001620523227253105 
-0.003906468171660875 
-0.001497215143354103 
-0.007752070203107223 
-0.00584891909102951 
0.005352513653756856 
-0.002823026131187718 
0.005021158296226784 
-0.0002485507991024423 
-0.001529910329930145 
-0.005623696521101685 
-0.00435911867059104 
0.01258152420235146 
0.005917553945093089 
0.00918104049209081 
0.003931367735069405 
-0.009119592297982983 
-0.005148616780959083 
-0.01448259967217798 
-0.000844040660974236 
0.0002500116548024945 
0.01473075223739921 
0.0002027303196984642 
-0.0008801760982439549 
0.007005142295720378 
-0.007427938267128209 
0.00476847613410293 
-0.00535718788729376 
0.004576210480622295 
0.0008291941072353494 
0.0225693658977242 
0.001992176635587297 
0.00601958470200145 
-0.003754013026121348 
-0.00595094762500052 
-0.01741011392436065 
-0.007025112638567633 
-0.003643180737985063 
0.02283567241231152 
-0.01546277387077301 
-0.01036986993239583 
-0.006162692523688942 
-0.01063202253145062 
-0.006465211508916442 
-0.01013782541280172 
-0.005817608740998603 
-0.009608359108001263 
0.01963794927667854 
0.01082546655202885 
-0.006474641344291178 
-0.00378179470385494 
-0.01207510817752183 
-0.02827418570441705 
-0.01374950729535697 
-0.01346404587406921 
0.02086377876319164 
0.02473754683812271 
0.0007994647147683774 
-0.005210353023114793 
-0.007757900547641827 
0.002948250666276199 
-0.007672153710930549 
-0.001622566758210466 
-0.005744808882253562 
0.01503448449437102 
0.02752742195281113 
-0.001905987859744731 
0.005054749957328672 
-0.005778307554617529 
-0.02558699797220381 
-0.001694771680382191 
-0.006953080833740413 
0.01259163518635874 
0.01457762698348187 
-0.01020997756034466 
-0.004185175198147999 
-0.01277743270309331 
-0.009241226719609455 
-0.008454375423395387 
-0.01639884731497127 
-0.006932802271698965 
-0.00946380619802456 
-0.00433471397860017 
0.008147104324768692 
-0.01003621318809823 
-0.01168882806662655 
-0.004472990907940539 
-0.004715149695859721 
0.00352063244639687 
0.01437193813255145 
0.01028741619506968 
-0.005742238361099325 
-0.007246116635487079 
0.0005854097473414474 
0.005050496958345871 
-0.00339200332253587 
-0.004898533285162999 
-0.009933986002489547 
0.002049324380633074 
-0.01490205902278246 
-0.0002492722543540914 
-0.003669174054977325 
-0.003909434880038194 
0.0007067671864777292 
-0.007466870721397262 
0.009574939197081574 
0.009139904434845834 
0.01752198545879196 
-0.01501099396077117 
-0.0003335570875445574 
-0.02293517599190452 
0.01419349558180504 
-0.01159717365418291 
-0.01236812192274332 
-0.007492824950842357 
-0.01166308280108847 
-0.01945161681589937 
0.002603215155785604 
-0.009186938950349126 
-0.00424305706175873 
0.002644316191740954 
0.0008460613619502045 
0.01365888065842696 
0.009561929898559581 
0.02340461798352717 
0.005863871612627754 
-0.01279497366189746 
-0.005147971829804233 
0.001981886217747221 
-0.003973196708185084 
0.007278810768846505 
0.0005373939101692406 
-0.01293009857006746 
0.003097452988948154 
0.00955884484860854 
-0.003267411908784129 
-0.008017210145005669 
-0.009842033935860408 
-0.005778600766759093 
-0.001759844568743881 
0.005438277193013891 
0.01523011500483878 
0.0008926922161460527 
-0.001560537182714929 
-0.003006091707986402 
0.001439433799263266 
-0.01290999301762986 
-0.001401316764507101 
-0.01509608853793151 
0.02740086687911954 
0.02392165562025475 
-0.004673737136456886 
-0.01632118394268577 
-0.01663777758135823 
-0.005695670948936158 
-2.347208102577105e-05 
0.00219007974604557 
-0.006689364220555407 
0.006650004203081249 
-0.003172183589454136 
-0.004742051584063768 
-0.01032147831222368 
-0.0004638701087429455 
-0.005924436562504211 
0.0006979494524777048 
-0.005591457536834469 
0.01469176683893648 
0.0153392028137958 
0.0017499705747185 
-0.003775360824791007 
-0.01364618815698472 
-0.02280516613982638 
-0.009599484953764151 
-0.001259998330221822 
0.01082545537902454 
0.01424056195084294 
0.00142960537178111 
-0.004294036348169501 
-0.002307453128794936 
0.005205513667137775 
-0.007212220050280094 
-0.005911178468613064 
-0.004907734308906993 
0.0316217331580991 
0.01205541652892152 
0.009189246410509364 
0.0100862077268938 
-0.01377610099874857 
-0.02277705645376327 
-0.007051602245605646 
-0.01537603820508205 
0.01417824461815207 
5.609917143634477e-05 
-0.0004718414056786069 
-0.003060302043114899 
-0.01094785264431622 
0.006590314742030896 
-0.01222840683949287 
0.005293459685780895 
-0.0114659053665767 
0.01296288026142542 
0.0187063480431551 
0.007365712141522053 
0.005186216222704898 
0.001766556909442462 
-0.02298084141725783 
-0.002321256886836951 
-0.008789704694009193 
0.005780512998815346 
0.01840364894704839 
-0.002393479805743369 
-0.004041595095536996 
-0.005300729040290871 
0.004256535692984752 
-0.007350508800022548 
-0.006949238939047379 
-0.003781185541488937 
0.009806517445219961 
-0.0007104086847430612 
0.001685326872226543 
-0.00232468624673022 
-0.01690261323985811 
-0.0002007503475228844 
-0.01061107166535778 
-0.004715865315305479 
0.00645571629893958 
-0.0009280104232681585 
-0.005774436313704727 
0.002564344126788547 
-0.003818598536691559 
0.007984450202984598 
-0.01012832127035658 
0.001461267855442505 
-0.01905737422213665 
0.01018979043281051 
-0.0009162809172303879 
-0.001371159240357633 
0.005585636954215584 
-0.01214067852254527 
-0.001158699103864967 
-0.008169682205580883 
0.001352429687591119 
0.003972228807283048 
0.006638049846760201 
-0.01130325558230104 
-0.005099670180976425 
-0.001417666903049167 
0.01352554939367711 
-0.01424641693139986 
0.002063315179426815 
0.002671014546743387 
-0.0005414297953467185 
-0.00588361595010004 
0.006572581219153391 
0.0001500166740489655 
-0.005610203594696599 
0.003745672123787029 
-6.884266887218929e-06 
0.01745621140249468 
0.005612082869459467 
0.008606096847167543 
0.003365226332803549 
0.0006928365084454042 
-0.01182747124088209 
-0.001843758420036233 
-0.01545031821270661 
-0.008431614716052747 
-0.008528302467286492 
0.006094494468016074 
-0.01368939932194032 
0.0140834183403221 
-0.01010566691421142 
-0.0108522386040716 
0.003932118435087874 
-0.007003810532094423 
0.0156055086047285 
0.009300692766319136 
0.005033771684861393 
0.01054854959826029 
0.005364430773360898 
-0.01021480587079251 
0.004533692785212661 
-0.008534901264972411 
-0.002954990089456993 
-0.007656521667240353 
-0.0007415852026075962 
-0.004887557653081563 
-0.004318350381958337 
-0.005013265050600095 
-0.006497457533016279 
0.002448652449844545 
-0.006388425282304611 
0.00161579295486591 
0.001054761401956451 
0.007078352883308699 
-0.001723755947812371 
0.002750182172529105 
-0.01745773092368842 
0.004774770196240815 
-0.01074874288730131 
7.165822703327096e-05 
-0.00880265330368844 
0.01024403480323214 
0.0105132279707845 
0.008165455994679625 
-0.01541155673660688 
-0.009643656209476178 
-0.001161713258113372 
-0.0113967503248232 
-0.0127442963773743 
-0.006667644992330172 
0.005407375952369093 
0.004943033353060729 
0.009009983268124229 
-0.003016009980435851 
0.002869888017226453 
-0.005636387148088564 
-0.002452486430935981 
-0.003956470470496699 
0.02698950375373741 
0.001301040557973036 
0.01023479291213485 
-0.006271306370620013 
-0.01096580229784463 
-0.004332428079288526 
-0.002299261615483104 
-0.001304970889939536 
-0.004986539534436157 
0.009953622637021538 
-0.006577404230962581 
0.001357265113539649 
-0.007326323447265908 
0.007931190486189578 
-0.01123927216130182 
-0.0008277389792752082 
0.004511499469275683 
0.004711214204044164 
1.371125647712067e-05 
-0.0007835610736305872 
-0.002989065242383985 
-0.004364824845183203 
0.01583235617366421 
-0.005250079606494733 
0.001883181547591918 
0.0004967255803993854 
0.008191115738067406 
0.006193889184644446 
-0.0007005991025227173 
-0.002234610901572368 
0.01092773442904304 
0.001410740203825225 
-0.006721903135374415 
-0.0005511902715663764 
0.008634890104508717 
-0.005342707701914666 
0.002551537910508048 
-0.006582044047827358 
-0.01518059420926203 
-0.01416231913767515 
0.003354405731010229 
0.006273069919678726 
0.005304660970777138 
0.00180023056928087 
0.002240561416724229 
-0.01114910675665493 
6.270210043402066e-05 
0.01130927957497979 
-0.004935631554763021 
-0.003985187729632605 
-0.000568524362604452 
-0.001323852532857453 
0.00682329659130444 
0.01195758126380048 
-0.0009570674459265196 
-0.009184470552770838 
-0.005985245026173261 
0.000398474851006369 
-0.002615169825501425 
0.003486299064238182 
0.009807668545428572 
0.003746296054280593 
-0.003757103977149423 
-0.01096891505491768 
0.006626059507515383 
-0.007115404113123841 
-0.002895907524813954 
0.005703346890231119 
0.00688584163605281 
0.0075833372795773 
0.009757145151455661 
0.0009980577677149356 
-0.003694924943001753 
-0.01216266837180243 
-0.006483504314357503 
-0.002956580970340006 
0.00396979977541765 
0.01521340878715786 
0.003410946098321431 
0.003818761474126047 
-0.01162236089947615 
-0.01049333421159758 
-0.01041045718478028 
-0.008072084192846293 
-0.01076059124506414 
0.01198579097137393 
0.02035362003557498 
0.001255098520055415 
-0.003601113419738162 
-0.01457478373996107 
-0.007855201026191161 
-0.007643950671175686 
-0.0008366711892774171 
0.005162900734420588 
-0.00365066692002932 
0.001391744756407961 
0.007686649387668727 
-0.01365309433883859 
0.006065223782771068 
-0.008008976579111234 
-0.002594444825731768 
0.003277926503152379 
0.003836374749167133 
0.006346849882978059 
0.003911969439368384 
-0.005614347837010807 
-0.008454423161069091 
0.004385106735639522 
-0.01711335439994256 
-0.001412896490128452 
-5.663541570698046e-05 
0.003675944502851118 
0.003083874814897695 
0.002865449232194248 
-0.0121871942343893 
0.006655961604405809 
-0.0055201181230611 
0.009668739794101232 
0.0003924059992463915 
-0.003731896365856737 
-0.003729316000618936 
0.00418276146705842 
0.002658139360945961 
0.0004572609778771934 
0.001417325704288388 
-0.01202032747360585 
-0.00714623691993952 
-0.002069619329180367 
0.004022961112937763 
-0.007750767067742473 
0.003806181867377667 
-0.006795965402456874 
0.005388473872755222 
-0.01130028364933032 
-0.001089538750858779 
-0.005757728494730351 
0.01429182872588071 
0.005994923310409669 
0.001182830637868664 
-0.01071614885909716 
-0.01341153103244284 
-0.01436327400812591 
-0.005393011230730122 
-0.008734907316481752 
0.0002422372991899644 
0.01525776592941701 
-0.001037534159389707 
-0.007502959381984833 
-0.0176437024225714 
0.009893774233480939 
-0.00689270829143176 
-0.007542730626276856 
-0.010310706043458 
0.02101926899738459 
0.01264571323519227 
0.0003429976707319347 
-0.002236461125158793 
-0.01455337207861028 
-0.007920124012831663 
-0.008166204540799485 
0.001942492646262399 
-0.01290703445164937 
0.007731812653643567 
0.003949731689500175 
-0.01367616531973565 
-0.02194552147157728 
0.006863014462731548 
-0.00077463484432866 
-0.002296962126243086 
-0.004406361329344161 
-0.008637121694523202 
0.008797727634479535 
0.0005899219903495491 
-0.005777571483006205 
-0.008589884708206324 
-0.001696817698451107 
0.0014566995126261 
0.01226703297127838 
-0.000780603820873123 
0.001917161138309345 
-0.004591801228161799 
-0.006781796106190167 
-0.0007972853571692207 
0.002407271972671267 
-0.0008873205091934857 
-0.01026454336254357 
-0.01592840405266064 
-0.01519860043555676 
0.01014849727917995 
0.01458599058684015 
0.004238967992089951 
-0.005512781416308083 
-0.005728178959798062 
0.002988852913733265 
0.02055628761042291 
0.005200610102783261 
0.006805406738905543 
-0.0007685087139247883 
-0.003358604278283285 
0.001971804631136827 
0.005465342476631757 
-0.001585218652292012 
-0.0006690873751372783 
-0.003586154936283904 
0.002963466082099239 
0.02064009544688549 
0.005679301238315723 
0.001413914359239295 
-0.008298268195617057 
-0.01283402890601454 
-0.003026914735682244 
0.01955614578021937 
0.001284375345151428 
-0.002771695328819504 
0.001573111072939317 
0.003251646402025989 
-0.001575647209411774 
-0.005346595702545892 
-0.009568015290994649 
-0.002669858720327463 
-0.0004087582154218269 
0.01071347134908483 
0.007480956394300284 
0.005778960707297908 
0.001735233598041789 
-0.001321702002382968 
0.008251441728399068 
-0.005307315595229354 
0.002893649250997282 
-0.003220141701006705 
-0.008774835620889111 
0.003471613756932839 
-0.002776095225539745 
-0.00575734559332928 
-0.0002283961207218665 
-0.006401788515146934 
0.00275797618060416 
-0.001611895910001767 
0.003452853663736025 
0.003644446961516121 
0.0004394912545825083 
-0.00465298530633734 
-0.009376650069179081 
0.008523788316616687 
0.0008174611474722488 
-0.001641383915084915 
0.004006864679484315 
-0.01693917208137595 
0.004203078507463333 
-0.0005413589983873229 
-0.002408442383367124 
0.007935785808090977 
-0.001135278905460344 
-0.0009066900948115879 
0.0002130472511464436 
0.003831163195485595 
0.01121454346530179 
0.0003692099288440741 
-0.003643405059061777 
-0.0003014580926625717 
0.003277364230720503 
-0.01223787983026209 
0.006458063260617569 
-0.003301310247208221 
8.232177750812399e-05 
-0.01133892787942011 
0.00243419400563684 
-0.01426577205197043 
0.006647318980566051 
-0.008050825356702174 
0.008259059758130296 
0.001483543291264829 
0.006056044557032943 
0.004599276000716996 
0.006219288983670099 
-0.004871603819311187 
-0.0109604409846062 
0.003927871106089856 
-0.005400230967079134 
0.005519347032746771 
-0.0004677922162684685 
-0.008525745355722907 
-0.003868839332244545 
-0.01078061317820684 
-0.01903176858905446 
0.01178042954772925 
-0.01033731878875779 
-0.0001500145843561194 
-0.008190709108665066 
0.001738263850554147 
0.01039850817402951 
-0.00519338382850573 
-0.002676144292802596 
0.001011452183328116 
0.001023671365204704 
-0.00767382593220672 
0.005768594139393452 
-0.006960623695101066 
-0.008549516450556927 
-0.0002422819032971561 
-0.0002990991496927207 
-0.004060764219919406 
0.008801363150696498 
-0.004389250008901384 
0.00460597102701604 
-0.007572227637130304 
-0.01034196531152557 
0.01500553158292145 
0.01288218427157921 
-0.002683465775988065 
-0.000459960475580501 
-0.02087802931885127 
0.001030407638162377 
0.00957284292353877 
0.01092198364177219 
0.01358980345287045 
-0.004055057265989087 
-0.003227315832929085 
-0.01165599820092075 
-0.001059346991897946 
-0.01857494915500157 
-0.005859052380198901 
-0.005464239774684103 
0.002850751092425991 
0.02367505469429254 
0.01121949632594178 
-0.004122229090146416 
-0.007189759253942998 
-0.02605864075845629 
-0.00449146999130444 
-0.008139258625938815 
0.0008883263182639555 
0.0167577117051464 
0.01330951416714598 
-0.004648804503280296 
-0.005254898903916872 
0.001610817560936235 
0.004934385634198611 
-0.01016337826660511 
-0.01103585524411291 
0.01129975651915015 
0.02453056235739606 
0.001041440172131224 
-0.002339042124291967 
0.002595225737627276 
-0.01579246222909766 
-0.008810002475301219 
-0.002502118646527756 
0.004734144702167499 
0.004191955553174781 
-0.002624594545037403 
0.002505579568310813 
0.001094636631867889 
-0.000158188156404301 
-0.01121149337012389 
0.001549785206239736 
-0.006333522242831356 
0.009625142999684554 
0.004924637321593101 
-0.01100804311523692 
-0.006025240139290937 
-0.009227718658617325 
-0.01908658030143223 
0.001050590258571024 
0.007587081638673466 
0.007579709884685952 
0.01619583094339529 
0.008728561307903039 
0.01032743469773377 
-0.00429302572515476 
-0.009759440587379254 
-0.01503662812332502 
-0.002831173789829069 
-0.01042917758236337 
0.0305343664774241 
0.0161098854194718 
-0.002632185693142704 
-0.009984565409376348 
-0.01706979879808852 
-0.02880054191515854 
-0.01451771043922001 
-0.005414788990151005 
0.01580675679439105 
0.02188329143213353 
-0.002981851742426384 
-0.001566655928284286 
-0.005780409036946063 
-0.001324086812108074 
0.003313303179717461 
0.01010768131488239 
0.008264522715927146 
0.01401366888247593 
0.01128015238985426 
0.004999325759798612 
0.001820690043079924 
0.00190090420159066 
-0.01490510902099255 
0.009785615469821162 
0.01032385578381603 
-0.01324781407047758 
0.003229555617598681 
0.0007850996106937535 
0.00311337970896698 
-0.002473009118699708 
0.001853812936605759 
-0.01088783324176651 
0.003007991651492458 
0.001415805638310559 
-0.003442321299913392 
0.009423414066803136 
0.001675259594543116 
-0.001315649042429006 
-0.004111047106844456 
0.002540433767728712 
0.004433761357693094 
0.002367604602895849 
0.008320584850697813 
-0.003072804381207734 
0.006964127107114038 
0.01049020430208868 
-0.0121846051143891 
0.006871965566898852 
-0.007390217425556972 
0.001092122683136844 
0.004661662710391622 
0.005381319049448376 
0.003643616672261862 
0.007682649678522026 
-0.006518135496676138 
