solver_type L2R_L2LOSS_SVC_DUAL
nr_class 10
label 1 2 3 4 5 6 7 8 9 10
nr_feature 5649
bias -1
w
0.004216121665963703 0.001983918642132477 -0.001630528743385817 0.008539300753393897 -0.003165644467290941 0.0007029701877188043 -0.003729476915547523 -0.00175941329803757 -0.0002221087270489814 -0.008817777380334711 
-0.009305913941868757 -0.001514839774249625 0.0004024323490365834 0.009256109713677515 0.0006731515056631608 0.00180452598692195 -0.002343865116254325 -9.917308507131738e-05 -0.003288778346635456 -0.0003088394385011956 
-0.007214052756563828 0.003312988301254043 -0.006961035787340523 0.005755738119848484 0.007617874241789571 -0.004151379239911821 -0.002362424831256971 0.0002630016812603112 -0.002086022261496849 0.003748585836338716 
-0.01089983067695182 -0.004422352167881547 -0.008341214469067338 -3.999248961233623e-06 0.0005370041840774196 0.00172782168757404 -0.007518192518826967 0.007258982008830568 0.005612310617738342 0.002276328739600155 
0.002232220756919355 -0.01331031801310075 -0.01211770772600701 -0.006552110575463041 -0.00171861592699865 0.003444722985958812 -0.01553705973627059 -0.006338001614480005 0.03703600709387313 -0.006194896006756349 
0.01856609782534045 -0.02149573762246773 0.002224139905712181 -0.004461595394395781 0.002789046899447164 0.00167503389329863 -0.003224445400516401 -0.004729734657851134 -0.0006519350592882841 0.0006607034828235353 
0.01038058020850327 -0.01302982435917442 0.006216798868522543 0.0001242971781703638 -0.01001734994898376 0.001138253786653365 -0.00686378946925097 -0.003762479515821496 0.009441691186651486 -0.003626742099424277 
0.001483638270989753 -0.008066197419360262 0.0008935187706018748 0.003970353159514169 -0.01105117652405045 -0.003040213874993733 -0.004471657870886927 -0.007839191281684303 0.02979104379829758 -0.007025269496657225 
-0.0006781884975320797 0.01281649813257511 0.01255160653578641 -0.007907649373555113 -0.01578909438795334 -0.002253870361531446 -0.01034959391891649 -0.010589084489072 -0.01723443350062085 -0.00631090908197172 
-0.003515967336650344 -0.001910731435253845 -0.001589033357488579 0.003344008832308498 0.001428680588848885 -0.0009143196778497807 0.004124125478287374 0.00107473499497524 0.005920206861025379 -0.003328201051519026 
0.0004545538201403816 -0.002338290348995728 -0.001172247018446086 -0.001098635051240879 -0.002342283231725845 -0.00165303776954255 0.002982581904505435 0.003869421294483773 0.001869857413158785 0.003744831347224659 
-0.00424336161336111 -0.002554055631670468 -0.003149377264251394 0.002114142921349039 -0.0004797589111272678 0.0001249741007011986 0.01076117082185416 0.00376621071872295 -0.005519797169247023 -0.007522448891184356 
0.003421533899285927 -0.005826250497055058 -0.004744463288322919 0.005775185117554618 -0.007091988027756499 -0.0024033264372064 0.01006442724179304 0.002752052881968186 -0.01608639360051364 -0.002507510283031888 
-0.007394291840500092 -0.001718659703547956 0.01035651639405934 0.00272999397722473 -0.006073109253781564 0.0006652930757255829 -0.0005812191306995418 0.001647748237404889 -0.00152484942932454 3.373754566086934e-05 
-0.005741502199741394 -0.004740578382287483 0.002108907650070749 0.001428856329926885 0.00282317786642546 -0.004415844626322975 -0.001977600841482217 -0.002505500062021267 -0.004059894437860121 0.008247901387175545 
-0.009755586883961298 0.00137084377320683 0.002128922368096662 0.008937543132276087 -0.005851426822140132 -0.002132728084809938 0.001094157593329205 0.00159300960386522 -0.005026064717134905 0.004920135851742652 
0.004056884393139534 0.005930195523143287 0.001047021530367782 -0.002307485632636358 -0.004091952404415303 -0.0005317802075009192 0.002249421492096483 -0.0008259527200445079 -0.006020518711065268 0.002757409935842352 
-0.005850384211790834 -0.007285251296332271 0.002319383744308514 0.007211236156239149 0.005648526430962151 0.003831599824749056 -0.004284663863558491 -0.002974674582368044 0.004933244394372518 -0.0009226187158995401 
-0.00988928033124065 -0.002695419241749411 -0.003632439997242444 0.005555259799311288 0.005291998691636678 -0.001457664703827397 -0.007631169994279429 0.005687664344420687 -0.001116182428599758 0.0003052740567641061 
-0.006751434703284963 -0.001344252097724341 0.005792712362822053 0.007209733292862582 -0.002651253914122757 -0.001850054445517924 -0.006751910757611628 0.0010798328826969 -0.000930293984010638 0.0004745389118669219 
0.0002681740331619578 -0.001409936281897827 -0.000721773599418428 -0.00297884508503628 -0.01511613023314658 -0.00679683790266394 -0.009883040922630572 0.01223175098457988 0.01587439656660362 -0.003974150795893714 
-0.01178305672945558 -0.0008851073725646994 -0.01224304767885985 -0.004953325455888066 -0.009527826265940613 0.002028474069577601 -0.0145988604094384 -0.002555950947741442 0.03813857374896106 -0.007690400729325547 
0.01013556482352664 -0.004952106526136596 -0.008537512948156229 -0.0141076539003951 0.008055808128776883 0.01094174969364807 -0.003598066505474069 -0.001732490598614703 -0.004985465639841768 -0.00572702047211911 
-0.005397742582824431 -0.01050583658701301 -0.003670908593526657 0.002122117674190461 0.0100918482826912 0.003966342880459507 -0.007991721592934414 -0.002889014003554633 0.00392113781914331 -0.004435774263776374 
0.009519724077261199 -0.007767819019009854 0.001972081510952157 0.003178640516546766 -0.007101630361921056 -0.003447787527026677 -0.004463102201439854 -0.006090447645590994 0.002572614696214526 0.007126475881740334 
0.0001851603596023541 0.002696667830483709 0.0005297533052121365 -0.005521419727911894 -0.0009686498405805201 -0.004777111307661737 -0.0006405814225204275 -0.009273975562043745 -0.0203915831287615 -0.0006791568375645004 
0.006957176622781217 -0.001396445157297807 0.0004029533994527738 0.006166697314889511 -0.004504941767510738 -0.004680887065602553 4.778611642807842e-06 -0.001965887105934739 0.004166279123974027 -0.0004783588450362871 
-0.002076509048008795 -0.00286147689951628 0.007071817725297031 -0.003073409802116713 0.001107645514427211 -0.003801164891881076 0.008409809161421495 0.001517478219029032 0.001390356192587131 -0.0004982062838170158 
-0.00645648886260027 -0.002179355470901471 -0.003372538219960643 0.004865624068599043 0.0004232464163921287 0.0007116221522490679 0.008540344015990523 0.0005085751916711021 -0.002973858123415895 -0.005148872510194455 
0.0036617848033761 0.004787704788142474 -0.003287248145191956 -0.004165821534283621 -0.007060431735095498 0.005611541583666309 0.00344406019555829 -0.001516882017244847 -0.009904613858029463 -0.009135683970450722 
-0.007208227638666994 -0.002426061945130211 0.009195282452230712 0.003459603798858241 0.001735550584652064 -0.00419912416137946 -0.01026232685221426 -0.0001491952788565458 -0.00615529691215846 0.004259698934722074 
-0.003020443369608664 -0.01186272130427507 0.002529310493277814 0.001489436771127016 -0.002096003896544239 -0.001013979473847423 0.000156800531967948 0.0003117049728617368 -0.001815685482786247 0.008331633466831417 
0.005243011842322694 -0.005097612696154114 -0.003028624564587719 0.004302230034554677 -0.003960170848667107 0.0005238183107918053 -0.00206672245701998 -0.001890314999148227 0.003375853631768773 0.003778947427001689 
-0.00477117999841857 -0.002648236945439163 0.002024665508914865 -0.003684648802097179 0.00654288362988941 -0.0006705896569529233 -0.0003468128669408534 0.001444419536644502 -0.006812803763226892 0.001223882878726565 
0.00184404655048668 -0.003844476445780487 0.003691649156984673 0.006814520903384458 -0.01115689680622194 5.509196547733437e-05 -0.01212833381158183 0.001545098732091452 0.006989524630079999 -0.004123567848174589 
-0.00441418451746273 -0.009917317369344682 0.006285012777316698 -0.00197168363661195 -0.009874601077966434 -0.0009768951607419176 0.001141372444134261 0.005145725343128711 0.0008046899404660361 6.644006850779299e-05 
-0.01026002875061049 -0.009289905533881794 0.007922547280423452 0.00308062874036743 0.0002994990994425425 0.003355058803474316 0.001814353279049859 -0.001696843099324841 0.003813313462021709 -0.007712291417026445 
-0.01015163979000533 -0.001647970962001659 -0.001253542320298586 -0.007518378815445038 0.002229291435303234 -0.00404911787730531 -0.01321557119834357 0.01202240408939168 0.02044311896937391 -0.01058419956380489 
-0.001162182654787837 0.01302962261049469 -0.01514120261146117 -0.007030994578794384 -0.005291723868405292 0.003675011761560817 -0.01383361482155986 -0.007436297696764021 0.01798973563537892 -0.008245424156697522 
0.005379798355493427 -0.008104858067023657 0.01812010952891108 -0.00889328758808147 0.008101014275586385 0.00294845210295446 -0.008561784238107325 -0.002269527152404661 -0.01860476536655995 -0.001103014790261194 
-0.00297938033308936 -0.00622970506447223 0.005717318993244574 0.003262775901228714 0.006422746966788916 0.001810157529875356 -0.006730649445434607 -0.0007101239601873191 -0.005015761462742566 0.005535551715647978 
0.01157977372035717 -0.007676726031300529 0.003504282580934067 0.008954703569476334 -0.001491467791176477 0.001691124378673399 -0.007906237368932131 -0.003678278016640686 -0.00259964621007889 -0.006437660312267375 
0.005137359019370958 -0.01136632891785458 -0.005512017896363172 0.0005973548234453495 -0.009218794981014508 -0.01365701437795083 0.009189283521155426 -0.009042342073806425 -0.006336487865629227 0.01282919185477212 
0.0001246509407371114 -0.003436737662637066 -0.00100749924199119 0.00203868697282823 -0.01025168679334758 -0.0005850806533971634 0.004170814439350592 -0.00299136030933548 0.005131008496535094 0.008247993194937251 
0.006970878231647228 -0.009791256229780386 -0.007038723234714303 -0.002571299541102609 -0.004121950975153204 0.002785707662706152 0.004658912924586675 0.005714039536913382 6.361163479794362e-05 -0.004521623895365577 
-0.006797553857145601 0.006362926102167625 -0.01481114207608685 0.00451730706692979 0.007975300246853822 0.004227000819954647 -0.001340249142072907 0.00161027422499731 -0.0007327792291863296 -0.01017890099631122 
0.0008335852682004453 0.01744785385803069 -0.01361083823320728 -0.007829308254016976 -0.0003232716329925423 0.01132133096551552 0.000163253061447312 0.00227716779241482 -0.0141050815278648 -0.01611989071966548 
0.001631372575095865 0.001280973108514301 0.0009288328725616758 0.004630145666399607 0.003723973472512414 -0.005399597277540033 -0.005022885258431626 -0.00541443447883427 -0.005391312001233069 -0.004858621959980139 
-0.006489645245840282 -0.003790526084293622 0.004391645420051302 2.092366394224331e-05 0.0004210801931470359 -0.002899788662335332 -0.001251074888613688 -0.000185338345228939 -0.007414241599923863 0.01879111537070381 
-0.003452918794655815 -0.005821861270872299 -0.001449765420061535 0.009376981219842595 -0.006475100422903304 -0.0004785514784630605 -0.01135101751283298 -0.001684276333490147 0.008269911384865148 -0.004884688034370368 
-0.0003598523204832394 -0.007750486062600851 0.00169048011466936 -0.006207864057594747 -0.002529860795891317 0.004754569940405827 0.0008086924900100682 0.001876020256572417 -0.005301142392660763 0.01008600322526894 
-0.01281573746194373 -0.004277661925869741 -0.001450885250841994 0.0001009797924255573 0.02375127337180525 -0.006477172200210943 0.003578359376934235 -0.003542062644294379 -0.001840166536939029 -0.007663757993348523 
-0.0003584629137299875 -0.005983869496648702 0.009302017832495048 -0.003690453017199277 -0.009439505816633909 0.001743880935707158 0.001670810381577522 0.001351102136958338 -0.007922789502368997 0.004035281518912809 
0.002576933124366153 -0.0031273895295859 0.001387068649520299 7.481057186393889e-05 0.01216998915915608 0.002132841821700801 -0.007100028963849895 -0.008363600589222718 -0.004534501910455411 -0.007339882203231914 
0.001122705864727268 0.005715926076436703 -0.01502342220418732 -0.0009734358870526086 -0.006769338507412761 -0.004524302592616117 -0.01334357308147637 -0.002328439073159987 0.02436098744817082 -0.01471686101345308 
0.0007561353283103988 0.0121382519859933 -0.01233401680623097 -0.008952515451100308 -0.003928805108519796 -0.00152746561036222 -0.01183387697146918 -0.002268512756901455 0.01585547371199016 -0.005350038261486337 
0.007686625698930769 -0.001104547581976091 0.006249809685132968 -0.006078373212897017 0.008987397101970211 -0.002321571255829068 -0.00958098639496024 -0.002030355359921969 -0.004534085215225639 0.008125819873350136 
-0.007586533245098815 0.007292910314774744 0.004689399350795467 0.002627942689470647 0.003073058356326898 -0.004097348628045045 -0.004313261484239913 -0.0004748544809390873 0.002001059120008055 -0.0008810248325774081 
-0.006043640577422201 -0.002508617772634959 0.01783704359029109 0.005693233930194863 0.005700312042627534 -0.003957184375485012 -0.01190682076038353 -0.003010783242452061 -0.002613059712518387 -0.00139440954220857 
-0.01247708326420592 -0.005112506228971601 0.001530567091011459 0.006560337918286817 -0.01235698058324016 0.001237031837320167 0.001750476097196487 0.005519363758903147 -0.006693509419290647 0.0009630443916650854 
-0.007252936538914275 -0.002069811114138957 0.002402441733893307 0.008565121594238126 0.004143377761976357 -0.004046049464794038 0.005791521733558493 -0.001475077439154631 -0.000640697098323758 0.001899433103394618 
-0.003223680853078461 -0.00513379268613408 0.002452525084002036 -0.00528382037320194 0.002461447916646834 0.002215499751204723 0.001752136000952713 0.001004664153975357 -0.007767954883209436 0.003592692915683944 
-0.00183827348228895 0.002941655309916056 -0.01221618606996835 0.003810960283313118 0.008256608673456452 0.007939208957015258 -0.003928599203920778 -0.002785055830409039 -0.01079398231390686 -0.004250034246656388 
0.01390545538377215 0.007016245525441825 -0.006972989717181489 -0.009791854986864358 0.002611904649109364 0.003162880765014589 -0.004604854244583642 -0.003155500030975546 -0.01133903986959973 -0.01694534164736166 
0.01152007180581203 0.003604047603471644 -0.0001414369367185004 0.0003322978307531699 0.003894632381979745 -0.00897335937554463 -0.006842738684737185 -0.003958629066317913 -0.002562928974824175 0.0002406154497645897 
0.006730936256011827 -0.008905759352103113 0.004793839158917186 -0.002398166525711859 0.009701242192370488 -0.0006585020641978273 -0.007217205485176808 -0.005016429448922935 -0.006450302678811826 0.00480408042551299 
0.00220836054544973 0.003415154614104642 0.0002854900737325423 0.001838074913417508 0.01447785878934474 -0.0009404471019582527 -0.007676971222030773 -0.00842486718582644 -0.004286251923787511 -0.005251960306426558 
0.004722349643056179 -0.004709295621003719 0.009862644299059843 -0.002556818118052554 -0.0002322799264447686 -0.001668366892049002 -0.002129644455203506 -0.007687093077504949 -0.001983926247080348 0.003770553182681655 
-0.008507790733069457 -0.007452298416145592 -0.001334536145347305 0.005585045358197209 0.02009499428912021 -0.007417471154348783 -0.004892039218353478 -0.003479500308080166 -0.00404473172757386 -0.004375618636576543 
-0.003718972992839124 -0.01153049922441571 0.00271676875071836 0.0001744696576402638 0.00204201654482727 -0.00680436794118923 0.0126301093594689 0.003207684177060185 -0.004038769749660293 0.002753672398750001 
-0.001797423701097207 0.01093721328299567 -0.01003482468730888 -6.719307628258494e-05 0.008415036694878843 0.004557443972061097 -0.003337495588414739 -0.005082303408739259 -0.007700374207599715 -0.002784344691432898 
0.006868730760891155 0.006575140454754146 -0.006505683943552337 -0.01718211937572919 -0.02211925226869497 -0.005943923590546923 -0.01143872602109085 0.007492774656714452 0.02265719661004345 -0.003463650694132209 
-0.005740508106095409 0.02286500338603533 -0.004097944641985801 -0.003001484358247365 -0.01042554882208997 -0.004876312419690733 -0.009222696074576004 0.0008601879026365815 0.0160538353617543 -0.008073148069438239 
-0.00307921019280594 0.006192395369936228 0.01508342148962102 -0.001912904635690845 0.003537203152012585 -1.051465373579801e-05 -0.004444620525116058 -0.0004133351193039317 -0.01036025615065946 0.003139145047312385 
-0.007125758032811597 -0.005166208088358137 0.01332750028304542 0.005614739362803721 0.01046603653743908 -0.002382821301720857 -0.0078021500642574 -0.006623725787555053 -0.002953424813944345 -0.004172005830928171 
-0.01160479942662761 -0.003324032913223508 -0.007582821110590952 0.006909847795365642 0.03252886922946635 -0.004795124165809693 -0.01026325943824855 -0.003694814238667151 -0.007950783578511842 -0.004922126680235726 
0.01109369988635004 -0.02057245000500491 0.01244930689583624 0.002621891053090444 -0.0003529222500118999 -0.00565237069906104 -0.008310814522196848 -0.001144096669391403 -0.01128781550163896 -0.010516212291612 
0.007509543307177976 -0.003881678437204865 -0.001533079654666068 0.005398847148708385 0.02058699317921198 -0.008650101217329663 -0.003544304398089093 -0.003571626838396737 -0.003874764537973002 -0.006403263786894319 
0.01069105294152243 -0.00108839739902663 -0.001198851944517952 -0.003981355280215906 0.007188375027388353 -0.002291910539349778 -0.003335884495719699 -0.002140029178939181 -0.009761605285040238 0.004592160776687396 
0.006583775066993124 0.005166574350380901 -0.00637529898580855 -0.0006114537667438475 0.003496778970145132 0.009938539655285092 -0.00379033417174693 -0.01421766116075802 -0.005444027575483117 -0.007220583459875931 
-0.006351989744612454 0.007410055850268219 -0.001158136290236416 -0.002018901123007235 -0.00334458415710944 0.002020499026962193 0.006857873142523325 -0.005166070311324237 -0.009864021775308211 0.002188026019459357 
0.008035318475625702 0.003152457004484291 -0.009167976718034496 0.006723674921863288 0.008894393552859961 -0.006861997229446584 -0.002219728098243641 -0.0110329485280594 -0.004025755715309381 0.002861577612061433 
-0.01042032894424605 -0.006180266019420079 -0.003896512228028177 0.007450919694541609 0.005118866801125331 0.00588321000920215 -0.00130791516284519 -0.003139025647718291 -0.003006160645989936 0.004707572334651888 
-0.007181031158426853 -0.008468296896267272 -0.007322372270416417 0.00553917248294159 0.02330113435081853 -0.000508510401184063 -0.00678630967008653 -0.006823606596461088 -0.003924015305988029 -0.006989569169316455 
-0.006764683209629782 -0.003889863698801276 -0.003416824873369617 -0.00248305496419381 0.0002333347186138371 -0.003845507090889432 0.01226101259165624 -0.0002561474670701686 -0.0006943969144547411 0.002623128529881416 
-0.003892299520645203 -0.001947874000485467 -0.007249176002100323 0.002524056991676672 0.007487612911533917 6.545271951538553e-05 0.01022411023565906 0.0002365213484958781 -0.002532248392524709 -0.0107202111927115 
-0.004704348503055952 -0.01085515963133238 0.003557239513187615 0.00214211507148708 0.005706732672093291 -0.004050796903341853 0.01472704463915246 -0.00176762037897188 -0.01337126619459566 -0.006703314733121469 
-0.001168681967612717 0.0001932588259858607 0.001450825095475891 -0.002899833534791007 0.003105257421329019 0.003327413041819022 0.001468999612543112 -0.0046839440391609 -0.008820667548508842 -0.0005902110715201114 
-0.002533973501354819 0.01386106516251466 -0.003967740200242063 -0.008917203070338317 0.002712228590067278 0.0005785399734219741 -0.01628020578178134 0.005719775755294293 0.01600247912566917 -0.03466925549923483 
-0.0101597728714532 0.005474337940085817 -0.008504716763777297 -0.0002495291987093241 -0.002229275287284704 -0.0001594032222528424 -0.01089289178424822 0.006068515884941725 0.01202532992858176 -0.008245081273272753 
-0.01050113351794481 0.001915165226452244 0.002655496801468205 -0.001410563939779417 0.005184002197863599 0.007636529289550208 -0.003843166391813726 0.003724274627169487 -0.004872584920867663 -0.00379880998749894 
-0.005724006136253369 -0.004012033710244018 0.004904092185718798 0.003476214953360045 -0.005059130573900296 0.003286174747178136 -0.0005463430834369946 -0.001121708662151536 0.002932001154659401 -0.003093336661336052 
0.006235286210599067 0.003346990301978293 -0.006215592946976583 0.004745423717168939 -0.009806765642402718 0.002096525199975848 -0.00818507084588716 0.0008117945878550698 0.00772036637929823 -0.003270899510381063 
0.01383867054795255 -0.01854726211611024 0.006985839051126506 -0.001129897132855974 -0.01959443482752776 -0.01305674691550321 -0.005241204698626757 0.002290313888670004 -0.01000726084283796 0.02001960144113414 
0.007716725334903455 0.002047035980184618 0.0005253567723403689 0.003829019697456297 4.532361320929462e-05 -0.009941653696048984 -0.002042682414872956 -0.0008647851365199133 0.0009937808320652048 -0.00374046807040337 
0.005445985737197685 0.01207169819813004 -0.007586943158209726 0.002257114410092976 0.0064216215791084 -0.01137566858283693 0.00561898697079556 -0.003338988010037456 -0.008794560235155196 0.0009597519376330351 
0.003323737284005856 0.01918651369933251 -0.006325778234056156 0.003685199855445479 0.002883516248184442 0.00551955252617016 0.0004898225237669857 -0.01253145897355867 -0.002553522387285572 -0.01974913235824497 
-0.01240947135229841 0.007663496526047386 -0.006627609648176848 -0.002157934885208815 -0.0002032564894800727 0.01236580636480938 -0.01047301354530784 -0.0004757226609873133 -0.005164568489109764 -0.01056178318439199 
0.00117329694982892 -0.006543758633157175 -0.0009972302213395604 0.004966745621143811 -0.0006266337364928688 0.007300939858772866 0.0008841286971972786 -0.006120039122038011 -0.0005537640089806453 -0.0003712858521982913 
-0.002643408646276208 -0.005633447777344633 -0.001596633428816615 0.004451443919680797 -0.0003851488467363586 -0.004426039990022277 -0.005912909879149233 0.004654607878903812 -0.0007540755795751435 0.00400260791955673 
-0.001111697837643882 -0.002928492284027047 -0.001748418924392239 0.009355469493309898 -0.0005855548277644018 -0.007453408929576792 -0.002525459059667723 -0.0001539330271662071 -0.0004726962652068304 -0.007700238314223825 
-0.001932105112886972 -0.005625845667647613 -0.001888379476190034 -0.004980472643650269 0.002216460050339099 -0.002552974787870726 0.01471088540994874 0.005100559938163331 -0.003896514219427577 0.004902848831288268 
0.006463852917830077 -0.004300815235089775 -0.01295802687982335 0.003501195646153604 0.0001409203838890187 -0.003270800419337835 0.008853411128921573 0.004778213778665179 -0.001337388335434964 -0.009584282609828743 
0.01009033601402003 -0.01615301247302172 -0.003617656430593399 -0.003683189090533131 0.003523350862413271 0.005563111009967411 -0.0001340908275772565 0.002096189737425542 -0.004303870500953062 -0.008231695075577946 
0.004633647010948344 -0.002559281563542599 0.000812173682656939 -0.001069525669474833 -0.0005955491260711818 0.002225700936082482 -0.005703245855486211 -0.005134442875584069 -0.00638475652578896 -0.005221479949036485 
0.009666391601193194 -0.01020628913997951 -0.003914193842066854 -0.00759634580534831 -0.009704843462068421 -0.002311234061235563 -0.01107616734136916 0.00666176248707913 0.01766093754004581 -0.01419847030601413 
-0.009361984376208022 -0.00880472488416479 -0.004632949812376741 -0.006554199140420355 0.0004943536667050234 -0.0006803980526411621 -0.006108045979577381 0.002958855149895094 0.02390174718888027 -0.00134102912795722 
-0.002721175168687705 -0.007232298675795298 -0.004167391420038723 -0.004161289433738259 0.005057273625012692 0.0007254968566963973 0.002330301129217059 0.002480588633337055 0.001404446154727562 0.00581179925837607 
-0.01136907616338247 -0.007061995798409144 -0.001433925458277916 0.004951951661759662 -0.003555996216873822 0.008524392648588737 -0.01132947797567098 -0.0006930551871159755 0.0006692795389516917 0.004574472647616022 
-0.004491874208546912 -0.004697721210911861 -0.006400499464165966 0.008084321851612153 0.0005100280510658752 0.002632461017242648 -0.007130661724448806 -0.002663530338763125 0.001509794207915606 0.006425362924481356 
-0.001753612059208821 0.01057076232290503 -0.004392678726014928 0.0005875971304596382 -0.002223053404946813 -0.006058859960262931 -0.01147252746892436 -0.004589550841157078 -0.02144574825676837 -0.008137202377851918 
0.001318311328918302 -0.004473368597003379 0.006930967581931783 0.008181807295553052 -0.007811942288437634 -0.007327277998301107 -0.0005263106624283888 -0.003306924384051929 -0.00254133165219372 0.002383094345962911 
0.02104427451772363 0.01577186507119079 -0.008673174403315774 0.003229013315908692 -0.003490261955018576 -0.009892758584405286 0.003212934270344008 -0.004035940196470919 -0.005734204488128122 -0.002798218227359179 
0.00830594038146457 0.006232945434684797 -0.004274688407756555 0.004510853107623412 -0.002456227596640671 0.01231477070108421 -0.004716174038848023 -0.00386962291335954 -0.00734001824222 -0.01093153565956188 
-0.005992846474473916 0.003606345533498443 0.002977436330061158 0.001566631162694641 0.01249756736939068 0.004187514755895449 -0.007089173616672755 -0.002296202176770086 -0.01055960604499992 -0.004599038512993515 
-0.005969345555903972 -0.0085539569768915 0.002825269881103824 0.004896800383373877 -0.00598594961373316 0.005064082631708245 -0.005054066672856994 -0.00288620324953714 0.005683655342034075 0.003337674054399103 
-0.007415476352274099 -0.01416105734399414 -0.006887797683421167 0.001994241144219549 0.0002765457923431119 -0.001256436136276279 0.005913757393577351 0.004947325409190819 -0.0005386690891020844 0.009398418925672518 
0.007204110436430392 -0.007610317124790619 -0.00908029811778129 0.006833415554886081 -0.006964704458494455 -0.001948198209201132 -0.0006136118185582311 0.001891843892611325 0.0008404212594568611 0.001919328827356678 
-0.004619136016768114 -0.00523346002752431 -0.0009170275273941547 -0.006602917578843565 0.003565117176818763 -0.003828556787321233 0.009902306455876383 0.002152597337599635 -0.007036105016868911 0.01094279376197131 
0.004533777426847241 -0.003735812884110376 -0.003816407992301249 -4.507264478419338e-05 -0.004653414770087852 0.002380005168059751 -0.002752827687651438 -0.004839993155445426 0.002559631898767342 0.009591189174237399 
0.01562035408046964 -0.01264498896729398 -0.01243750148706584 -0.004788853774944587 0.001911584085257906 0.0004839988357075136 -0.0009655014282066236 -0.01000125762688842 0.008381908515029741 -0.0005677600202360558 
0.007244136547608702 -0.01542831509652528 -0.01177138630028458 0.001074703472205227 -0.008207646641491149 0.003593896854910409 -0.0009043524696724619 -0.002648919364206316 -0.0001993547948642614 -0.008059204559767413 
0.004718251815263358 -0.01082361356468651 -0.001922083308050981 -0.006683468325535259 0.001735053775703135 -0.008438784082682714 -0.009210131223289258 0.006714136446068904 0.02136967171826858 -0.02144805274335463 
-0.005436737711276772 -0.003607960624281975 0.00192952183327264 0.002126750173551626 -0.01006011895673467 -0.00364185298001029 -0.003045811936409397 0.002006327247123065 0.01587663305531319 -0.007916893256563483 
-0.005444544798012331 -0.01003319590347914 0.004055157514883764 0.000909543854795967 -0.000905261134903083 0.001205043213993122 0.006092420796550283 -0.001901294641505256 0.001237417674142322 -1.374947044342959e-05 
-0.01295593239346264 -0.003559630432113385 -0.0005050436260593363 0.005257697046682943 -0.001755408885829018 0.0002646484146471678 0.001875837733827245 -0.004954374980223491 0.00609804669060247 0.003370105083028337 
-0.005790798006274731 -0.00643047447789901 -0.0005356954717693335 0.007586979788868097 -0.003480341982292763 0.002642504229998805 4.786322000389434e-05 -0.002137802678693708 0.003922822258696008 -0.001207632556862528 
-0.005304669768336691 0.01831053913157186 0.01253384551499813 -0.004620832090305779 -0.007405776193973984 0.004039072129084114 -0.01163407496091673 -0.003601444221207028 -0.02979523867960132 -0.01301077391219093 
-0.008394583890726122 -0.01041641716511711 0.008468835160544546 0.01121628934381613 -0.002446058249905812 -0.000170338111545272 -0.01100053356055491 -0.00153976055946744 0.0009914738381794047 0.004401317899746759 
0.006015884567170704 -0.01117466009613447 -0.00368118717048045 0.005157189376959675 -0.003205245334880087 -0.001094602895043262 -0.005786010059430704 0.004748570554238525 -0.001131712850351294 0.01054526150689997 
-0.002295949424360135 0.00247406794961693 -0.0008473330060797399 0.005151464395990563 -0.004087233956499041 0.003827896885740129 -0.0005509956417432428 0.00319624966515792 -0.003080009141511109 -0.00897954637745981 
0.002679377540024782 -0.007232089652298169 -0.0114364318834286 0.000621600618417533 -0.003550107878909364 0.003456200588787322 -0.0061161332772643 0.01488345415713229 -0.01417272788511403 0.006516065989180146 
0.005387865837427284 -0.006546056489629491 -0.001582861788989295 0.001967120145016535 -0.009221148263792688 -0.004731541763238365 0.007319459253554345 -0.003617437154616021 0.004492062192133813 0.001651047844474851 
-0.0001949861940887375 -0.006311231192568526 -0.01026744651715942 0.0009845480154599623 0.01233007470150243 -0.00850364433087512 0.009961237135818183 -0.002328417466163285 -0.001057874383631735 0.009356677413311525 
0.00162717106887997 -0.005721985283293989 1.795540328916847e-05 0.005869270981996828 0.0009780743755780212 -0.005513444874519809 -0.001043547706134355 -0.007621024439149902 0.007018306536602337 0.006292363768093879 
-0.008894981720951042 0.00333897454989274 -0.006098873405162268 -0.009232089441853424 0.005368662443229544 0.004542536395765046 0.01015273435300795 -0.0002757513930234947 -0.004782137671029586 0.01544279533032752 
-0.007376912580872503 -0.01273529826432642 0.007117724762094086 0.007026875297429753 -8.720483358214607e-05 0.006309577511205238 -3.120289085892796e-05 -0.002177353770214101 0.001551508554341986 -0.01207293977841525 
-0.00170982759677069 -0.0002762193268357592 0.01081340638835472 0.0002798147147883652 -0.008237087706730591 -0.001486753699365082 0.004570252773324448 -0.005767188646193268 0.003685760027423031 0.0007579513150522452 
-0.008241810643507373 -0.005049008908390562 0.002686549295079844 0.005280790523589914 -0.0003981221112430382 -0.000151103750453105 1.34968161399746e-05 0.00139023700474073 0.004797540814820282 0.002227102909490577 
-0.01354302292592527 0.01066464964803576 0.005843538472309372 -0.003627388122297959 -0.01416059552633781 0.00136499882713733 0.001170166550711898 0.01879121634996069 -0.008381351855637183 0.001442110533983272 
0.001818454586932509 -0.004368853688527647 -0.005557236384472778 0.008550770747998869 -0.005383019464023264 0.00515045911512143 0.003248274068380775 -0.005124720588605596 0.0008019308223609167 -0.003671673686420011 
0.01183069673689846 -0.004973091981423782 -0.000429639402066117 -0.005110169750629198 -0.00138776716769433 -0.000629617761372493 -0.009191347488970106 -0.003537646325465264 0.0001186082276966089 0.004727813785469495 
0.008406823071589645 -0.005747561607638341 0.002706481808745343 -0.003027398136951467 0.009819129533756498 0.005706832377407446 -0.007220314275921885 -0.0106924929253698 -0.007100085711223908 0.0003444312581747299 
-0.01040843147082159 -0.01173071554359086 0.002098399759529013 -0.001961037654887289 -0.01308956422174961 0.001386899176871882 -0.01530071725471343 -0.007694972408933985 0.04679538121262727 -0.005239052761175156 
0.01104719704972115 -0.001272580116596396 -0.0003810771533274532 -0.009488609146137568 -0.007902783664221549 0.003084879440336775 -0.006740325880245412 -0.01310107227647952 -0.002965409531246639 -0.007951484300628215 
0.0009538898132261072 -0.006173854110948827 0.006168641044528234 0.006154049143512428 -0.0001008063674264955 -0.0005123854018366357 -0.004923446516047801 -0.003629594220675391 0.007592145725341339 -0.0009988930194507124 
0.003817962551357745 0.0007016827058258766 -0.002372871029505509 0.0009986510056137472 0.005036580270884161 -0.002084595250649699 0.0009479094241523897 -0.002590163215794005 0.003622837481955598 -0.005196122757053704 
-0.009010009411079586 0.0009159232544126507 -0.001729930805403832 0.008351890739384695 0.006280699506599989 -0.004474629460066519 0.005046320624751743 -0.0004677211081723012 -2.676226126272361e-05 -0.008269714155951806 
-0.007304823671522884 -0.006983273561453366 -0.004468853942547292 0.006282721186071621 0.001547337359998298 -0.007288076284919917 0.003543518903014842 -0.001890629339608323 -0.001181798124218792 0.00846467157491264 
-0.003586901168745781 0.004409090742618763 -6.356613985885317e-05 0.0044029145408829 0.0001767597443077241 -0.003790007667714906 -0.007120129703050751 -0.002045803663488051 0.001847051237049224 0.002176749809344504 
-0.0001559692595085005 -0.005082347769954556 -0.0009949600030000243 -0.001694638911329078 -0.004577864106231028 -0.003231997907162571 0.0004307677109095487 0.001618735968480853 0.002717654092016382 0.0006556599924449175 
-0.006848575147924743 -0.004560362916243757 -0.0002852492317249021 0.005080128210846727 -0.001781416651909615 0.0003695961934123771 0.002609193554838754 -0.00280600670528265 0.002761589646253957 0.001116558390944758 
0.0008630682320541499 -0.001525596011455273 0.000449136385812587 -0.004778360245654749 0.003407237526382299 0.009876796860866611 0.001107733651635179 0.0007664121983143863 -0.009459763290389755 -0.004344594726081659 
-0.003212282802030388 -0.005631985402566536 0.007417031733889271 0.008179805165759498 -0.002422207028636913 0.002461146622297222 -0.004264934979632441 -0.007565547840128039 0.006052893815707313 -0.009346059881566143 
-0.006729255280912037 -0.001828592516342073 0.002835859617351315 0.006047091432826225 -0.01145489323343712 0.003454295736765868 -0.004445716997388415 0.0058180829322327 0.003550208097870011 -0.003787666003088906 
-0.008402478697345448 -0.002498202509161572 0.00229320701805807 0.002179514068354578 0.0007040749197282954 0.005872760984817219 -0.004446659801999221 0.002640356289160351 0.001412256206166287 0.002137744466689748 
-0.01256061464284312 -0.0006234775591217171 0.009965128510310837 0.001604474834469704 -0.01180443202102728 0.00102895188201495 -0.003614786949136476 0.01152731339216945 0.000525782698078739 -0.002995642676425781 
0.006782226542878391 0.0007613807621072694 0.006292317513088833 0.002231202230873319 -0.004501494169580627 0.001963862366459756 -0.006581788085202651 -0.006297136955387728 -0.006726150398276559 0.004047025376502148 
-0.003240587557458225 0.005952018061848014 -0.003226811571940168 -0.007581831537621563 -0.003346400175121139 0.002064193048834069 0.009030526872816707 -0.003878036744349168 -0.003846181685465762 -0.003295096957672126 
-0.005371537194590362 0.01177789678587678 0.001347692772916543 -0.001378139372834885 -0.005164013218253271 0.002591269467116573 -0.0001706849512685864 -0.0008167075646665869 0.004210186735916397 -0.006924798691727665 
0.01167276870445475 0.000684384312609189 -0.0002299867842515457 -0.0009801812402128467 -0.009049012404190052 0.0007253539829493766 -0.0004677010594106913 -0.005053266702551972 0.007100317341372618 -0.002556703920426348 
0.01153944380130518 -0.00125735308702711 -0.008297869431220278 -0.008697292616727874 -0.007307260466352114 0.002940123360330033 -0.00605364340089583 -0.01057517409032551 -0.008185345569885075 -0.0003735185786695266 
-0.009780306426784799 -0.002865099935137009 0.001940179556420118 0.003926891936537263 0.007389349035101838 0.002016882338768784 0.004767115602311844 -0.005912466497166608 0.006687130588904613 -0.007076962888793562 
-0.006426689833999166 -0.005879173730337364 -0.0006768976534343828 -0.002672038142909369 0.0101787150965523 -0.005619896268706719 0.003150088198846601 0.0004473441792982008 0.007742306857416335 -0.002531100992388983 
-0.0119364707665201 0.00130476874984142 0.00577716891550155 0.001527742091027726 -0.001499382941237441 0.002145639938757675 0.0014215301383698 -0.001285542721590565 0.006831246025117891 -0.005630300949312778 
-0.0121977535612305 -0.004867454079263729 0.01328794905225609 -0.004192240784672924 -0.0009300210326681337 -0.00481548250295404 -0.002121844608905347 -0.002842416544562798 -0.001911927046156843 0.005842491567856373 
-0.001170790742699993 0.01485246154819374 -0.001043572053058231 0.007493689789790633 -0.01181243848747804 -0.00308509819459224 -0.004953921277771185 -0.009444609561393352 0.006476960557890524 0.002114315385917323 
0.01469763650717841 -0.0004424734197546334 -0.001787330413414838 -0.001165513546482943 -0.003498572731899646 -0.001549366417703755 -0.01093156593556699 -0.003690467499794178 0.001210306931616044 -0.004407995177882913 
0.01039761097693127 -0.009020166951974088 0.007642263096528099 0.004009793129761039 -0.007450113208706763 0.0001115136535824705 0.001580674757422393 -0.006223183846148361 0.0004571323390969815 -0.008466697734222815 
-0.005789725599008273 -0.01002115433584717 -0.004234195286309268 0.0006012677598277659 0.006712524446124467 -0.001013427501166638 0.003265034046801784 0.004246205308084582 -0.0004488288884253352 0.003391248917251051 
0.00990902223618822 0.006606806088756171 0.001144800560806062 0.004341286321419436 -0.009415549724376493 -0.004735013383405713 -0.010206760891945 0.002947781325194065 0.001062594413363982 -0.01523083938342379 
0.002821119707176465 -0.00825936533349372 0.0007248073051818181 -0.0003805071932259551 -0.004755481067783765 0.006388425599034935 -0.004683279325347059 0.004787148630046699 0.0006775771565119556 -0.005484117109326597 
-0.005041318676995313 0.004551947603277573 0.005139371196472512 0.0002752891974690449 -0.004566510115516807 0.004294192459028155 -0.007954882587379917 -0.001823599683082574 0.001878431369981725 -0.003743831663941988 
-0.01049642998055538 -0.003060990292650226 0.00703544241562458 -0.001353355291235653 -0.004360424046230069 0.003890887765167605 -0.0003484117847206012 0.006989154787516452 0.001329037033344508 -0.008367197213938138 
0.007585710146624771 0.002389045472083997 -0.003316709181820688 -0.0007306767283175243 -0.003642150795035583 0.001130993927417598 -0.0105451584160247 0.001784819857783244 -0.009641834510526595 0.006469338113314341 
9.060768687001773e-05 0.01863045919774437 -0.01770441503943189 -0.005404027268336753 -0.004959307194871686 -0.005515406825370162 0.0007947147885786704 -0.002188543543156808 -0.002217393602496013 0.004894301974070382 
0.005653480178713995 0.01469331027108633 0.003555824493083988 0.0008659560213532794 -0.01100624056542505 -0.005674067019818637 -0.003534454407341771 -0.001450467244990602 -0.0004781972048738909 0.006276804729733602 
0.003940245088404417 -0.000747121125299302 -0.006251809818181807 0.002970498773320813 -0.004937613452317561 0.0003651513660518033 -0.00710376821890392 0.001557101622628695 0.002850485727690433 -0.003722805813245481 
-0.005024184787106676 -0.009041955356537568 -0.003177260205659039 0.001623735367261285 0.008275213486183224 0.0009541986196202333 0.005358253014668835 -0.003202002385026569 -0.007868741962558894 -0.01579923126354821 
-0.004689577062689111 0.004172156772254075 0.0008354407793028373 0.004662921054745647 -0.001169651738360207 -0.001437588985792041 0.003540992911918031 -0.004867529515869427 0.005017810871145431 -0.007799605941105547 
-0.001887179712810824 -0.002485966725048356 0.009458618748905641 0.0004216899704506263 0.002755285798468934 -0.0008696554341565105 0.0004365923661857046 -0.006838337116344532 0.001261889360769669 -0.01021024214316313 
0.001573584619761492 -0.00195514963002594 0.00766351369155261 0.006901190580580151 -0.003431791026993905 -0.006229671339834293 0.0002197497041185328 -0.003338782422747535 -0.001075675604121534 -0.008049841360707752 
0.009988273417552034 -0.009318361838640345 -0.008573213205050677 -0.008240074303179227 -0.00465962716198366 -0.01388674863523717 0.01467902762683482 -0.002509663190081177 -0.01014184808255312 0.01139502548643312 
0.00412011422093676 0.01242352543854222 -0.004535998943803283 -0.003643939680245841 -0.01198107261127654 -0.004399911132562968 0.002529348361462695 -0.00995922017079072 -0.003992118958702687 0.015318153849232 
0.009772310461579552 0.006784912884662569 -0.002153282297577259 -0.002102516272780995 -0.009512068196664024 0.002419262813384122 -0.01186962842308777 -0.008170730109417631 0.0007011511192056876 0.005208525551726298 
0.01639812311999076 0.010884102647889 -0.004020635354028329 -0.0009001272612329738 -0.009574278517002443 0.001355030058717151 -0.007636839750117182 0.0003235956454509246 0.006822908290782341 -0.01160511925708895 
-0.0043197761567663 -0.007995868278569403 -0.001719631438336291 -0.003732298967938647 0.002354397005314931 0.001703770409508729 0.007120644675614659 -0.001647851677838106 -0.002121111533432692 0.00362534036088033 
0.01746417726770468 0.005582265064940589 -0.01101756123793258 -0.002516896192327083 0.02222634867424667 -0.007527751509427821 -0.0007921037731253222 -0.01139074352395897 -0.005431263632939097 -0.009186623002282762 
0.01476540508997968 0.0007661252400977423 0.006333202451017556 -0.004177576917190329 -0.002178436990624394 -0.002531797426858067 -0.001400781902765948 -0.008932121613851372 -0.009153297383406254 -0.01129737538447725 
0.004714222083145368 0.005504893540993093 0.003298726960973329 -0.002150811405614804 -0.005648770893045604 0.002577548745417872 -0.003275879492494093 -0.007080579381557266 0.0006610416012883508 -0.002091633282453801 
0.003301890302593335 0.003084759381568214 -0.003826171830397981 -0.003304843472019543 -0.0223872274339662 -0.004300180777719594 -0.002991258054691671 0.004862800231562156 0.008054020348050077 0.001103343737562182 
0.0009417134968305115 0.01177098561778509 -0.01740804221336987 -0.004372108251190195 -0.003801646710709164 -0.006709833866304924 -0.0002105179164534676 0.002165549808903913 -0.003204780569457207 0.01548295474991956 
-0.007763470210564827 0.001066266187590966 -0.00766261454097942 -0.006631747108029857 -0.002650818502688372 0.00433715616717075 -0.00396282329713495 0.008092267127888854 -0.006249563557770526 0.01414612748303238 
0.002228650266739906 0.007556538216471407 -0.004355403944401973 -0.006803662396809419 -0.0007319070361656589 0.001065369454138707 -0.01128982432017253 0.006200225821290963 0.001081959949257714 -0.001561319233719761 
-0.001379476057328617 0.004994135234014535 -0.001210205440173847 -0.0007990074211470697 0.008814305485534444 -0.0004843776787811722 -0.01649875106972236 0.0006849724669358078 -0.002423013467540911 0.000479217370566626 
-0.01367931746594704 -0.01844957404170253 0.01515659417918822 -0.002220831576563347 0.00179348463768546 -0.00657911637001989 0.01037837420027195 0.002846060893109188 0.006927246333388698 -0.01079803075919824 
0.004937116333303938 0.01239958589923157 0.008170622551231679 0.003153585981544192 0.001848500044052847 -0.007490911767545559 0.001224070923739956 -0.002425559271293656 -0.001623014591423485 -0.01432872604668359 
0.004354431435628362 0.003984128907798016 -0.005295782135778033 -0.001391080278743838 0.006743752397904425 -0.001230820061570323 0.009762643379507857 -0.004429324589571393 -0.0003630673879419781 -0.01794222925363734 
0.01963947379306003 -0.001978031307154617 -0.004141870911970645 0.005288704278441306 0.00694130293642206 -0.008517602999905756 -0.007710391867772603 -0.007029383904433088 -0.005056749245202846 0.003491595528823069 
0.003290335797266228 0.004214542620235758 -0.002223053785704558 0.006546354772141919 -0.001851861262411412 -0.01129689147158166 -0.007213658589225381 -0.01398211239324577 -0.009739538111662236 0.007645876502750611 
0.02035724387195331 0.00684378019372373 -0.00584601744938019 -0.002417935780262639 -0.007636421243378162 -0.000628127301820748 -0.008952695457271679 -0.01223346881261885 -0.008314971944290418 -0.0006810556817673704 
0.001981313038651149 0.003488542907107235 -0.004144168270875564 -0.003000740333118755 -0.00704451519536969 0.01561586351747165 0.006039857609823053 -0.01104752156784908 -0.005592198315567692 -0.007436990564118027 
0.01981786759413789 5.315882771980858e-05 -0.003228801901114564 -0.001594746650637748 0.0174917194057133 -0.004312707277278509 -0.00604406003935031 -0.01130923205316695 0.000386888738097974 -0.01229569271625738 
-0.006332657558399911 -0.005613747958445796 0.003570959221107001 -0.003627290092696446 0.0004906310451922835 0.003773622802420988 0.01124513317008528 -0.002318713145084098 -0.002514102599934429 -0.009386259320494375 
0.005013434435005495 0.007157527385669728 -0.01636931652488651 -0.0006163268603652553 0.02618364469010679 -0.003646544529159937 -0.01140093809315824 -0.01083805076340406 -0.006558435653579867 -0.008799339611624621 
0.001792561515615677 -0.0005132109099820744 -0.003848158207054538 -0.00571571140114195 0.001880202880628837 0.00585017034825074 -0.001151644583102511 0.0008746427692409195 0.001683106689377905 -0.009199730340521572 
0.001892661956422588 -0.004238003242263039 -0.01515263076316876 -0.005313930319562484 0.002757531526362578 -0.0007553642535572744 -0.007915375294330253 0.003610922951536788 0.0001625269689540418 0.006776729296217735 
-0.0002893773166057308 -0.002751066753324694 -0.01681545294585512 0.001086971029805558 -0.009739879643626527 -0.007617135953262654 -0.004871418721833888 -0.005513308002977228 0.004089239045700294 0.007588001230588051 
0.006556122750121396 0.01293286247506492 -0.002999469185001883 -9.776226605505748e-05 0.004508882556425877 -0.005941235438330249 -0.00588991435609615 -0.006933105687949613 -0.001544257843997975 -0.003886868958995387 
-0.002842959751161934 -0.0004166601733632766 0.003908510507919151 -0.002960587730306652 0.003291616591209122 0.007467856579718272 -0.007397573789815185 0.003009049784909959 -0.005654433854321419 -0.003895825378388952 
-0.005171868899761586 0.004349296392637822 0.00470908723879874 -0.00140200536750404 0.01125740064586539 0.001101588809037125 -0.005357429700304091 0.002656579133263713 -0.00583936291752798 -0.009360697189344892 
-0.001741761553088066 0.003703699781769613 -0.00158746214916852 0.002376271682335389 0.03636138201463453 -0.006723911722632952 -0.01064000109956951 -0.002082166289299931 -0.0115143004873918 -0.02250346555573658 
-0.0144073384547424 -0.01407057574042162 0.02633008601737701 0.00292198216177914 0.000338915676893637 -0.0109467416752135 0.001167369748562612 0.003810746903539908 -0.0004955284265769945 -0.008479546303398823 
0.01871794762097051 0.003975979108129911 0.001644340735816411 -0.001165106175728035 0.007655441700929564 -0.005708622976986484 -0.005395299034382045 -0.007444710100717684 -4.453583473418476e-06 -0.01276742401222112 
0.005405867057441316 -0.002320655697237673 -0.003560101090927082 9.004046609541912e-05 -0.005160921334022683 -0.003335001964895347 0.01027173617568167 -0.01045411495072112 -0.003804803488123193 0.004536326084482406 
0.02517439008837241 -0.001872493532167582 -0.01766360075049069 0.003195300109651013 -0.005990665830423725 -0.005977164007084214 -0.005885097517021631 -0.01662485465147702 -0.004630372386512519 0.01353253167693363 
0.007730405680207024 -0.01139793201331057 -0.008043083727708131 9.367701362097688e-05 -0.02375689515557749 0.007060997103337681 0.008372764089930771 -0.001721960175990135 -0.000170178002708467 -0.002533883154066183 
0.0110396072543992 0.009296212057534723 -0.0006522125319490597 -0.005174359830651324 -0.005720538876893084 0.0111901006634925 -0.01097403833733378 -0.009704643407231159 -0.002609165161718495 -0.01074567562756762 
-0.003981643912397919 0.0004536263391470729 -0.0007845486920421853 -0.006839567653766088 0.003819798877512639 0.01544364890855361 0.006393702570803723 -0.008446890952678832 -0.003330971367961305 -0.007016687909458658 
-0.001840213270644407 0.005253731200673322 -0.00452176453646862 0.003771867473894811 0.01795886864131561 -0.006794165031303082 -0.008617434135892135 -0.003423010511238782 -0.005486021247842493 -0.005129578744499565 
-0.003165071808196288 -0.005818251731595979 0.002919253322146831 -0.004113722790916375 -0.003151892221938585 0.002802907254719502 0.009217938074512764 0.000121776963691164 -0.0008346762949964103 0.00572669288234874 
-0.005373162011026004 0.01655158827086748 -0.01484059940389323 0.002730991190472817 -0.004243202707427791 -0.0002746799569360926 0.0141945657990561 0.0046113092763226 -0.0009168869579339175 -0.01515884147013084 
0.005745727468360942 -0.0004403477098534381 -0.01508012486856672 -0.00573770160617437 -0.0001613891790205461 0.001798104057627427 0.003791499858037417 0.003891272554191944 -0.008706906083286713 -0.003285161091009967 
-0.004419919455118239 0.007304011130384296 -0.01444256162818697 -0.004755345552221169 -0.003940788941588125 0.004842638805787188 0.001587100136776312 -0.006872403131254132 0.002971880735480201 -0.006877720338726787 
-0.01615910838907403 0.001211010135284907 -0.01103515572182806 0.0006891743479645154 0.006545405835287954 0.008570403689318207 -0.001761595996678467 -0.004394149074940342 0.006297521011738799 -0.008111368842007033 
0.006512207943452788 0.009231337644085376 -0.002938234025503444 0.00306684795597067 0.004990991459104247 -0.003438100926138976 -0.004883157146417332 -0.0008404304603268376 0.0002000585023500384 -0.01318679712383601 
0.0002370184694895109 0.005163513761106539 0.003774925545454825 -0.0004237114207609526 0.0004348412846471737 -0.003508245775327844 -0.0008170749210449507 0.001280862019839421 -0.0002963284618058513 -0.008708238499305729 
0.006343802651033171 0.005623000448283483 0.001891604055397255 0.003119881618804009 -0.008816632985791453 -0.003379063908704794 -0.005472094434651052 0.00315086433905454 0.006053538087590488 -0.007994347455412167 
0.008258332077557882 0.005235408940288366 -0.009059791327010241 0.002961277263787149 -0.006608133029976239 -8.722074360145441e-05 -0.004561034248954374 0.001224020947028052 0.007132693025126816 -0.0149802670713829 
-0.00775951189764207 -0.01949147887362342 0.002241278161081266 -0.001356305372425515 0.005956398829082598 -0.002758688111183676 -0.00923102945900121 0.002050177816584689 0.003721781684656429 0.000585420507924443 
0.007136134937572604 0.0004164655502377661 -0.008024984367464651 0.0006059722010960503 -0.0121695293382718 -0.003469874819684111 0.005156319617791421 6.262713155249339e-05 0.0006630015001155383 -0.002040213054573318 
-0.004380395507206352 0.009320738521720924 -0.005437496815437558 -0.003918599359361086 -0.0146606825001626 -0.002266039125034832 0.00790515535223122 -0.004597124877845077 -0.0158872376344074 0.01929136649474945 
0.01456933209322804 0.004567640181697258 -0.003440789185028676 -0.002658783131014194 -0.02235819177426656 0.008135605276679246 -0.004305640052033136 -0.004812667796112473 -0.01169717138502366 0.004704806077096439 
0.0002165596753650102 -0.01166537772069946 0.008505711368765535 0.0003455930875946377 -0.007327638908555481 0.009578108220980694 -0.007653510119379782 -0.006200188778874962 -0.011229814602771 -0.006641088597204651 
0.006911186562345479 0.00443701804915506 0.001326768135298139 0.0003531937255981436 -0.01477873839165514 0.01198010849676035 -0.003182764679975655 -0.004629835122082196 -0.005202445131957705 -0.01494878238161475 
-9.31476948754774e-05 -0.007413717666575571 0.01410373424931008 0.003099409985233752 -0.002287726297194175 0.01136027677658214 0.00425019879871806 -0.005433978669409599 -0.006364727745333166 -0.01545057287437222 
-0.003975875556006456 0.01070213421338827 -0.0007752837302135857 0.008381517139834808 0.002727956289513377 -0.003327242968935171 -0.002040646387686978 0.003494899990796156 -0.002674718746986294 -0.02059324199301851 
-0.002978682842959822 -0.01239049045378825 0.002800501268762992 -0.002090353221641726 -0.002035239668465959 0.00122868384421331 0.007303004585301026 0.002249882543913171 -0.00253720020740194 0.0007553695468569452 
-0.001565895362716174 0.001166139340135091 -0.006408582862690767 0.003540539800346222 -0.004310301244236489 -0.009066319226895493 -0.004188197522886309 0.0153507508850481 0.007886026283872428 -0.00330833273676314 
-0.004957262057088851 0.006469425627801932 -0.006282429002586389 -0.002508010742175849 0.0116845482962155 -0.0050651899515155 -0.007014441051965103 0.00655347728626258 -0.009366964629913106 -0.0008427555680443519 
-0.003205827797941378 0.01318581222933441 -0.002155830124835619 -0.003728624029530583 -0.00587444995305044 -0.0003824179645733804 -0.00681227040597695 -0.004004145596027549 -0.001121776425332948 -0.008254068778761239 
-0.01295661641898652 0.0007354098097297479 -0.003941722263997802 0.002482364975331253 0.003738205262361561 0.0022068133495155 0.001354088122347583 -0.004744793324005613 0.003610885465575525 -0.005030616120758238 
-0.004097302703510729 0.01343844980898892 0.01085528703847207 0.004820567970082668 -0.006416723125864725 -0.004629529737968308 -0.001510451042232787 0.007631537829003921 0.005547427242707938 -0.006221377218487457 
0.008747713101172477 -0.0007594164060679648 0.003634440619443479 -0.002948509359658381 0.006356056307084882 0.00153241311009519 0.001236982011419685 -0.0007587523782643176 -0.007421545805767163 -0.003064869930811474 
0.009116885401486216 -0.001969440529290036 0.001391181084021347 -0.001455119193508508 -0.005472018219694755 0.01168169014346482 -0.006521128794457784 -0.00309577048080686 0.002683084062771882 -0.01158037884869921 
0.003337015364650923 0.007689835894614013 -4.894472338191243e-05 0.007352376471714331 -0.002553296285253246 -0.0001878598215214423 -0.00697451029342102 -0.005860364421473275 0.003987773985678278 -0.004728000234711502 
0.01249202002534665 -0.006191986775032159 -0.007579037209266211 0.003348619714125524 -0.007582241954145619 -0.002166072851040821 -0.004591641812014124 -0.001966839847418706 -0.009520471599903841 0.008466694358833578 
0.01418531718272338 0.004260585900058729 -0.004783501750472811 0.003631020501011298 -0.006763856162431045 -0.00357233277592388 0.00183993993840924 -0.004362466918263534 0.004377670268309308 -0.01188942977804566 
0.01278482948172548 0.01624267116502503 -0.008005872481293159 -0.003044646430424388 -0.0173483846763176 -0.001784707404560325 -0.01150845814199619 -0.01089660177426665 0.00680421546556118 0.002579699968364994 
0.003723472650174848 -0.009177745479272366 -0.0009908571423723361 0.005272328627747497 -0.01996279635301933 0.007997659518363225 -0.008527144937911275 -0.005778897227038426 0.0008919242934639025 0.003003708582457462 
-0.006009456207660923 -0.01086097398392132 -0.001099132256222209 -0.006193284293769702 0.008406525819856271 0.006372937062280416 0.00754924633359179 -0.005890951244577771 -0.007847262416402835 -0.01467138925258135 
0.003070820973185007 0.001362983220410676 0.006980414001640751 0.002719151300582471 -0.007151921252582401 -0.004542973151805227 -0.000104557831989003 -0.0005584462644509502 -0.001193470613837994 -0.007252194604966048 
0.0005111805926423666 -0.007104622252960507 0.0008930486938475648 0.0002827827030053919 -0.006415710997101013 -0.00244473037845132 0.01648281308522178 -0.009010766069546417 -0.00327385742820823 0.006472710398257998 
-0.0002479272803084779 0.003019506185704023 0.0004316644600048129 0.006908045613023333 -0.003206119214391374 -0.007284544126911572 -0.005747660695222058 -0.0006623163469528375 0.005798846717366791 0.001645061093016357 
0.004211589129535851 -0.009390720112471695 -0.008980548520402606 -0.002325461654309401 0.008746689247415758 0.001939326708687792 0.01052345647215422 -0.001104537411585881 -0.01135634916311213 0.01026687292165819 
0.005500186972267516 -0.002226190432777235 0.004359731238439792 0.005243696918209041 0.0007359558520013158 0.001516591783635884 -0.004368429987512542 -0.006047017563743994 0.002756628860004244 -0.005316818640717646 
3.473053446722339e-05 -0.002711621593858889 0.001972368133191443 -0.005760318252990443 -0.01159533650266382 0.006100686959648184 -0.006992145846873752 -0.002250020095129156 0.005239041393155347 0.002586647548012032 
0.001607209877846563 -0.003164615027235927 0.004494721841792879 -0.001452035344520524 -0.001735413110634741 -0.004496443086623395 -0.001588945945300788 -0.008663071619210471 0.003457569034529698 8.039770325560529e-05 
-0.0001024583021228185 -0.005280689818123263 -0.002560183049143857 0.003928273419585257 0.001558241234150782 0.0002321281934116535 -0.002100075995332418 0.007733056735742963 -0.01066359465811174 -0.002533767837295254 
-0.002814095064452282 -0.0021031804533536 -0.00107689675071203 0.004314624553146429 -0.001890132413658848 -0.002448755110740583 -0.003240265753578085 0.003188654606930993 0.009067879108282115 -0.006772068462223335 
-0.005438005512258435 0.0002673621184070873 -0.008590306220549425 0.00276634579985598 0.005249322033926659 0.002304506606408385 -0.001200209053978728 0.005872934336833228 0.000294269276091601 -0.003141172588039001 
-0.004471023688739948 -0.003317717715965964 0.006054824659857103 0.006303886913718218 0.003253530314032977 -0.0008745009440985769 -0.005599622859228685 -0.00173225370766046 0.005037188718619145 -0.001748796140843636 
0.01068545736286787 -0.003854931942076844 0.0006942768414897998 0.001832311079060482 -0.002118159687163323 -0.00312795102493871 -0.001975124580407008 -0.004561210299521988 0.004262129074405718 -0.0007799098481444006 
0.001156149023278471 0.002303944311031532 0.006571370751062608 -0.004599559448663064 -0.01078017032487287 0.008403349629071606 -0.006289495866055334 -0.005380804176895951 -0.02303579555112479 0.002579982071469477 
0.01759962699266768 -0.002506093205231578 0.008072798450519862 0.002184508438837034 -0.01505377423471482 -0.003707821911147011 -0.005517692311119498 -0.005783060968377317 -8.885018060636705e-05 -0.003281073032864261 
0.002212598717428181 0.001254102175024392 -0.009266632857888212 -0.0005510110445882124 -0.01237324004028811 0.00103418412988371 0.003128913386407784 -0.002629894577071678 0.005160656860571548 0.002465253513002049 
-0.009233012042127861 -0.01462033179471509 0.003869644865646336 0.001605874282057317 -0.007672710084727042 0.0001540189723619265 0.001806740967981178 -0.005933826374330732 0.00646812528974454 0.006344707399446638 
-0.01151204856587232 -0.0109257732237408 -0.01048104554405034 0.005844409466420252 0.005766490104425663 0.002625015719428704 -0.0002287667319808775 -0.0009369922118834219 0.001796369117014989 0.0005352108435147127 
-0.005755689398000576 -0.007106842710069637 -0.001927928869164763 0.00548378017643252 0.0011664874077679 0.000536858825703197 -0.003413273737331874 -0.003192492609075493 0.003740169602652396 -0.01063339413329349 
-0.001488368776343742 -0.006202360443712062 -0.005316055474766064 -0.002948582961605343 0.01411270976446295 -0.003376872118125224 0.004800925587073806 -0.004538476211691058 -0.002216188033071917 -0.001939840999842636 
0.003077128728589317 -0.006572521500966945 0.004386564241249176 0.006618941351911782 -0.004617494897612119 -0.005664278038926752 -0.005051186053863788 -0.005192807865419754 0.006002415042143126 -0.001869328584888986 
0.005707660246549637 -0.006243676657881025 0.002578892115712121 -0.007052749923585315 -0.001710798077057146 0.005437873830874585 -0.00059577032215767 0.001494596322209099 -0.01236531225015755 0.001758264475373503 
-0.01347014408813248 -0.00374739045347205 0.02283057562842314 0.00962247349966378 -0.0007692636464556239 -0.00165187115671527 -0.002386900730428633 -0.009270226263085471 -0.002467522138607342 -0.0009730184991629113 
-0.0075726152046278 -0.008995709351037086 0.0165095247819457 0.001125756129903188 -0.003727118137758408 -0.001336995411895762 -0.0007894296749860959 -0.001257295366796727 -0.004635065168770225 -0.00472017112332897 
-0.0101675078877133 -0.003799848194403204 0.004496827615467981 0.008192570238195413 -0.005418756290700421 0.001170689771058545 4.349537070316362e-05 0.001112004077520862 0.00191076985540447 0.0006843116490321391 
-0.002406250644668901 -0.001893074158573803 -0.002394838915644916 0.002082609761242282 -0.01343964523040386 0.001827459607484688 -0.01444829738404211 0.01685323701752652 -0.005138193563519544 0.009266911064041081 
0.003851261340175888 -0.01268059183071344 -0.001841885235463298 0.003181839196432074 -0.006227934425103493 -0.004217905097204255 0.002416725307204688 0.002815184427234307 -0.001904575156424275 0.009412288116056128 
0.01486648063302023 -0.008753416885108965 0.004973687306345844 -0.006886430344115619 0.00133770668978071 -0.007518014252251081 0.01900760874767713 -0.01424030703985359 -0.001193482832600537 0.00329479459563085 
7.156180239452672e-05 7.710238683984013e-05 0.01538781885735502 -0.004112212989426327 -0.003610866095004297 0.002273813307219162 -0.005401673642137605 -0.009568774777401768 -0.003241251043876192 -0.008705025602169375 
0.006658954253046388 0.005072640442402605 -0.006084556496916611 -0.001190142520948026 -0.01347632080482367 -0.004103306566505719 -0.01213571696884678 -0.01207906755791404 0.02584316938501548 0.0003990556030633658 
0.008845437585011919 0.008684100141099313 -0.02045802528316758 -0.001469211120518302 0.0009262302562729254 0.008773074450814536 -0.006515113031205444 -0.01719489250096608 0.007178743266936391 -0.02189402576281402 
0.001032758245473693 -0.006844516584527343 0.01414766070933899 0.003591151979273416 0.0006422366361707671 0.0002324419986792315 -0.00433703183299085 -0.007722719157732789 0.003391123921967434 0.003301866408830554 
0.00696202770808666 -0.008133011618190701 0.004519498223623691 0.0008699204513534267 0.004401513582280943 -9.566146553412731e-06 0.001514178238945679 -0.008876670761045277 0.005327071531532178 -0.004461798961794769 
-0.008850757941834406 -0.006599852210473931 0.001413215178228113 0.004240885109976707 0.0004173088798717505 -0.001174634845062505 -0.004264972753970777 -0.001280286228781224 -0.0005848851904333348 0.01097032046704756 
-0.003033912163670805 -0.01214776908535299 0.004903784377596204 -0.008138511819115738 -0.004900004309779328 -0.00284917683806848 -0.0005748322821900588 0.002678358991447696 0.0005625136765333765 0.01249239853970714 
-0.003411190667017601 -0.003092375418761059 -0.002679679139289631 -0.00235566371384242 -0.007494087378153985 -7.116542357997527e-05 0.01300435647908596 0.00244695771922771 -0.0008258326933667716 0.01033822118009558 
-0.002608927879327155 0.008664534092215926 -0.006217473560452052 -0.001347447601293673 -0.001640258300751002 0.001306085651402514 0.009030200262513884 -0.001638035495240216 -0.007316093198828305 0.001485660163423061 
0.007437970613330141 -0.008949439491939847 -0.003712375357325925 0.002863225414460949 -0.003279254992054292 -0.0003831530813430536 -0.0022315925271148 -0.005516484531524549 -0.00197255947173515 0.001639339070475943 
-0.003699023642942244 -0.002938923656572637 0.003049583647774714 -0.003812860207983652 0.006667391546795817 0.007919144037908457 -0.007698286937712149 0.002228179872205735 -0.009346238179861332 -0.007741912296568096 
-0.0001947489310412566 0.005084806575481578 0.004415897625392304 0.005500069140600719 -0.004303907446453999 -0.003075377037129502 0.00200593264575471 -0.004885758205565308 0.005702710683881892 -0.008064621245912085 
-0.003932500021025353 -0.0007807369786749524 0.007170263346179782 -0.003754102721837518 -0.01839727188618986 0.002189508973995007 0.005278504532622515 0.00506514578028654 0.007226523215408634 -0.006048247859332623 
-0.001554534167139262 -0.003153647020432652 0.0003378688023123259 0.001300267063088477 -0.01047980985093187 0.008899616791199272 -0.004945005166777416 0.0002517274913434673 0.003884959973422245 -0.006024127539881356 
0.003888324651558866 -0.000205960449425365 0.001825179265336582 -0.002291301876212947 -0.003709144074188757 0.004418584130610134 -0.007342509068549916 -0.003151276931707598 0.006133177279768554 -0.01353924405881065 
0.0005850013016632847 -0.006396026536973624 0.003664250080152893 0.001891636000364279 -0.007436851946771553 -0.004741989342663666 -0.003296317265848074 0.0001810936175634893 0.005794548555429547 0.009479849673447923 
0.004600470404226652 -4.89041769779527e-05 -0.003304411760997544 -0.005838348928496111 -0.003588404531293169 -0.008839322536855314 -0.001984469167442918 0.003770104282177947 -0.007014817656692242 9.920977087759488e-05 
-0.005290774729108225 0.0122987864774493 0.004605273267876555 -0.002174718825255751 -0.004119647657439504 -0.00887712139596614 -0.003436836734787856 -0.00760336508879196 -0.003928371331582729 -0.001027712027780624 
0.002885496109042354 0.0145263753723772 0.005206622130021096 0.002312902348192889 -0.004396878893112855 -0.0117716897654675 -0.01210314127183944 -0.005742317995909365 0.0005167106786475333 5.965122699447881e-05 
-0.006163769320539638 -0.01146806527703136 -0.00440011120075528 -0.00385392110419805 0.02323954753553764 0.008741347314177956 -0.004668805603175463 -0.007620077493584883 -0.006314560850670712 -0.004413257182997514 
-0.002402002151535415 0.0003919881341823102 0.013468044520354 -0.0007836740393022241 -0.001265480806580359 -0.00787673019003411 0.01302512433851123 -0.008256924411589416 0.003245809398713353 -0.00323513138895223 
0.001133043157135334 -0.004404054736646986 0.005238491126305019 -0.002522602156754406 0.003684475743609354 -0.004219847181204706 0.01098138229069359 -0.001770875792702459 0.001384954734666434 -0.003561777748584173 
-3.767975744193096e-05 -0.001821364442846672 0.007629653996861313 0.001381722722973392 -0.009394954024489411 -0.001363837466449003 0.006799044639626973 -0.001579348755516817 0.0005111614632304188 0.002440642999881514 
0.008838388306792927 -0.01264459061567696 0.006291459467553953 -0.002844473969629518 -0.02308963599118757 -0.005142805133217237 -0.007955423286675301 0.003730815650253327 -0.007149585628792052 0.01189291129638369 
0.01779223427380129 0.01988787053855122 -0.004007149522020338 0.0009242420096537694 -0.01367601829142475 -0.01005269415396963 0.001198867397370216 -0.007297802982251638 0.0005396406254484498 0.001237114448652605 
0.005126504146020765 0.01168819833725348 0.002842904688866442 -8.64160152184513e-06 -0.01003690383133249 -0.00142693478922497 -0.008395066831704883 -0.01101300051141262 0.003858549071140598 -0.005689106829287 
0.01664283968862531 -0.001581146517971113 -0.004190191094205994 0.004129309797743508 -0.01284127447629876 -0.001194913193898269 0.008701062785157124 -0.01160947485392476 0.001758881936723117 -0.01164751544625453 
-0.003462446853855685 -0.007299573488179537 0.004211438939058474 0.001258036252551004 0.006867461065759415 -0.003040250565473278 -0.003354535403333116 -0.0001659853928323439 -0.001112965065847236 -0.002378313243871521 
0.01816480753167788 0.002777327464346849 -0.001071501890169707 -0.001141234598013681 -0.008128107065516409 -0.007449449430863659 -0.0009140324053717316 -0.0002576554672440564 0.001729255044385676 -0.007142611139253665 
0.0118325925978825 0.001755149013178818 0.007492168879303965 -0.00731000846135268 -0.003461400236069663 -0.003672867846987196 0.002035129799346416 -0.006340397723363086 -0.0008265620002470084 -0.01446928621289556 
0.01192305400689529 -0.001947913783278133 -0.001148311512574001 -0.007555308001491025 0.004189124228465054 0.004855666013697339 -0.01184806343373705 -0.004743799059037772 0.001870134119089019 -0.01337552708092467 
-0.004081181584202737 -0.01536847791962004 0.004354108015055778 -0.005989266772146666 -0.005761116046101891 -0.0005219449372345532 -0.002229207125621306 3.401673445569959e-05 0.01401522420454187 -0.01433201186122314 
-0.002702497342037152 0.007925404434609557 0.0008115773064092248 0.005348850630286943 0.002860138188275804 -0.008551219731622732 -0.002760941985367887 -0.01369245785466928 -0.004416054789324821 0.006753777435932009 
-0.01286263755018226 0.005915887684514663 -0.01734720658012086 0.004936814232923136 -0.01508353909605085 -0.0007271428550315426 0.002244949443510637 0.0002619258203747039 -0.001027018209669181 0.008254704907816927 
-0.004632279194908122 0.002644364221215576 -0.01211012940787483 0.0008868864972141777 -0.008670536780782306 0.001099479230193718 0.00018915539571983 0.001718324009804534 -0.003438517625840717 0.006360961450008918 
-0.008244706925671403 0.004066304372780189 -0.004772713085355212 0.002937933573489608 0.0009210457840152334 -0.002458540469080518 -0.004840286084728603 0.006554008442290977 -0.004077828072024138 -0.002738171613973492 
-0.014038795314464 -0.01302909146686818 -0.00115781538771703 0.002122977988743771 0.007893129479913703 0.001924529955592019 -0.0001319236184932771 0.002768410260823038 0.003895829630030366 -0.01159291394994261 
0.0001415010094999409 0.006941150086700741 0.009735628462886474 0.003081349397723897 -0.008336145836004612 -0.006267711921204112 -0.001773301858359857 -0.002187060048938305 0.004271394249508537 -0.00506187135324224 
0.004974624131079466 0.01088206996031235 0.01209002132388624 -0.0007775932822239349 -0.007816979894403272 -0.006213549461567562 0.009740670008151929 0.005622135187570369 0.005191597565742312 -0.01808949953854893 
0.01151522680803259 0.005830849108824251 0.01037955913463414 0.002769941424032934 -0.01445112680824929 0.00814837608616953 -0.004537406064207495 -0.006035167467507232 -0.00593405857803328 -0.01833811882862786 
0.01801517055258835 -0.006991733478059006 0.01090541061738313 -0.007153960635105484 -0.006250515138480962 -0.009453961591503333 -0.003483012332092551 -0.002997615905420493 -0.006594375002942652 -0.01357716787515098 
0.009143090760129834 0.002828289333033377 -0.009075464361090732 -0.002941917464054692 -0.009595944976445203 -0.01288738292673654 0.003253356819940394 -0.01095127542677968 -0.001924798493961859 0.02165512260210779 
0.002272483517775144 0.002187257573089728 -0.004841753337684641 -0.005547903776239561 -0.008134227414061019 0.001979941192556419 -0.001480113091767606 -0.004111389899395745 -0.005749374179979051 0.01305107766034973 
0.005574952588137544 0.01029215122384604 0.003900156700587398 0.0004618688589654711 -0.0007862644752200028 -0.003024992038535833 0.002558550989664963 -0.002992937094178399 -0.002106026917144142 -0.007938017735395745 
-0.007876393656217359 -0.007745133213295483 0.001828752246754801 -0.001509696196824465 0.006513051270518196 0.005024431869208174 0.004541348449241556 0.002631629042454268 0.0002053318294095206 -0.005130290284839234 
0.003765712889851019 -0.00088868337301351 -0.009508621930277926 -0.002399038217143759 0.01617542450155454 -0.009716182018468335 -0.002503773876495727 -0.000181998407330778 -0.002392127865457628 -0.005682295786180619 
0.01266296122191517 -0.001380429608168146 0.008411753456268716 -0.003225577375241824 -0.01340383520543005 -0.003127646275362267 -0.008720880951977416 0.003042386402508483 0.003641504094125074 -0.0106286555994645 
0.0104701936302843 -0.0008856910431687114 0.023445614825232 -0.0009217537891118797 -0.002126720303454001 0.0008241091280138661 -0.009177636674534299 -0.007011439123888538 -0.004535043579980441 -0.01562238336842494 
-0.004991193860781469 -0.007817255050260902 -0.01154213204828383 0.009828428168425061 -0.009698326047497411 0.007432538434214128 -0.009466125102824201 -0.01183595535988669 0.01684509247344623 -0.006133134389531447 
0.005521776187130818 -0.0009527014860922808 -0.01917577240717464 0.005487227578359395 -0.001543078575642176 -0.001632710882230647 -0.0006845006325640822 -0.01682724646682203 -0.007020630889370806 0.01365620231026334 
0.003542108176524922 -0.002402188476476442 -0.02768689357213827 -0.002161438765737753 0.001560804278573802 0.006009230107267853 0.007601295974481608 -0.002892805036085713 -0.003364123117782733 0.006575813150046042 
0.00818315178563365 0.004373534376534309 -0.01779186373294059 -0.004497730654823274 0.009411079206548724 -0.003404631222543092 0.0001179436438406324 -0.004119710524631882 0.007207689105100297 -0.001133280841035662 
-0.002300131111953252 -0.0008593262753467541 -0.01245052846991384 -0.005251028335357824 0.01520590451211043 -0.009885820069729991 -0.004285824859326931 0.009009435294618697 -0.003611978973686262 0.0008560150991027997 
-0.002553087566991436 -0.01339684068825376 0.00559618464073349 -0.002641324628187709 -0.002795668488100545 -0.01515211332219896 -0.001873771122374383 0.009129846261604594 0.00559284476815925 0.0002159026027688707 
0.01279745018505274 0.005561364833966085 0.01502531262047849 0.0007560938208202889 -0.008442190041463358 -0.009438127440571388 -0.007358900972615296 -0.007637292883019198 -0.008510524133328453 -0.004159907490867762 
0.01661726368061281 -0.0009370120399449453 0.02333543887239851 -0.0014902633960561 -0.006580501632811309 -0.005418022355487612 -0.01441207508808131 -0.003728991680786297 -0.003320189995732509 -0.01030908493628706 
0.01718058675663185 -0.00908044209945656 8.806106096048126e-05 0.001274820878215237 7.634549938142452e-05 -0.00139280944143928 -0.01724433845172016 -0.009212147689938525 -0.005366467669292429 0.00896630155307483 
0.002907888532698772 -0.001892912110959247 -0.007365059338254044 -0.003929379976759078 -0.007888608408300036 -0.008081611912666532 0.01122311197596111 -0.004639083818314164 0.0006745031510077802 0.01231837075522549 
0.02043528066115169 0.005153491090553709 -0.01316484591368855 -0.007667621176389355 -0.009466361659487171 -0.004909999355218814 -0.006538913754790897 -0.01159712718293924 -0.004291292597500226 0.009603123237740856 
0.005974338645858503 -0.004135646284714083 -0.01511151850819594 -0.007662966524349554 -0.0112279461316891 0.01388750938857665 0.001277259914591706 -4.996368282100862e-06 0.00110205898871314 -0.008184289077957959 
0.004273175240441788 0.0008273569551815461 -0.01255821707865031 -7.579461383781982e-05 0.01720402723007853 -0.008731549886055234 0.002293606582151802 -0.0004421197979579405 -0.004353529945965476 -0.01106871491654751 
-0.008097503697356066 -0.006604387606852022 -0.0008933469549827661 -0.001816237895083309 0.001673862762858423 -0.0003302573870796733 0.003179489596012402 0.001286240687800237 0.003026923775273371 -0.002976159159338309 
0.01673930715164501 -0.005006047234670426 -0.01444726756107332 -0.005664024543511309 0.02029340596558955 -0.01286111376221683 -0.01060970650232246 -0.005206183636567589 -0.004957668981103328 -0.008787594011615572 
0.01042022389180875 -0.01257621042631266 -0.006035441352730345 -0.007353952944773365 0.007834860742779318 0.005479795182667009 -0.009294172065093495 0.002020341836096294 0.001952110469975205 -0.01037494612060975 
0.01743762807625946 -0.001174636642531391 -0.01501161172504482 -0.005441999696854247 -4.700947505058155e-05 -0.003157846705695769 0.004178885259446716 -0.01091993136626195 -0.004095667866752892 0.001781950645788142 
-0.001546951046467377 -0.0203761796831069 -0.01733239297322403 0.002250421580965016 -0.005104837827200652 0.0106562080861903 0.003675174345621725 -0.02533955807831357 0.006787845207568058 0.009406462065133899 
0.0006769032742765916 0.004576488275936086 -0.01140210530075177 0.005044730763214427 0.005304452479761594 0.00635225704731583 -0.001576649987071475 -0.02018336937764444 -0.008296391449649571 -0.006921302946350926 
0.01229842992691672 0.003825874951561473 0.003561329913121195 -0.003161634057240896 -0.009759311921455922 -0.005364763592585054 0.003084748309620078 -0.005580379067847081 0.001206908704215757 -0.01413168156615097 
0.005720520962850599 -0.000252308130506665 0.009580021086297028 -0.002190993561671573 0.01026682766094011 -0.006034574940323501 0.002504705452206222 -0.01476378038402701 -0.001858433838037332 -0.008966035663019392 
0.005856126158929565 -0.003653822856370286 -0.01474242064124946 -0.003017005013317623 0.01737311582870125 -0.009458519521847952 0.002521409189055101 0.007128169965347789 -0.01084079683662873 -0.01250171517481925 
-0.01582609749691121 -0.01003728544530774 0.005832918295647409 -0.002812198367030655 0.01945842653179885 -0.001136327930808441 -0.0117439504417309 0.009940491898297123 -0.003074533095528762 -0.02385833636172292 
0.00548558581464637 0.001159663298031133 -0.00023272379919627 0.0007716666725221911 -0.0003929727121294844 -0.004935821421097542 -0.008674447960741337 -0.0003017233611695274 -0.001281437931577958 -0.003404934064770616 
0.005419340455712097 -0.00800179971530305 -0.006887151546266724 -0.004239247046647352 -0.008130553238700261 0.002926738811167436 -0.001254406455979157 -0.004544849953370676 0.005492814576976402 0.01456278865418315 
0.01466348268157901 -0.005113235526980978 -0.01202201668998037 -0.004513001997272521 -0.008450450427543724 -0.004553876223360142 0.003660604050987355 -0.01052335708645589 0.001645883331947589 0.007920672059663207 
-0.001382003054041576 -0.004203416142578226 -8.628290754840299e-05 0.002329238250737506 -0.02142790445550052 0.003320222269631789 -0.0002775495267533098 -0.003833413494294744 0.000627640460200375 0.001437370541015474 
0.007275108831202158 -0.003657370596064698 0.009201931939581501 -0.0009747316485585574 -0.01384601289127008 0.005320326819430865 0.002446592374670953 -0.006403747377233886 -0.008348842458752982 0.00315237987586822 
0.007854265418772528 0.004869778484394051 0.008899258746988555 -0.006765578638140272 -0.00189379857363814 0.005113408289336598 -0.0002520394832061775 -0.007014834075952114 -0.006623872118930593 -0.009991877443470165 
0.003779473184325292 -0.002359702817191613 -0.002776579217272074 -0.001801967376871634 0.02369338396717046 -0.009567741367044953 -0.01116992336450778 0.0002665488267045142 -0.008084899970022626 -0.009735851866499331 
-0.008544928435284611 0.002301620077041498 0.006066980234165876 -0.0009611854087406781 -0.001329944750965237 0.004810096633878592 -0.001521114411667845 0.003179995767789607 -0.0007641953837214493 -0.006077787165291805 
0.006955945470077642 0.009844876830471024 -0.01996101908777208 0.001970752684458163 -0.007013672691250928 -0.005551104461526923 -0.003728048298488669 0.004937745774191152 -0.001972476545272317 -0.002624843425963529 
0.004997389190578745 0.004671369227005978 -0.01758987760076029 -0.004945723461743117 -0.006767672391223573 -0.007786105462317056 0.0006330851566972348 -0.004668043123227101 -0.009253242995810261 0.005520713405194602 
0.007351128297990714 -0.003931465362717756 -0.01412120666445669 0.002577407620999195 0.0008885125812901464 -0.005151025501782538 0.004779470160102419 -0.007228658049438586 -0.01163839429446843 0.007051859536040233 
-0.007556878608794021 0.0002602595160998091 -0.01214977327114826 0.002207478574571573 -0.004368027359780854 0.004659478307918814 0.00246617925699797 -0.01413813030821862 0.003371012552807647 -0.005162716131865156 
0.002423788831018942 -0.01452402025931936 0.00298132516096179 -0.003995532830697974 -0.008836447322072076 0.01683656816554201 0.001310175255505923 -0.01009304825255937 -0.004554997520098473 -0.008985570210013489 
-0.002439973925446119 0.002621683470882297 0.01160658507124954 -0.003297617501740441 -0.004990851675961402 -0.0008843104826551147 0.002225579187705027 -0.007942567295863427 -0.003234256191584313 -0.004116076241733453 
0.004712416964861231 0.00860401832704036 0.006349874304172478 -5.812303894384426e-05 -0.001298520548572228 -0.001901701686451549 0.001686409378544437 -0.01042648546962058 -0.001009538847532327 -0.01498526334579725 
0.001589466101363962 0.002643284799389955 -0.0035689338725076 0.003242940594371972 0.008084517209435097 -0.0117231116724055 0.003210193759986315 0.008641510463765434 0.00214360702521482 -0.02012478003196423 
0.005115551011569298 -0.006565777985110986 -0.004137490946439265 0.0002485028287088373 0.02413622086683789 -0.01053505577485177 -0.01839495200926497 0.008522394925321026 0.00549698686339231 -0.01508107996182391 
0.01282572218683669 0.008718008940204061 -0.01138738645660308 -0.0007774218688158679 -0.007743963470683354 -0.007225084849931668 0.002836235182378667 -0.0007180637146170759 -0.003218814859424329 0.004147551380004102 
0.01086450758801329 0.002736989917568309 -0.009546073071873277 -0.002121174503705717 -0.01522782626696628 -0.001111810943902428 0.003143726536059582 -0.006539374941059402 -0.002246001419152619 0.01686444018404555 
0.01483159332925021 0.00124949496588754 -0.002284109017816722 0.0005838984625227153 -0.0115823843442706 -0.001073755460981492 -0.000862199968998 -0.009516234492883493 -0.002770764291927434 0.007764019687116821 
0.009352575088895492 -0.01557380952699092 0.002578339376477639 -0.004811321941095268 -0.004511597912377988 0.01088272145768851 -0.003252203980470084 -0.007730755238817819 -0.00470415615207554 0.001872589522925406 
0.007091718682204341 0.002216126517384941 0.02123586786622455 -0.004453031524436917 -0.01450990163053835 0.002342191430564384 0.0009846017150018207 -0.005118962682173068 -0.000338852174593727 -0.005011930176412381 
0.001139769468107893 0.006965028905057438 0.005547032252713464 0.001422535099225926 -0.005496425387613548 0.001216767898243719 0.01389868630599407 -0.01017944081563617 -0.001406042000617319 -0.01404735637619356 
3.53537489945864e-05 0.01964366981016754 -0.0202745810396195 0.006096754318467839 -0.002146079216544285 -0.006544298836066728 0.002617224029294224 0.0009781715481729885 -0.003221324120305517 -0.01190755728282199 
-0.003911942211487905 -0.005917947920014888 -0.01001577535380235 -0.0006550595663270888 0.002047023112766732 0.01057804469916767 -0.0008599357592041074 0.002081355439712228 -0.0001829038903026072 -0.003562461340594135 
-0.003626896393484143 -0.002959006336226107 -0.006730134941022067 0.0008492419276758564 -0.002771494484536987 -0.006295554053599647 0.0008487867114862353 0.003982632914518102 0.003383207713236642 9.108460038587929e-05 
-0.002113324916806396 0.005419461551963564 -0.01109022262822627 -0.003374040419800388 -0.0002228671838562915 -0.008184672433828297 -0.01561285011304495 0.003791926558749182 0.0008938000930085017 -0.001573692880731538 
-0.01046726007981114 0.006812894823742064 -0.008209862898263217 -0.001501788030557623 0.00417446799415492 0.003084629752327743 -0.0002739710018365028 -0.007220224240767157 -0.00400275512589389 0.0007504528551003532 
-0.01441239406875242 -0.003069678502979484 -0.006676593183056268 0.0006651386914232735 0.00294190081218912 0.006844449796651617 0.00277556797439184 -0.007271221185325311 0.002084803957577108 -0.002558718443129424 
-0.004241311633597773 -0.006451724724503695 0.01344488120790652 -0.00230407939706412 -4.288110038211126e-05 0.002677456439753328 0.006354302677345342 -0.01013129548830569 -0.002554620737712409 -0.01377695358081977 
0.007856585585908561 -0.009720559999920952 0.004865169513481259 -0.007067935512331319 -0.009361508461241352 0.01503296126779801 0.01195478839395387 -0.004030869632038912 -0.002794205881510309 -0.02445366184977032 
0.003584424179785759 0.00065214262604616 0.007188078682864279 0.002475602222444799 -0.0001452175375434942 0.004830486167242494 0.003997406572397168 -0.007282011691287728 -0.003024080158958687 -0.02149022706241465 
0.007442306282295687 0.01237833367199711 0.007979416352911018 0.004418884726394513 -0.009590820782553878 -0.004507147896520405 0.001102245943890719 -0.005265884191267843 0.001867477634801968 -0.01638872300876804 
0.005590165915840772 0.003899872853251903 0.0004113751562201701 0.003360432876775683 -0.009689949843311002 -0.00172227149209628 -0.01011396471936167 0.007221561098324908 -0.000384706337471373 -0.01573748117890977 
0.01773523638254804 -0.001074183555518909 -0.003637382013794452 0.00199814084836647 -0.01542082882684034 -0.003159950036108713 0.005475385873421905 -0.003998068907849327 0.002334758530481233 0.0004324470337887178 
0.01347690132318671 0.004169573015409061 -0.002543697651692351 -0.004301538659233476 -0.02431967293635878 3.960917910125273e-06 -0.00473531853130912 -0.009567806897386446 -0.002835687240501402 0.02147055887779413 
-0.0002120064414567825 0.003043022879638201 0.009472544623245481 -0.001651291672508368 -0.02244735065187302 -0.004521563940358465 -0.01143829613399963 9.369025039013417e-05 0.001249063287156166 0.0292563230137731 
-0.003894035457862879 -0.01085408392160359 0.01189611822452106 -0.003819690440421742 -0.002651600208411446 0.009315968648962272 0.003550346501320496 -0.003444963328119006 -0.003335997318050762 -0.008000245568561479 
-0.007191892513712005 -0.003218029097798997 0.01095236086393169 -0.001229103190077824 -0.007089444542143818 -0.001067355454789231 0.001992994430096309 0.001388565707511975 -0.0007899329036452957 -0.00512861435420829 
0.003762697136046103 -0.004161666344318004 -0.002744110968933361 -0.0007697392817704037 0.004910751891390732 0.0004561744237448164 0.002802717091719426 -0.003643684311747222 -0.003800672820470259 -0.008105615782443506 
-0.008492672778503799 0.001978569369634233 -0.00751317890256177 0.007079753791166186 0.003507162644740183 -0.005226439590933418 -0.003606095200510687 0.004023552642956575 0.0004250321041787278 -0.00870023457301939 
-0.004506046809087216 -0.008669269435687448 -0.00964268910792895 -0.00193717955665694 0.01174211336273596 0.00423686707155323 0.007550366517712128 -0.00151054185562615 -0.00833576330419177 -0.002673962107042351 
-0.00187052154014148 0.002020990520139521 0.003769241487842344 0.003635127749502503 -0.008357069113339383 0.0007752358670787067 -0.005267519364781053 -0.00691865183776934 0.00618980783082405 -0.006922653820939108 
-0.001590314406118562 0.005820532139460246 -0.001189228236344 -0.005162155734027714 -0.01733704804529997 0.007939590630002609 -0.001231631726828836 -0.005361144443291411 0.008297673871016436 -0.01226644110259754 
-0.004717928598533967 -0.005645677004380176 0.007507055416786651 0.001979726862115378 -0.004716578954018826 0.001761307141399263 -0.001924770142932774 -0.001516441823380387 -0.003010228622988048 -0.005387662132985431 
-0.007331493427055624 -0.01655265011675636 0.01184075553214847 0.01219331518580306 -0.01223062914537872 -0.003225544444556616 -0.005786924559259899 0.006020696472918653 -0.001045242110413231 -0.006923651316940652 
0.0005768726977001226 -0.01148100927689097 0.007742138403630773 0.000975630489986831 -0.01004100751639937 -0.002554412774314549 -0.01296080534903374 -0.002864553767785302 0.00665105466948292 0.006153939459192953 
0.002845459913520448 -0.01504713226274061 0.00621937063418134 0.0001641520702174256 -0.005875907600077923 0.001157597629792486 -0.005240458189689681 0.004175110179628596 -0.0009512350500716829 -0.00164881898010667 
-0.001960498844481494 -0.01610348496572442 0.01972257173699897 0.0001178358387336591 -8.573002321676634e-05 -0.003081999732173762 -0.00284383200416717 -0.001767408216015368 0.003598145856522114 -0.007145062453178802 
-0.004184796656835176 -0.01209629110205865 0.01665958309985449 0.007550595113356875 -0.007775792519395007 0.0006890317633569735 -0.0009173014362995201 -0.006785898367478459 -0.001324347226058649 -0.005048537894971529 
0.00812243367944695 0.01192681320631703 -0.02571337393962332 -0.006252433932161455 0.01382927539249235 0.004363074273129566 0.00237715349636269 -0.005901075815813945 -0.0119595464580267 -0.003507902609210097 
0.01514081929136373 0.02183504643565209 -0.004670783445550455 -0.0003010342072643872 -0.007721484173720356 -0.003476896039128771 -0.008409149255262045 -0.001211871389597202 0.0001936973282490364 -0.01451311689898794 
0.009666808409275267 -0.001510810740732486 -0.00291133643201891 -0.0004697045841169838 -0.01247359454325108 -0.001433540341077071 0.0003111316938727014 -0.004813510006577874 -0.004359533603556588 0.007900123514308174 
0.01631982958098173 -0.0170610681695566 0.00208130535491439 -0.00460871216223135 -0.01866819351482225 -0.00989414685242172 0.001632206256197797 -0.002858008398080543 -0.001696034122726039 0.0304642744582617 
-0.001997215951783397 -0.009611565984879236 0.004483259080644262 0.000620652928375185 0.004414826886386496 -0.0009954317648138591 -0.0085358706129468 0.001183239223240546 -0.003691733985996553 0.000969093509551026 
-0.005971118740989017 -0.005295273761667116 -0.007800870830205692 -0.003578557699667884 -0.004270725311099553 0.004710308093359419 0.005907532879363075 -0.00213192076547093 0.006209497307329818 0.003195890706164044 
-0.006953999761490794 0.0006935728610946468 0.0002113481823841077 0.001333246401471581 0.0003204464905484665 0.005116467306560929 0.01232987075632297 -0.007618739392829556 0.00275448951752515 -0.00474199433661658 
-0.008341668027385575 -0.003848060000675363 0.002757354202060248 0.008921142076882287 0.0008298459919822182 0.0109398332709418 -0.00169404435949026 -0.009231427744049924 0.002443803504864726 -0.005541904269078579 
-0.00310856270327475 -0.004315030419318779 -0.007034092643311794 -0.004300322959757622 0.007621827855426553 0.00442062775494847 0.00522343271871992 -0.002634966286474814 -0.007927829597549989 0.000934850108138654 
-0.0001412354519806493 -0.002590819210029146 0.01792200531834597 0.0004306914469392723 -0.02032335634279416 -0.000792449616497607 -0.01640555280590659 -0.005355914155352852 -0.00721243546438552 0.01599692447178914 
-0.002741279079966663 0.0008542334635443161 0.03102696551670711 -0.0011254658726953 -0.001333085546508423 -0.007243428645813323 0.001266464942431719 -0.005682442772020962 -0.00435159745120889 -0.01335251650445625 
0.003146539014485303 -0.002456606792779352 0.001032039618346404 0.0003481580937427276 0.001518362167975694 -0.005540764374360695 0.007091180945280474 7.918251977228892e-05 0.003049193847859126 -0.001414256592429753 
-0.01172394049102224 -0.0141057982907693 -0.007635808230052888 0.008135286391473286 -0.003490322223014047 -0.003438411662082316 -0.003819870270465097 0.02307791617736544 -0.001507311155501488 -0.003118229544149279 
-0.006090302808780811 -0.0102083960296858 -0.0005347318212107222 0.008747185729229006 -0.004633661757961779 -0.002454942544314144 -0.004519324413544679 0.00307537191496417 0.00635756595282887 0.00155555989128674 
0.001176597276536452 -0.006398095753633622 0.003746669061767891 -0.004340269129930517 0.01390912280374659 -0.003815783934797705 0.009808845716445986 -0.01001889783967566 0.0006968863292728246 -0.003569974419754973 
0.002118318807667482 0.01401149663377032 -0.005620901600032363 -0.00333691672784639 0.002486279137066839 0.001701103315549533 0.008051874591472266 -0.01160675514334267 -0.0001555465663446875 -0.002892538044821924 
-0.01399115254147217 -0.002767062724242999 -0.01645434179046292 -0.004359193938396372 -0.01478628342249039 0.003279692331969472 -0.01547661711331234 -0.01300528427775873 0.02319414078662586 0.02065160000245142 
-0.004845995063670277 0.005141523448061269 0.007587811991297405 -0.01203039672900608 -0.00121806200324021 0.004510589082954612 -0.01141896451001247 -0.02178630580289546 0.009788174055524065 -0.01313084463464723 
0.003305230847890946 0.00141295542041494 0.004264552973059155 8.76933449917061e-05 -0.006625464393983053 -0.004284736882117393 0.01689761221584416 -0.005492332516201211 -0.001554135171808093 -0.002324829149049047 
0.005458566849397962 -0.01118338469953865 -0.001568716054393988 -0.00302442150639308 0.001331132597109234 -1.342344575742851e-05 0.007963058667318414 -0.005550129158231212 -0.0005872684498797388 -0.002195111445184461 
0.003772593782323196 -0.01199107242545513 0.001176921718133084 -0.00128895418234304 -0.005168873441291431 -0.002673284185731592 -0.003219543452474849 0.007115893099880194 0.002465324133879199 0.006988496211527765 
-0.00684273340456814 -0.002238477056908873 -0.01442006375719343 -0.0005568912915341425 -0.006234489393054796 0.006024755512073115 -0.00304640998680214 0.001509172922857577 -2.72165581699086e-05 0.006384497316461078 
0.003213373206334484 -0.006271837351749993 -0.005304665407280648 -0.002963510870936486 -0.005085928308560682 0.004317090845621054 0.002167000339090029 0.0006696031208913334 0.002820732891879136 -0.000656995257496973 
0.01613019797263826 0.002610064438544362 0.003176987182477174 -0.007951777429164154 -0.01365049823946749 0.002237899649196821 -0.0003225149134659999 -0.003832716884902675 -0.004311119814113674 0.00140238595540878 
0.01213882024593011 -0.002125670943913531 0.002417037355868804 -0.000163406732017314 -0.008769494422209055 -0.004804023224310303 -0.01312524715074796 -0.01082624151988462 -0.009990507508931415 0.01547765517143824 
0.006117356315653121 -0.0009796662738884316 0.008275086537657116 -0.00119908094709699 0.004210487336881825 0.006637821784237154 -0.01024687248469955 -0.001556457386080768 -0.008167748086501975 -0.01014239812150112 
0.003514134530372941 0.001154584216303027 -0.002863272175879041 -0.002850732929504189 -0.004530010263480396 -0.001062015273136415 0.003834318213325001 -0.00909359900339498 0.001238936257125234 0.00614502313487784 
0.003027188215779996 0.002707505946508663 0.02136466566615388 -0.002916638197788024 -0.006998031287837317 -0.01199303076002149 0.0155703927685927 -0.006455043839041549 -0.001572295668498764 -0.008888589780740511 
-0.001912733061405692 -0.0005637995513051521 -0.003361122451351083 -0.005031363521483392 0.003219836737368666 0.001619075484814797 0.003724708171974959 0.006084967974681326 0.0032135113190962 -0.009992740777546584 
-0.000164284393979334 -0.0124566851296668 -0.01296978532992237 0.0001611644623458015 -0.002492413039412252 0.003081860700563751 -0.01131609997125014 0.009932587748314299 0.006733837501415857 -0.01194198994402198 
0.0001900992956100759 -0.003454174495382403 0.001633638642723077 0.009866602941008676 -0.002139717786443352 -0.00218449725741933 -0.009207740938150352 0.001246271775923592 0.001110117381824954 -0.0142503523620094 
0.0034552875620814 -0.001283533387425116 0.002223528549272556 -0.002480419436472453 0.004117158802780631 -0.005861061483897238 0.009559753483235251 0.0008838881936333127 0.0004822297168950775 -0.02019501288099774 
-0.002382027913221723 0.0104848552054341 0.001211655326523309 -0.001062186037447225 -0.002928002988345207 -0.001736810179292718 -0.006148961248667969 -0.008839336553616425 0.0002764049587010321 -0.002282008280436878 
-0.01562858208899265 0.004922360482102537 0.003134627336342821 -0.007635835493448576 -0.006970072276029642 -0.001780866030272113 -0.01481452614602744 -0.00477090458286417 -0.002420395249136893 0.01968596040026325 
-0.004058959977019608 -0.007490293833773223 0.003539048766256699 -0.003535735181347096 0.01879307382733279 0.004589143768921432 -0.01142638109630647 -0.01021752261824542 -0.01646911484204447 -0.001717155984064082 
0.0006128466867974018 0.01583984355560109 0.01583698292146991 0.0001418225637337858 -0.01342933326588186 -0.004341186457514947 -0.0007182477169859177 -0.005540185290144819 0.0003775467610241675 -0.005338846826089963 
0.01706474651412647 0.004252532274049876 0.003425211570163298 -0.004561777099366394 -0.001094305775397899 0.001866800112222756 -0.0009885768112325144 -0.003016634404941093 0.0002364871909316016 -0.01000218870308897 
-0.001424849664533967 -0.001094196702787475 0.001991943441370763 0.003208021427280475 -0.002757073177238643 0.004826313657075757 -0.01492778409485072 -0.003815656704230606 -0.002796092743528019 0.001191182579986023 
0.01790729181997202 -0.008968377263168376 -0.002057584335682408 -0.003432861649612855 -0.01181885052694705 -2.85616107407162e-05 -0.004662837287825799 -0.002996027959047914 -0.004462683915292464 0.00191628697865425 
0.02879903535999384 0.002642484261895232 -0.004831539889407935 -0.00546578833663987 -0.01567909597983286 -0.003851224042107817 -0.0002296966021114 -0.002426299227322322 0.01022404273950421 -0.0005943308399714389 
0.00399860642433098 0.001520009205919312 0.004370648092949167 -0.002214533205480571 -0.0164215900117532 0.0006774201050655299 0.005130601042828196 -0.003190558677964899 0.002040047980366804 -0.006341275046796911 
-0.001810620536417744 0.001433664421095105 -0.0147780084394054 -1.736170262690859e-05 -0.01033638821313212 0.002120353820917579 0.005379373184650841 -0.01338812288120181 0.0001185573287697591 0.01509045415449362 
0.00282998638294411 -0.008247910874880329 0.006846451722038635 0.002844169772684181 0.002752748736601054 -0.002852426507740815 -0.001299481574599134 0.002245011159918238 -0.005773118297965223 -0.004853135561255282 
-0.0002327037149914655 0.01304138697601456 -0.001991713047535019 -0.003356191840742112 0.008989972710854836 -0.00355748449110654 -0.001599679298881226 -0.006623391638032608 -0.003437810517349904 -0.004532169322203609 
0.01775980599110917 0.009225800398195179 0.005005691668972495 -0.005439428451160266 0.006722051692323368 -0.005896798565146018 -0.009528286841611618 -0.01088572724042878 -0.001790666399267206 -0.01807547128839427 
0.02374136217965294 -0.0005024324918546282 0.0003962063893098225 -0.008850669330213603 -0.002189353764468701 0.00171676351050192 -0.01026808989068233 -0.006729937321131843 -0.007685735979161379 -0.008410583152753915 
0.00275265651228333 -0.01837544575252564 0.002224736889488798 0.006893722431486258 -0.000137584436459216 0.00616398445448596 -0.01851250636221029 -0.00539907145339882 0.001883599839123358 -0.01127309352287219 
0.001710297479005062 -0.007610607243603676 0.005106282059068346 0.009470527227176031 0.0005673187210118442 -0.003186341037609659 -0.005255204298483084 -0.007196465960789116 -0.00310886630540363 -0.01510595501683768 
-0.00910268450491592 -0.004158617220144645 -0.0009731624188902857 -0.002445992255079587 -0.005863334576364836 -0.004283749017939509 0.02442800253813338 -0.006382954969294045 0.005771678329004911 -0.0006855455155724243 
-0.005779426908263486 -0.006623845494570809 -0.0002161624705077283 -0.006587569132383651 -0.009330457502586162 0.004417841309308771 -0.002221511294198562 -0.001167191588624163 0.001897193432056034 0.00603968081047983 
0.0003516658572917124 -0.006892719160604534 -0.008233331425042583 -0.003688764306619223 0.01469391565520762 -0.004216291955822313 -0.01333230708030347 0.00233657158040929 -0.005874613318204471 0.001674096808252436 
-0.009545137503659543 0.009719380426436103 -0.01909354931573599 -0.005111167806673582 0.01129333298663596 -0.009270658297287558 -0.006545614799949905 0.006658520796394917 0.002732391000185735 -0.007616087916180278 
-0.003219841999494218 0.0130590726100075 0.00705406154688494 -0.0002339025719840145 -0.01256600040215341 -0.006784623793933691 -0.003615725593477357 0.009016040187566451 0.01121013553972635 -0.01006236090408315 
0.01818162200433517 -0.00251683135369232 0.005852001464737541 -0.002246215035354741 -0.02193264656619562 -0.003382022506165047 -0.001456200466649829 0.001251110101439784 0.003356560437754028 -0.01298424544694242 
0.01491727000524348 -0.004491499173104776 0.001179207549981921 -0.001048894554948314 -0.008504740376232207 0.008650787118339427 0.006221960657206639 -0.01011266625063919 -0.001162775635630548 -0.009769687460386884 
0.02596509864317306 -0.007441013898799071 -0.008993185405308248 0.002835345424794863 -0.01740640152657745 -0.0009804569383168641 0.01034807225539624 -0.00537105045990451 -0.009836153867973213 -0.0005487218090227756 
0.009765121942414268 0.009131336077677056 -0.006971364514369098 -0.003787575217960068 -0.01636520677146109 -0.001685566564364018 0.0108490925693179 -0.009855956503128363 -0.0004854082128300922 0.007123873148028479 
-0.01108229651624625 0.0005768798780368943 -0.008432756983415604 -0.008986234787289072 -0.01475530395161821 0.008604935719683156 -0.003801197327234757 -0.0005025867735967845 0.001027124403800031 0.01570847032149308 
-0.01779248627637947 -0.0001565396880548767 -0.001304760648296898 -0.005146946941062262 0.01113282045091982 -0.0007916236837037805 -0.006814150248542259 0.003757125734856437 -0.006473336543680522 0.0101928948305438 
-0.002794733295836621 -0.0007138284732002613 -0.00388045204268329 -0.002055285313010594 0.005375806550622629 -0.001298862591680372 -0.003687436312058036 0.001905849839439225 -0.002841585203931918 0.002001336405248022 
-0.001422849992482519 -0.005429767023781513 0.006387926397050203 -0.007094365880903204 0.008077944406972593 -0.0152015711861256 -0.0111733964065548 0.01102006447419175 -0.008229957081038962 0.01013152121294103 
0.01081068283933372 -0.008881929128007735 0.01337978047475621 -0.009879251745299173 -0.01124946279242103 -0.01560027933574812 -0.01139714197731999 0.009491572794815049 0.0001899196914838498 0.01320501730699526 
0.007989621358673683 -0.004697939694948142 0.01330309767499877 -0.008760670327296254 -0.003729399299658204 -0.0002260882304785653 -0.01269120801297538 -0.003652530251352169 0.004112614253381802 -0.002002117229503102 
0.004305538250381473 -0.02289895387475189 0.0005976565873761061 0.006056944990510429 -0.003751606202681713 0.01658258459863831 -0.01478241538953242 -0.001918051452685476 -0.005923660205047394 -0.01775593170991553 
0.01369167974716949 -0.005740712256638593 -0.0008665501551204652 0.009979614511300042 -0.004360043224444174 0.004199354232659792 0.01330725371383767 -0.01942687762652955 -0.01227956664379497 -0.01793354794343689 
